{"learner":{"attributes":{"scikit_learn":"{\"_estimator_type\": \"classifier\"}"},"feature_names":["mcc","hour_of_day","amount","vulnerability_score1","vulnerability_score2","vulnerability_score3","vulnerability_score4","vulnerability_score5","merch_risk_score"],"feature_types":["int","int","float","float","float","float","float","float","int"],"gradient_booster":{"model":{"gbtree_model_param":{"num_parallel_tree":"1","num_trees":"100"},"iteration_indptr":[0,1,2,3,4,5,6,7,8,9,10,11,12,13,14,15,16,17,18,19,20,21,22,23,24,25,26,27,28,29,30,31,32,33,34,35,36,37,38,39,40,41,42,43,44,45,46,47,48,49,50,51,52,53,54,55,56,57,58,59,60,61,62,63,64,65,66,67,68,69,70,71,72,73,74,75,76,77,78,79,80,81,82,83,84,85,86,87,88,89,90,91,92,93,94,95,96,97,98,99,100],"tree_info":[0,0,0,0,0,0,0,0,0,0,0,0,0,0,0,0,0,0,0,0,0,0,0,0,0,0,0,0,0,0,0,0,0,0,0,0,0,0,0,0,0,0,0,0,0,0,0,0,0,0,0,0,0,0,0,0,0,0,0,0,0,0,0,0,0,0,0,0,0,0,0,0,0,0,0,0,0,0,0,0,0,0,0,0,0,0,0,0,0,0,0,0,0,0,0,0,0,0,0,0],"trees":[{"base_weights":[-1.1292597E0],"categories":[],"categories_nodes":[],"categories_segments":[],"categories_sizes":[],"default_left":[0],"id":0,"left_children":[-1],"loss_changes":[0E0],"parents":[2147483647],"right_children":[-1],"split_conditions":[-3.3877793E-1],"split_indices":[0],"split_type":[0],"sum_hessian":[3.417663E4],"tree_param":{"num_deleted":"0","num_feature":"9","num_nodes":"1","size_leaf_vector":"1"}},{"base_weights":[-1.0882792E0,-3.2673272E-1,-1.015004E0,-1.021159E0,5.0602105E-2,-3.2402158E-1,-9.2171556E-1,-5.396722E-1,-9.7975427E-1,9.429707E-2,-2.9811388E-1,-2.1462552E-2,-9.883271E-1,-2.4623968E-1,2.2146046E-1,-9.504477E-2,-2.989321E-1],"categories":[],"categories_nodes":[],"categories_segments":[],"categories_sizes":[],"default_left":[0,0,0,0,0,0,0,0,0,0,0,0,0,0,0,0,0],"id":1,"left_children":[1,-1,3,5,-1,-1,7,9,11,13,-1,-1,15,-1,-1,-1,-1],"loss_changes":[4.8046875E-1,0E0,2.4101868E0,7.9556274E-1,0E0,0E0,2.1444473E0,5.311191E0,7.3462677E-1,5.6011386E0,0E0,0E0,2.421341E-1,0E0,0E0,0E0,0E0],"parents":[2147483647,0,0,2,2,3,3,6,6,7,7,8,8,9,9,12,12],"right_children":[2,-1,4,6,-1,-1,8,10,12,14,-1,-1,16,-1,-1,-1,-1],"split_conditions":[2.1063E2,-3.2673272E-1,1E0,5.094E3,5.0602105E-2,-3.2402158E-1,5.311E3,1.3E1,2E-2,9E0,-2.9811388E-1,-2.1462552E-2,2E-2,-2.4623968E-1,2.2146046E-1,-9.504477E-2,-2.989321E-1],"split_indices":[2,0,4,0,0,0,0,1,7,1,0,0,6,0,0,0,0],"split_type":[0,0,0,0,0,0,0,0,0,0,0,0,0,0,0,0,0],"sum_hessian":[2.6118443E4,2.581227E4,3.0617477E2,3.047275E2,1.4472547E0,1.851682E2,1.1955932E2,1.7125847E1,1.0243347E2,7.4774823E0,9.648364E0,1.0452394E0,1.0138823E2,2.9749124E0,4.50257E0,1.6884638E0,9.969977E1],"tree_param":{"num_deleted":"0","num_feature":"9","num_nodes":"17","size_leaf_vector":"1"}},{"base_weights":[-1.05867E0,-3.1791967E-1,-9.6709764E-1,-9.746791E-1,4.042332E-2,-3.14483E-1,-8.56273E-1,-4.7047165E-1,-9.233123E-1,1.3380037E-1,-8.7042946E-1,-1.836574E-2,-9.336147E-1,-2.3354553E-1,2.1855424E-1,-2.8716436E-1,-3.4216885E-2,-8.1722386E-2,-2.829886E-1],"categories":[],"categories_nodes":[],"categories_segments":[],"categories_sizes":[],"default_left":[0,0,0,0,0,0,0,0,0,0,0,0,0,0,0,0,0,0,0],"id":2,"left_children":[1,-1,3,5,-1,-1,7,9,11,13,15,-1,17,-1,-1,-1,-1,-1,-1],"loss_changes":[9.003906E-1,0E0,2.1238403E0,1.1678467E0,0E0,0E0,2.0565567E0,4.0551476E0,6.623764E-1,4.558871E0,5.432701E-1,0E0,2.550354E-1,0E0,0E0,0E0,0E0,0E0,0E0],"parents":[2147483647,0,0,2,2,3,3,6,6,7,7,8,8,9,9,10,10,12,12],"right_children":[2,-1,4,6,-1,-1,8,10,12,14,16,-1,18,-1,-1,-1,-1,-1,-1],"split_conditions":[2.1063E2,-3.1791967E-1,1E0,5.094E3,4.042332E-2,-3.14483E-1,5.311E3,1.2E1,2E-2,3.6E-1,8.6E-1,-1.836574E-2,2E-2,-2.3354553E-1,2.1855424E-1,-2.8716436E-1,-3.4216885E-2,-8.1722386E-2,-2.829886E-1],"split_indices":[2,0,4,0,0,0,0,1,7,6,4,0,6,0,0,0,0,0,0],"split_type":[0,0,0,0,0,0,0,0,0,0,0,0,0,0,0,0,0,0,0],"sum_hessian":[1.980534E4,1.9567818E4,2.3752284E2,2.3601431E2,1.5085332E0,1.4070395E2,9.531035E1,1.529688E1,8.001347E1,6.357373E0,8.939507E0,1.0268869E0,7.898659E1,2.3868933E0,3.9704802E0,7.781175E0,1.158331E0,1.5602225E0,7.742636E1],"tree_param":{"num_deleted":"0","num_feature":"9","num_nodes":"19","size_leaf_vector":"1"}},{"base_weights":[-1.0360917E0,-3.112417E-1,-9.207669E-1,-3.0694288E-1,-7.683208E-1,-5.1250947E-1,-8.976182E-1,-6.2677306E-1,2.5516745E-1,-2.9873708E-1,-6.57224E-1,2.7738968E-1,-7.391882E-1,-1.1222066E-3,-8.97018E-1,2.7666274E-1,-9.292999E-2,-4.179411E-2,-2.7147803E-1,3.9081907E-1,-2.4087182E-1,-2.8958926E-1,-4.0254332E-2],"categories":[],"categories_nodes":[],"categories_segments":[],"categories_sizes":[],"default_left":[0,0,0,0,0,0,0,0,0,0,0,0,0,0,0,0,0,0,0,0,0,0,0],"id":3,"left_children":[1,-1,3,-1,5,7,9,11,-1,-1,13,15,17,19,21,-1,-1,-1,-1,-1,-1,-1,-1],"loss_changes":[1.4238281E0,0E0,2.1117554E0,0E0,2.1401215E0,5.006891E0,5.4649734E-1,2.9573336E0,0E0,0E0,2.783236E0,1.6946715E0,2.2955475E0,7.0444946E0,5.45454E-1,0E0,0E0,0E0,0E0,0E0,0E0,0E0,0E0],"parents":[2147483647,0,0,2,2,4,4,5,5,6,6,7,7,10,10,11,11,12,12,13,13,14,14],"right_children":[2,-1,4,-1,6,8,10,12,-1,-1,14,16,18,20,22,-1,-1,-1,-1,-1,-1,-1,-1],"split_conditions":[2.1063E2,-3.112417E-1,5.094E3,-3.0694288E-1,5.732E3,5.712E3,6.7E-1,1.1E-1,2.5516745E-1,-2.9873708E-1,7.6E-1,2.7E-1,1E1,3.4E-1,8.9E-1,2.7666274E-1,-9.292999E-2,-4.179411E-2,-2.7147803E-1,3.9081907E-1,-2.4087182E-1,-2.8958926E-1,-4.0254332E-2],"split_indices":[2,0,0,0,0,0,5,7,0,0,5,5,1,4,4,0,0,0,0,0,0,0,0],"split_type":[0,0,0,0,0,0,0,0,0,0,0,0,0,0,0,0,0,0,0,0,0,0,0],"sum_hessian":[1.4942905E4,1.4758228E4,1.8467838E2,1.07066025E2,7.761235E1,2.7724323E1,4.9888027E1,2.6078392E1,1.6459311E0,3.3191128E1,1.6696901E1,2.721515E0,2.3356876E1,4.737976E0,1.1958924E1,1.0251029E0,1.696412E0,5.4546957E0,1.7902182E1,1.5662183E0,3.1717577E0,1.0732852E1,1.2260731E0],"tree_param":{"num_deleted":"0","num_feature":"9","num_nodes":"23","size_leaf_vector":"1"}},{"base_weights":[-1.0176985E0,-1.0195143E0,-8.722685E-1,-5.74517E-1,-3.0590573E-1,-1.0006872E0,-6.9636786E-1,-2.4988367E-1,5.533256E-2,-3.0362755E-1,-4.4032985E-1,-4.2875502E-1,-8.458623E-1,-7.460823E-3,-1.8154745E-1,-3.0598357E-2,-7.5591105E-1,-2.8916988E-1,-5.85621E-1,-7.13337E-1,4.962473E-1,-8.776321E-1,3.38828E-2,-8.628534E-3,-8.4745765E-1,-1.4075673E-2,-2.5349313E-1,5.380836E-1,-3.0010069E-2,-1.0799891E-2,-2.85497E-1,2.4506728E-1,-2.2500063E-1,-2.0781418E-2,-2.792588E-1],"categories":[],"categories_nodes":[],"categories_segments":[],"categories_sizes":[],"default_left":[0,0,0,0,0,0,0,0,0,0,0,0,0,0,0,0,0,0,0,0,0,0,0,0,0,0,0,0,0,0,0,0,0,0,0],"id":4,"left_children":[1,3,5,7,-1,9,11,-1,-1,-1,13,15,17,-1,-1,19,21,-1,23,25,27,29,-1,31,33,-1,-1,-1,-1,-1,-1,-1,-1,-1,-1],"loss_changes":[2.0791016E0,2.607422E-1,2.5909958E0,1.4411805E0,0E0,7.736969E-2,2.226118E0,0E0,0E0,0E0,2.1795732E-1,3.2620249E0,6.7926025E-1,0E0,0E0,4.820664E0,1.5588179E0,0E0,2.2863755E0,4.7083735E-1,6.0578623E0,7.2708225E-1,0E0,4.131364E0,6.126566E-1,0E0,0E0,0E0,0E0,0E0,0E0,0E0,0E0,0E0,0E0],"parents":[2147483647,0,0,1,1,2,2,3,3,5,5,6,6,10,10,11,11,12,12,15,15,16,16,18,18,19,19,20,20,21,21,23,23,24,24],"right_children":[2,4,6,8,-1,10,12,-1,-1,-1,14,16,18,-1,-1,20,22,-1,24,26,28,30,-1,32,34,-1,-1,-1,-1,-1,-1,-1,-1,-1,-1],"split_conditions":[2.1063E2,3.256E3,5.094E3,3E3,-3.0590573E-1,9.8E-1,5.732E3,-2.4988367E-1,5.533256E-2,-3.0362755E-1,1.3E1,1.3E1,6.7E-1,-7.460823E-3,-1.8154745E-1,9E0,5.712E3,-2.8916988E-1,7.6E-1,2.2E-1,1E1,1E-1,3.38828E-2,3.4E-1,1.2E-1,-1.4075673E-2,-2.5349313E-1,5.380836E-1,-3.0010069E-2,-1.0799891E-2,-2.85497E-1,2.4506728E-1,-2.2500063E-1,-2.0781418E-2,-2.792588E-1],"split_indices":[2,0,0,0,0,6,0,0,0,0,1,1,5,0,0,1,0,0,5,7,1,3,0,4,6,0,0,0,0,0,0,0,0,0,0],"split_type":[0,0,0,0,0,0,0,0,0,0,0,0,0,0,0,0,0,0,0,0,0,0,0,0,0,0,0,0,0,0,0,0,0,0,0],"sum_hessian":[1.1240348E4,1.1095797E4,1.4455112E2,5.5645576E0,1.1090232E4,8.0842186E1,6.3708923E1,4.078371E0,1.4861861E0,7.843961E1,2.4025764E0,2.4220104E1,3.9488823E1,1.009343E0,1.3932335E0,1.1417844E1,1.2802259E1,2.5306658E1,1.4182164E1,4.8189697E0,6.598874E0,1.1220266E1,1.5819933E0,4.749329E0,9.432836E0,1.0186329E0,3.8003368E0,1.4455985E0,5.1532755E0,1.02724E0,1.0193027E1,2.1989436E0,2.5503852E0,1.0903332E0,8.342503E0],"tree_param":{"num_deleted":"0","num_feature":"9","num_nodes":"35","size_leaf_vector":"1"}},{"base_weights":[-1.0014883E0,-1.0038513E0,-8.223886E-1,-5.0878835E-1,-1.0040752E0,-9.794718E-1,-6.273045E-1,5.117785E-2,-2.3724596E-1,-3.0184138E-1,-9.4011486E-1,-9.940744E-1,-3.95699E-1,-4.189096E-1,-8.7234896E-1,-3.4870017E-1,-9.5290965E-1,-3.0300945E-1,-4.2945486E-1,-1.6820244E-1,-5.8405898E-3,-1.8303363E-1,-8.4788156E-1,-2.6842326E-2,-9.072248E-1,2.2739E-1,-2.5309414E-1,-2.8686282E-1,-7.269488E-2,-7.7633536E-3,-1.779688E-1,-6.266515E-1,3.6287695E-2,-2.7815938E-1,-3.9913807E-2,-1.299786E-2,-2.838725E-1,-2.6449054E-1,1.4030689E-1,-8.503957E-2,1.6756733E-1],"categories":[],"categories_nodes":[],"categories_segments":[],"categories_sizes":[],"default_left":[0,0,0,0,0,0,0,0,0,0,0,0,0,0,0,0,0,0,0,0,0,0,0,0,0,0,0,0,0,0,0,0,0,0,0,0,0,0,0,0,0],"id":5,"left_children":[1,3,5,7,9,11,13,-1,-1,-1,15,17,19,21,23,25,27,-1,29,-1,-1,31,33,-1,35,-1,-1,-1,-1,-1,-1,37,39,-1,-1,-1,-1,-1,-1,-1,-1],"loss_changes":[2.7490234E0,4.1210938E-1,2.92482E0,1.2446798E0,1.5234375E-1,1.3684845E-1,2.407299E0,0E0,0E0,0E0,1.7511597E0,1.0697937E-1,1.8640938E-1,3.0084991E0,5.749359E-1,4.6968884E0,3.9886475E-1,0E0,2.0866531E-1,0E0,0E0,2.1096282E0,4.8997355E-1,0E0,7.3075104E-1,0E0,0E0,0E0,0E0,0E0,0E0,2.4076796E0,2.7131126E0,0E0,0E0,0E0,0E0,0E0,0E0,0E0,0E0],"parents":[2147483647,0,0,1,1,2,2,3,3,4,4,5,5,6,6,10,10,11,11,12,12,13,13,14,14,15,15,16,16,18,18,21,21,22,22,24,24,31,31,32,32],"right_children":[2,4,6,8,10,12,14,-1,-1,-1,16,18,20,22,24,26,28,-1,30,-1,-1,32,34,-1,36,-1,-1,-1,-1,-1,-1,38,40,-1,-1,-1,-1,-1,-1,-1,-1],"split_conditions":[2.1063E2,3.256E3,5.094E3,3.2E-1,7.542E3,9.8E-1,1.4E1,5.117785E-2,-2.3724596E-1,-3.0184138E-1,7.02E0,9.7E-1,4.8E-1,7.995E3,5E-2,2.7E-1,1E0,-3.0300945E-1,3.73E3,-1.6820244E-1,-5.8405898E-3,3.2E-1,1.3E1,-2.6842326E-2,5E-2,2.2739E-1,-2.5309414E-1,-2.8686282E-1,-7.269488E-2,-7.7633536E-3,-1.779688E-1,8.5E-1,6.2E-1,-2.7815938E-1,-3.9913807E-2,-1.299786E-2,-2.838725E-1,-2.6449054E-1,1.4030689E-1,-8.503957E-2,1.6756733E-1],"split_indices":[2,0,0,5,0,6,1,0,0,0,2,7,3,0,7,6,3,0,0,0,0,6,1,0,6,0,0,0,0,0,0,4,7,0,0,0,0,0,0,0,0],"split_type":[0,0,0,0,0,0,0,0,0,0,0,0,0,0,0,0,0,0,0,0,0,0,0,0,0,0,0,0,0,0,0,0,0,0,0,0,0,0,0,0,0],"sum_hessian":[8.443291E3,8.328797E3,1.1449394E2,4.791921E0,8.324005E3,6.119693E1,5.329701E1,1.5216267E0,3.2702947E0,8.049673E3,2.7433224E2,5.9017803E1,2.1791286E0,3.0266653E1,2.3030357E1,6.407571E0,2.6792465E2,5.6628517E1,2.3892841E0,1.1740627E0,1.0050659E0,2.0449114E1,9.817538E0,1.1342723E0,2.1896084E1,1.8159108E0,4.59166E0,2.6634222E2,1.5824366E0,1.023979E0,1.3653053E0,6.150785E0,1.4298329E1,8.569599E0,1.2479396E0,1.0373721E0,2.0858713E1,5.1461024E0,1.0046825E0,9.152237E0,5.146092E0],"tree_param":{"num_deleted":"0","num_feature":"9","num_nodes":"41","size_leaf_vector":"1"}},{"base_weights":[-9.8579854E-1,-9.889121E-1,-7.662632E-1,-4.47402E-1,-9.892055E-1,-9.578558E-1,-5.538941E-1,-2.2801676E-1,7.664411E-2,-2.9757553E-1,-9.068721E-1,-9.7648823E-1,-1.0681554E-1,-3.8913497E-1,-2.6706773E-1,-2.9324073E-1,-9.2296606E-1,-2.9912454E-1,-3.8621905E-1,-6.731717E-2,-7.213775E-1,-2.420468E-1,5.540266E-1,-9.2713404E-1,-6.2326096E-2,-3.970457E-3,-1.6570757E-1,-2.6579782E-1,4.6567947E-1,-2.7846056E-1,-3.2677105E-1,4.3819484E-1,-1.6465679E-1,-2.8045157E-1,-1.5594107E-1,2.3841113E-1,-1.4423883E-1,-9.382907E-2,2.8811884E-1,1.2845719E-1,-2.4411261E-1],"categories":[],"categories_nodes":[],"categories_segments":[],"categories_sizes":[],"default_left":[0,0,0,0,0,0,0,0,0,0,0,0,0,0,0,0,0,0,0,0,0,0,0,0,0,0,0,0,0,0,0,0,0,0,0,0,0,0,0,0,0],"id":6,"left_children":[1,3,5,7,9,11,13,-1,-1,-1,15,17,-1,19,-1,21,23,-1,25,27,29,-1,31,33,-1,-1,-1,35,37,-1,39,-1,-1,-1,-1,-1,-1,-1,-1,-1,-1],"loss_changes":[3.5776367E0,5.5126953E-1,3.259407E0,1.3392875E0,4.9560547E-1,1.8602753E-1,2.2330217E0,0E0,0E0,0E0,1.8125305E0,1.6913605E-1,0E0,3.481997E0,0E0,3.4306135E0,4.187317E-1,0E0,1.8908435E-1,2.0148811E0,1.0142679E0,0E0,3.9819329E0,1.530304E-1,0E0,0E0,0E0,3.4971514E0,2.3082995E0,0E0,2.9566908E0,0E0,0E0,0E0,0E0,0E0,0E0,0E0,0E0,0E0,0E0],"parents":[2147483647,0,0,1,1,2,2,3,3,4,4,5,5,6,6,10,10,11,11,13,13,15,15,16,16,18,18,19,19,20,20,22,22,23,23,27,27,28,28,30,30],"right_children":[2,4,6,8,10,12,14,-1,-1,-1,16,18,-1,20,-1,22,24,-1,26,28,30,-1,32,34,-1,-1,-1,36,38,-1,40,-1,-1,-1,-1,-1,-1,-1,-1,-1,-1],"split_conditions":[2.1063E2,3.256E3,5.094E3,3E3,7.542E3,9.8E-1,7.995E3,-2.2801676E-1,7.664411E-2,-2.9757553E-1,7.02E0,9.7E-1,-1.0681554E-1,1.3E1,-2.6706773E-1,6.3E-1,1E0,-2.9912454E-1,1.5E1,7.6E-1,6.4E-1,-2.420468E-1,4.3E-1,9.8E-1,-6.2326096E-2,-3.970457E-3,-1.6570757E-1,1.2E-1,9E0,-2.7846056E-1,4E-1,4.3819484E-1,-1.6465679E-1,-2.8045157E-1,-1.5594107E-1,2.3841113E-1,-1.4423883E-1,-9.382907E-2,2.8811884E-1,1.2845719E-1,-2.4411261E-1],"split_indices":[2,0,0,0,0,6,0,0,0,0,2,7,0,1,0,7,3,0,1,4,5,0,6,5,0,0,0,5,1,0,3,0,0,0,0,0,0,0,0,0,0],"split_type":[0,0,0,0,0,0,0,0,0,0,0,0,0,0,0,0,0,0,0,0,0,0,0,0,0,0,0,0,0,0,0,0,0,0,0,0,0,0,0,0,0],"sum_hessian":[6.3422036E3,6.250058E3,9.214593E1,4.210749E0,6.245847E3,4.6597137E1,4.5548786E1,2.8580842E0,1.3526653E0,6.0359087E3,2.0993835E2,4.459387E1,2.0032704E0,3.2020077E1,1.3528711E1,5.8566527E0,2.040817E2,4.2424545E1,2.1693227E0,1.6876104E1,1.5143972E1,3.676083E0,2.1805694E0,2.026047E2,1.4769983E0,1.001226E0,1.1680969E0,1.2662191E1,4.2139125E0,9.048944E0,6.0950274E0,1.0187309E0,1.1618385E0,1.9757263E2,5.032064E0,1.6798463E0,1.0982346E1,1.7803309E0,2.4335816E0,2.4371097E0,3.6579175E0],"tree_param":{"num_deleted":"0","num_feature":"9","num_nodes":"41","size_leaf_vector":"1"}},{"base_weights":[-9.692634E-1,-9.733334E-1,-7.0536906E-1,-9.768804E-1,-8.6864954E-1,-9.340123E-1,-4.813262E-1,-5.071091E-1,-9.7747576E-1,-2.470264E-1,-8.8854134E-1,-9.577812E-1,-9.2359036E-2,-2.829027E-1,-7.726421E-1,-2.3909912E-1,-7.897517E-2,-9.5628524E-1,-2.9650596E-1,4.5309284E-1,-2.3034678E-1,-7.3239857E-1,-9.444066E-1,-2.952894E-1,-1.0428955E-1,-1.1353293E-1,-2.5355858E-1,-4.0101886E-1,-2.7802435E-1,1.0326507E-1,-1.7441353E-1,6.073182E-1,-9.606178E-1,-1.6315651E-1,3.582185E-1,-7.691426E-1,9.727306E-2,-2.4911077E-1,-9.607517E-1,-3.4968573E-1,3.14439E-1,-2.2882177E-1,1.1925785E-1,3.611306E-1,-1.7371012E-1,-2.982814E-1,-2.7518025E-1,-2.4239828E-1,9.586885E-2,1.2168204E-1,-1.9634424E-1,-1.3262816E-1,-2.9325643E-1,2.087433E-1,-1.6972077E-1,-7.935371E-2,2.9713473E-1,2.3330303E-1,-1.723245E-1],"categories":[],"categories_nodes":[],"categories_segments":[],"categories_sizes":[],"default_left":[0,0,0,0,0,0,0,0,0,0,0,0,0,0,0,0,0,0,0,0,0,0,0,0,0,0,0,0,0,0,0,0,0,0,0,0,0,0,0,0,0,0,0,0,0,0,0,0,0,0,0,0,0,0,0,0,0,0,0],"id":7,"left_children":[1,3,5,7,9,11,13,15,17,19,21,23,-1,25,27,-1,29,31,-1,33,-1,35,37,-1,-1,39,-1,41,-1,-1,-1,43,45,-1,-1,47,-1,49,51,53,55,-1,57,-1,-1,-1,-1,-1,-1,-1,-1,-1,-1,-1,-1,-1,-1,-1,-1],"loss_changes":[4.4370117E0,8.9501953E-1,3.4480667E0,7.7246094E-1,1.7947311E0,2.4975395E-1,2.122096E0,9.071717E-1,9.814453E-2,2.6945958E0,6.8183136E-1,2.2056198E-1,0E0,2.3482296E0,5.3485584E-1,0E0,1.1070771E0,1.1193359E1,0E0,3.1419842E0,0E0,2.033247E0,1.0393295E0,0E0,0E0,2.2201133E0,0E0,1.2959018E0,0E0,0E0,0E0,4.192831E0,1.3670654E0,0E0,0E0,2.1488514E0,0E0,1.3096263E0,5.2093506E-1,3.5397234E0,3.373724E0,0E0,2.0409608E0,0E0,0E0,0E0,0E0,0E0,0E0,0E0,0E0,0E0,0E0,0E0,0E0,0E0,0E0,0E0,0E0],"parents":[2147483647,0,0,1,1,2,2,3,3,4,4,5,5,6,6,7,7,8,8,9,9,10,10,11,11,13,13,14,14,16,16,17,17,19,19,21,21,22,22,25,25,27,27,31,31,32,32,35,35,37,37,38,38,39,39,40,40,42,42],"right_children":[2,4,6,8,10,12,14,16,18,20,22,24,-1,26,28,-1,30,32,-1,34,-1,36,38,-1,-1,40,-1,42,-1,-1,-1,44,46,-1,-1,48,-1,50,52,54,56,-1,58,-1,-1,-1,-1,-1,-1,-1,-1,-1,-1,-1,-1,-1,-1,-1,-1],"split_conditions":[2.1063E2,7.542E3,5.094E3,3.387E3,7.02E0,9.8E-1,1.4E1,5.3E-1,5.411E3,2.7E-1,1.2E1,9.7E-1,-9.2359036E-2,8.011E3,3.3E-1,-2.3909912E-1,6.4E-1,1.06E0,-2.9650596E-1,6.2E-1,-2.3034678E-1,9.8E-1,3E-2,-2.952894E-1,-1.0428955E-1,6.7E-1,-2.5355858E-1,6.4E-1,-2.7802435E-1,1.0326507E-1,-1.7441353E-1,6.8E-1,5.094E3,-1.6315651E-1,3.582185E-1,9.8E-1,9.727306E-2,3.7E-1,7.802E3,1.1E-1,6.2E-1,-2.2882177E-1,7.9E-1,3.611306E-1,-1.7371012E-1,-2.982814E-1,-2.7518025E-1,-2.4239828E-1,9.586885E-2,1.2168204E-1,-1.9634424E-1,-1.3262816E-1,-2.9325643E-1,2.087433E-1,-1.6972077E-1,-7.935371E-2,2.9713473E-1,2.3330303E-1,-1.723245E-1],"split_indices":[2,0,0,0,2,6,1,6,0,6,1,7,0,0,7,0,5,2,0,7,0,3,3,0,0,5,0,5,0,0,0,3,0,0,0,5,0,6,0,7,7,0,5,0,0,0,0,0,0,0,0,0,0,0,0,0,0,0,0],"split_type":[0,0,0,0,0,0,0,0,0,0,0,0,0,0,0,0,0,0,0,0,0,0,0,0,0,0,0,0,0,0,0,0,0,0,0,0,0,0,0,0,0,0,0,0,0,0,0,0,0,0,0,0,0,0,0,0,0,0,0],"sum_hessian":[4.7692437E3,4.6941567E3,7.5087105E1,4.532262E3,1.618945E2,3.5593678E1,3.9493427E1,6.816518E0,4.525446E3,5.4360294E0,1.5645847E2,3.378167E1,1.8120059E0,2.4664713E1,1.4828715E1,3.5507553E0,3.2657628E0,1.5651892E3,2.9602563E3,2.3742568E0,3.0617726E0,4.4945744E1,1.1151272E2,3.1787018E1,1.994654E0,1.9878857E1,4.7858567E0,5.402622E0,9.426093E0,1.9435234E0,1.3222394E0,3.9403732E0,1.5612488E3,1.1256949E0,1.2485619E0,4.3698254E1,1.2474898E0,2.934263E0,1.0857846E2,1.2928111E1,6.9507446E0,2.9120235E0,2.4905987E0,2.6123214E0,1.3280517E0,8.665756E2,6.946732E2,4.2441525E1,1.2567321E0,1.1218182E0,1.8124449E0,4.2576923E0,1.0432076E2,1.8337486E0,1.1094363E1,4.0720544E0,2.8786905E0,1.2156401E0,1.2749587E0],"tree_param":{"num_deleted":"0","num_feature":"9","num_nodes":"59","size_leaf_vector":"1"}},{"base_weights":[-9.505768E-1,-9.581255E-1,-7.2288805E-1,-9.626205E-1,-8.080622E-1,-7.5082356E-1,6.089981E-1,-7.1372944E-1,-9.638208E-1,-3.0920388E-2,-8.3789104E-1,-9.3599224E-1,-5.911129E-1,4.2686388E-1,-1.5318373E-1,2.528375E-1,-8.540341E-1,-9.3934804E-1,-9.7597796E-1,-2.0250289E-1,6.098677E-1,-5.914659E-1,-9.3001074E-1,-5.2361004E-3,-9.537477E-1,-5.5306762E-2,-7.3265815E-1,-2.9922155E-1,-2.8461212E-1,8.6645715E-2,-9.434392E-1,-2.982962E-1,-9.513888E-1,2.810559E-1,-8.364993E-3,-1.22227736E-1,-8.184032E-1,-1.3935669E-1,-9.5522916E-1,-9.710143E-1,-3.7419716E-1,9.498357E-1,-3.2945117E-1,-8.340441E-1,-2.006672E-1,1.03735216E-1,-2.0274383E-1,-1.6925262E-1,4.4448617E-1,-2.9499936E-1,-2.6855427E-1,-2.117996E-1,-2.9100946E-1,-2.1514334E-1,1.9384728E-1,-2.5503822E-2,-2.574344E-1,1.2429311E-1,-1.7376304E-1,-1.1652342E-1,-2.9452628E-1,-2.9692304E-1,-1.3446414E-1,-6.6400156E-3,-1.6059242E-1,-3.8797468E-2,4.6286097E-1,-2.0910843E-1,1.2170059E-1,-8.934478E-2,-2.73214E-1,7.205217E-2,-1.5528359E-1],"categories":[],"categories_nodes":[],"categories_segments":[],"categories_sizes":[],"default_left":[0,0,0,0,0,0,0,0,0,0,0,0,0,0,0,0,0,0,0,0,0,0,0,0,0,0,0,0,0,0,0,0,0,0,0,0,0,0,0,0,0,0,0,0,0,0,0,0,0,0,0,0,0,0,0,0,0,0,0,0,0,0,0,0,0,0,0,0,0,0,0,0,0],"id":8,"left_children":[1,3,5,7,9,11,13,15,17,19,21,23,25,-1,-1,-1,27,29,31,-1,33,35,37,-1,39,41,43,45,-1,47,49,-1,51,-1,-1,53,55,57,59,61,63,65,67,69,71,-1,-1,-1,-1,-1,-1,-1,-1,-1,-1,-1,-1,-1,-1,-1,-1,-1,-1,-1,-1,-1,-1,-1,-1,-1,-1,-1,-1],"loss_changes":[5.490967E0,1.5686035E0,4.904026E0,3.1982422E-1,2.463913E0,2.921814E0,3.4669752E0,5.0965357E0,8.105469E-2,2.4787915E0,1.7971268E0,8.4288025E-1,4.950165E0,0E0,0E0,0E0,7.078562E-1,4.8652954E0,5.2978516E-2,0E0,6.592405E-1,3.1885366E0,1.3327103E0,0E0,1.5385437E-1,4.400161E0,2.6358147E0,1.2570106E0,0E0,5.7767496E0,1.3052368E0,0E0,3.7502441E0,0E0,0E0,5.602596E0,5.281601E-1,1.078494E0,6.872406E-1,4.1671753E-2,1.6525182E-1,2.3985724E0,3.6325037E0,1.5104084E0,1.4706912E0,0E0,0E0,0E0,0E0,0E0,0E0,0E0,0E0,0E0,0E0,0E0,0E0,0E0,0E0,0E0,0E0,0E0,0E0,0E0,0E0,0E0,0E0,0E0,0E0,0E0,0E0,0E0,0E0],"parents":[2147483647,0,0,1,1,2,2,3,3,4,4,5,5,6,6,7,7,8,8,9,9,10,10,11,11,12,12,16,16,17,17,18,18,20,20,21,21,22,22,24,24,25,25,26,26,27,27,29,29,30,30,32,32,35,35,36,36,37,37,38,38,39,39,40,40,41,41,42,42,43,43,44,44],"right_children":[2,4,6,8,10,12,14,16,18,20,22,24,26,-1,-1,-1,28,30,32,-1,34,36,38,-1,40,42,44,46,-1,48,50,-1,52,-1,-1,54,56,58,60,62,64,66,68,70,72,-1,-1,-1,-1,-1,-1,-1,-1,-1,-1,-1,-1,-1,-1,-1,-1,-1,-1,-1,-1,-1,-1,-1,-1,-1,-1,-1,-1],"split_conditions":[1.6649E2,7.832E3,9.9E-1,3.509E3,7.02E0,5.094E3,4.1E-1,4.505E1,5.411E3,6.3E-1,1.2E1,3.005E3,5.311E3,4.2686388E-1,-1.5318373E-1,2.528375E-1,1.7E-1,1.06E0,5.651E3,-2.0250289E-1,5.1E-1,8.011E3,3E-2,-5.2361004E-3,9.8E-1,1.4E-1,2.9142E2,1.3E1,-2.8461212E-1,7.8E-1,5.094E3,-2.982962E-1,5.812E3,2.810559E-1,-8.364993E-3,9E0,8E-2,3.7E-1,6E-2,9.7E-1,5.4E-1,7E-2,7.5E-1,1.4E-1,4.1E-1,1.03735216E-1,-2.0274383E-1,-1.6925262E-1,4.4448617E-1,-2.9499936E-1,-2.6855427E-1,-2.117996E-1,-2.9100946E-1,-2.1514334E-1,1.9384728E-1,-2.5503822E-2,-2.574344E-1,1.2429311E-1,-1.7376304E-1,-1.1652342E-1,-2.9452628E-1,-2.9692304E-1,-1.3446414E-1,-6.6400156E-3,-1.6059242E-1,-3.8797468E-2,4.6286097E-1,-2.0910843E-1,1.2170059E-1,-8.934478E-2,-2.73214E-1,7.205217E-2,-1.5528359E-1],"split_indices":[2,0,4,0,2,0,3,2,0,7,1,0,0,0,0,0,5,2,0,0,4,0,3,0,6,5,2,1,0,7,0,0,0,0,0,1,5,6,4,7,5,5,5,4,4,0,0,0,0,0,0,0,0,0,0,0,0,0,0,0,0,0,0,0,0,0,0,0,0,0,0,0,0],"split_type":[0,0,0,0,0,0,0,0,0,0,0,0,0,0,0,0,0,0,0,0,0,0,0,0,0,0,0,0,0,0,0,0,0,0,0,0,0,0,0,0,0,0,0,0,0,0,0,0,0,0,0,0,0,0,0,0,0,0,0,0,0,0,0,0,0,0,0,0,0,0,0,0,0],"sum_hessian":[3.5964744E3,3.4779595E3,1.1851486E2,3.3715532E3,1.06406395E2,1.1650746E2,2.0074015E0,1.90413E1,3.352512E3,4.008484E0,1.0239791E2,5.170272E1,6.480474E1,1.0055581E0,1.0018432E0,1.160459E0,1.788084E1,1.138641E3,2.2138708E3,1.9724584E0,2.0360253E0,2.988216E1,7.251575E1,1.0180708E0,5.068465E1,1.3832785E1,5.097196E1,3.2128897E0,1.4667951E1,4.4421954E0,1.1341989E3,1.2454045E3,9.6846625E2,1.0359051E0,1.0001202E0,1.024245E1,1.9639711E1,2.4431617E0,7.0072586E1,4.8562366E1,2.1222823E0,2.4361145E0,1.139667E1,4.233588E1,8.636078E0,1.2145234E0,1.9983662E0,3.435118E0,1.0070775E0,6.10316E2,5.238829E2,7.112537E1,8.973409E2,5.810443E0,4.432007E0,1.1701512E0,1.846956E1,1.1073512E0,1.3358105E0,3.831869E0,6.6240715E1,4.6020546E1,2.5418224E0,1.0233692E0,1.0989132E0,1.1412596E0,1.294855E0,7.632208E0,3.7644625E0,5.906935E0,3.6428947E1,3.7133582E0,4.92272E0],"tree_param":{"num_deleted":"0","num_feature":"9","num_nodes":"73","size_leaf_vector":"1"}},{"base_weights":[-9.2842007E-1,-9.38134E-1,-6.582091E-1,-9.439468E-1,-7.552307E-1,-9.131134E-1,-4.6293458E-1,-9.098275E-1,-9.6144885E-1,-4.8314047E-1,-8.737705E-1,-6.9371224E-3,-9.35222E-1,-5.161945E-1,2.862641E-1,3.2534298E-1,-9.17189E-1,-2.9571515E-1,-9.2934537E-1,-3.150262E-2,-7.361434E-1,-8.953626E-2,-9.026061E-1,-9.564829E-1,-3.7194294E-1,-3.6561795E-2,-6.6654474E-1,3.8320804E-1,-1.787589E-1,-9.6611094E-1,-8.575826E-1,-6.346969E-1,-9.5361304E-1,-6.598737E-1,5.303029E-1,-2.620686E-1,-1.559588E-1,-1.6952676E-1,1.426514E-1,-1.22220285E-1,-9.346407E-1,-2.9416338E-1,-3.920222E-1,-1.6142069E-1,-3.4379081E-3,2.1523722E-1,-2.2749637E-1,-8.374923E-1,-2.9795793E-1,2.7189684E-1,-2.2334053E-1,-1.3127285E-1,-2.9097512E-1,5.195536E-1,-2.6086766E-1,5.8912583E-2,-2.1373874E-1,-2.868981E-1,-8.7570846E-2,-1.6966184E-3,-2.3908652E-1,3.5670635E-1,-6.9130056E-2,-2.00109E-1,1.3507777E-1,1.2231511E-1,-1.6965605E-1,-9.8758504E-2,-2.9070687E-1,-2.808327E-3,-1.6804214E-1,-1.4867274E-1,1.476622E-1,-3.3175055E-2,-2.5964698E-1,-2.1527268E-1,8.644019E-3],"categories":[],"categories_nodes":[],"categories_segments":[],"categories_sizes":[],"default_left":[0,0,0,0,0,0,0,0,0,0,0,0,0,0,0,0,0,0,0,0,0,0,0,0,0,0,0,0,0,0,0,0,0,0,0,0,0,0,0,0,0,0,0,0,0,0,0,0,0,0,0,0,0,0,0,0,0,0,0,0,0,0,0,0,0,0,0,0,0,0,0,0,0,0,0,0,0],"id":9,"left_children":[1,3,5,7,9,11,13,15,17,19,21,-1,23,25,-1,27,29,-1,31,33,35,37,39,41,43,45,47,-1,49,51,53,55,57,59,61,-1,63,-1,-1,65,67,-1,69,-1,-1,71,-1,73,75,-1,-1,-1,-1,-1,-1,-1,-1,-1,-1,-1,-1,-1,-1,-1,-1,-1,-1,-1,-1,-1,-1,-1,-1,-1,-1,-1,-1],"loss_changes":[6.5334473E0,2.0805664E0,4.4498672E0,6.435547E-1,2.3493881E0,7.936325E-1,4.829194E0,8.305786E0,3.7939453E-1,3.2120042E0,1.2447433E0,0E0,1.2810898E-1,4.0156813E0,0E0,3.086519E0,1.7250366E0,0E0,4.6384277E0,4.3075004E0,1.3070316E0,1.1256028E0,1.2964287E0,1.3575363E-1,1.7983016E-1,2.785446E0,2.4343586E0,0E0,3.6033895E0,5.272217E-1,1.4023315E1,3.9396324E0,9.3414307E-1,5.100231E-1,3.5177794E0,0E0,1.7514987E0,0E0,0E0,1.0235381E0,8.061905E-1,0E0,2.0267284E-1,0E0,0E0,2.5031972E0,0E0,4.8527527E-1,2.0840836E0,0E0,0E0,0E0,0E0,0E0,0E0,0E0,0E0,0E0,0E0,0E0,0E0,0E0,0E0,0E0,0E0,0E0,0E0,0E0,0E0,0E0,0E0,0E0,0E0,0E0,0E0,0E0,0E0],"parents":[2147483647,0,0,1,1,2,2,3,3,4,4,5,5,6,6,7,7,8,8,9,9,10,10,12,12,13,13,15,15,16,16,18,18,19,19,20,20,21,21,22,22,23,23,24,24,25,25,26,26,28,28,29,29,30,30,31,31,32,32,33,33,34,34,36,36,39,39,40,40,42,42,45,45,47,47,48,48],"right_children":[2,4,6,8,10,12,14,16,18,20,22,-1,24,26,-1,28,30,-1,32,34,36,38,40,42,44,46,48,-1,50,52,54,56,58,60,62,-1,64,-1,-1,66,68,-1,70,-1,-1,72,-1,74,76,-1,-1,-1,-1,-1,-1,-1,-1,-1,-1,-1,-1,-1,-1,-1,-1,-1,-1,-1,-1,-1,-1,-1,-1,-1,-1,-1,-1],"split_conditions":[1.6649E2,7.832E3,5.094E3,5.411E3,1.2E1,3.005E3,9.9E-1,1.06E0,5.651E3,8.011E3,7.02E0,-6.9371224E-3,9.8E-1,5.311E3,2.862641E-1,2.4E-1,5.094E3,-2.9571515E-1,5.812E3,9E0,8E-1,7.922E3,3E-2,9.7E-1,5E-1,1.6E1,2.3981E2,3.8320804E-1,1.2E1,3.387E3,5.192E3,2.471E1,1E0,2.4E-1,1.1E1,-2.620686E-1,8.062E3,-1.6952676E-1,1.426514E-1,7.995E3,6E-2,-2.9416338E-1,4.9E-1,-1.6142069E-1,-3.4379081E-3,9E0,-2.2749637E-1,4E-2,4.7E-1,2.7189684E-1,-2.2334053E-1,-1.3127285E-1,-2.9097512E-1,5.195536E-1,-2.6086766E-1,5.8912583E-2,-2.1373874E-1,-2.868981E-1,-8.7570846E-2,-1.6966184E-3,-2.3908652E-1,3.5670635E-1,-6.9130056E-2,-2.00109E-1,1.3507777E-1,1.2231511E-1,-1.6965605E-1,-9.8758504E-2,-2.9070687E-1,-2.808327E-3,-1.6804214E-1,-1.4867274E-1,1.476622E-1,-3.3175055E-2,-2.5964698E-1,-2.1527268E-1,8.644019E-3],"split_indices":[2,0,0,0,1,0,4,2,0,0,2,0,6,0,0,4,0,0,0,1,4,0,3,7,3,1,2,0,1,0,0,2,5,6,1,0,0,0,0,0,4,0,3,0,0,1,0,7,5,0,0,0,0,0,0,0,0,0,0,0,0,0,0,0,0,0,0,0,0,0,0,0,0,0,0,0,0],"split_type":[0,0,0,0,0,0,0,0,0,0,0,0,0,0,0,0,0,0,0,0,0,0,0,0,0,0,0,0,0,0,0,0,0,0,0,0,0,0,0,0,0,0,0,0,0,0,0,0,0,0,0,0,0,0,0,0,0,0,0,0,0,0,0,0,0,0,0,0,0,0,0,0,0,0,0,0,0],"sum_hessian":[2.723282E3,2.6263926E3,9.688946E1,2.5414626E3,8.492988E1,4.043327E1,5.645619E1,8.796376E2,1.6618252E3,2.7312923E1,5.761695E1,1.0296667E0,3.9403603E1,5.5024002E1,1.432188E0,4.955613E0,8.7468195E2,9.2948456E2,7.3234064E2,1.0210529E1,1.7102396E1,2.1889787E0,5.542797E1,3.7297745E1,2.1058574E0,1.3428587E1,4.1595413E1,1.1845707E0,3.7710423E0,4.7204355E2,4.026384E2,5.779307E1,6.7454755E2,4.7373333E0,5.4731956E0,1.3418515E1,3.6838796E0,1.1885657E0,1.000413E0,2.3754556E0,5.3052517E1,3.5065834E1,2.2319124E0,1.1043113E0,1.001546E0,1.0475726E1,2.952861E0,2.7547115E1,1.4048298E1,1.0859648E0,2.6850777E0,4.204107E0,4.6783945E2,1.192507E0,4.014459E2,4.814609E0,5.2978462E1,6.7134875E2,3.1987696E0,1.0010579E0,3.7362757E0,2.6315563E0,2.8416393E0,1.944369E0,1.7395108E0,1.1185579E0,1.2568978E0,3.4191017E0,4.9633415E1,1.0034953E0,1.2284172E0,2.7160382E0,7.759688E0,1.2052292E0,2.6341887E1,5.626794E0,8.421505E0],"tree_param":{"num_deleted":"0","num_feature":"9","num_nodes":"77","size_leaf_vector":"1"}},{"base_weights":[-9.0151715E-1,-9.1379213E-1,-5.926576E-1,-9.2122406E-1,-6.9676846E-1,-8.838763E-1,-3.965548E-1,-8.775182E-1,-9.439968E-1,-4.6631253E-1,-8.776608E-1,-5.9049297E-3,-9.1154724E-1,-4.4885907E-1,2.0055102E-1,1.2981448E-1,-8.893935E-1,-2.9279E-1,-9.024577E-1,1.5532536E-2,-7.64635E-1,-1.4657363E-2,-8.997286E-1,-9.3839425E-1,-1.00503124E-1,-2.0854932E-1,-7.1300274E-1,1.1424712E0,-3.9666525E-1,-9.499681E-1,-8.175922E-1,-5.5871063E-1,-9.337404E-1,7.6480126E-1,-5.365899E-1,-2.647967E-1,-2.9399973E-1,-9.762631E-2,-2.765389E-1,-2.908199E-1,-3.5268965E-1,-3.2191783E-1,3.535399E-1,-2.7991387E-1,-3.8883713E-1,5.54218E-1,-2.4135526E-2,1.5234393E-1,-2.4158202E-1,-1.12213686E-1,-2.8649184E-1,3.007966E-1,-2.497396E-1,-2.2603463E-1,-5.9137E-2,-2.8117713E-1,-7.2985284E-2,4.0357813E-1,-1.8349676E-1,-2.4801469E-1,-2.2000608E-3,8.3853744E-2,-2.1597475E-1,-2.390207E-3,-1.5528323E-1,3.8263798E-2,-1.5196672E-1,3.9413035E-2,-2.1700034E-1],"categories":[],"categories_nodes":[],"categories_segments":[],"categories_sizes":[],"default_left":[0,0,0,0,0,0,0,0,0,0,0,0,0,0,0,0,0,0,0,0,0,0,0,0,0,0,0,0,0,0,0,0,0,0,0,0,0,0,0,0,0,0,0,0,0,0,0,0,0,0,0,0,0,0,0,0,0,0,0,0,0,0,0,0,0,0,0,0,0],"id":10,"left_children":[1,3,5,7,9,11,13,15,17,19,21,-1,23,25,-1,27,29,-1,31,33,35,-1,37,39,-1,41,43,45,47,49,51,53,55,57,59,-1,61,-1,-1,-1,63,65,-1,-1,67,-1,-1,-1,-1,-1,-1,-1,-1,-1,-1,-1,-1,-1,-1,-1,-1,-1,-1,-1,-1,-1,-1,-1,-1],"loss_changes":[7.3269043E0,2.574463E0,4.3423843E0,1.0876465E0,2.5144882E0,7.533474E-1,3.136694E0,8.174011E0,7.824707E-1,4.751974E0,6.539631E-1,0E0,1.6903496E-1,2.9702177E0,0E0,5.1031065E0,2.119629E0,0E0,5.478363E0,6.0321655E0,8.728485E-1,0E0,1.7037201E-1,1.8994522E-1,0E0,4.64724E0,1.2773294E0,2.9426556E0,2.8040235E0,6.661072E-1,9.278717E0,3.3040895E0,1.0101929E0,5.758683E0,1.2855623E0,0E0,1.5658823E0,0E0,0E0,0E0,1.6894943E-1,2.212036E0,0E0,0E0,2.0111537E0,0E0,0E0,0E0,0E0,0E0,0E0,0E0,0E0,0E0,0E0,0E0,0E0,0E0,0E0,0E0,0E0,0E0,0E0,0E0,0E0,0E0,0E0,0E0,0E0],"parents":[2147483647,0,0,1,1,2,2,3,3,4,4,5,5,6,6,7,7,8,8,9,9,10,10,12,12,13,13,15,15,16,16,18,18,19,19,20,20,22,22,23,23,25,25,26,26,27,27,28,28,29,29,30,30,31,31,32,32,33,33,34,34,36,36,40,40,41,41,44,44],"right_children":[2,4,6,8,10,12,14,16,18,20,22,-1,24,26,-1,28,30,-1,32,34,36,-1,38,40,-1,42,44,46,48,50,52,54,56,58,60,-1,62,-1,-1,-1,64,66,-1,-1,68,-1,-1,-1,-1,-1,-1,-1,-1,-1,-1,-1,-1,-1,-1,-1,-1,-1,-1,-1,-1,-1,-1,-1,-1],"split_conditions":[1.6649E2,7.832E3,5.094E3,5.411E3,1.4E1,3.005E3,9.9E-1,2.75E0,5.651E3,8.011E3,5.41E0,-5.9049297E-3,9.8E-1,5.732E3,2.0055102E-1,2.4E-1,5.094E3,-2.9279E-1,5.812E3,3.9E-1,8E-1,-1.4657363E-2,3E-2,9.7E-1,-1.00503124E-1,5.712E3,2.3981E2,5E0,1.1E1,3.387E3,5.192E3,6.4E-1,1E0,7E0,7.7E-1,-2.647967E-1,4.6E-1,-9.762631E-2,-2.765389E-1,-2.908199E-1,4.9E-1,2.6E-1,3.535399E-1,-2.7991387E-1,3.4E-1,5.54218E-1,-2.4135526E-2,1.5234393E-1,-2.4158202E-1,-1.12213686E-1,-2.8649184E-1,3.007966E-1,-2.497396E-1,-2.2603463E-1,-5.9137E-2,-2.8117713E-1,-7.2985284E-2,4.0357813E-1,-1.8349676E-1,-2.4801469E-1,-2.2000608E-3,8.3853744E-2,-2.1597475E-1,-2.390207E-3,-1.5528323E-1,3.8263798E-2,-1.5196672E-1,3.9413035E-2,-2.1700034E-1],"split_indices":[2,0,0,0,1,0,4,2,0,0,2,0,6,0,0,4,0,0,0,6,4,0,3,7,0,0,2,8,1,0,0,7,5,8,6,0,6,0,0,0,3,7,0,0,4,0,0,0,0,0,0,0,0,0,0,0,0,0,0,0,0,0,0,0,0,0,0,0,0],"split_type":[0,0,0,0,0,0,0,0,0,0,0,0,0,0,0,0,0,0,0,0,0,0,0,0,0,0,0,0,0,0,0,0,0,0,0,0,0,0,0,0,0,0,0,0,0,0,0,0,0,0,0,0,0,0,0,0,0,0,0,0,0,0,0,0,0,0,0,0,0],"sum_hessian":[2.0743901E3,1.9932156E3,8.117451E1,1.9240809E3,6.91347E1,3.1254059E1,4.992045E1,6.726503E2,1.2514305E3,3.1975681E1,3.715902E1,1.0227807E0,3.023128E1,4.8135124E1,1.7853239E0,7.721723E0,6.649286E2,6.9445776E2,5.569728E2,1.2589418E1,1.9386263E1,1.0470961E0,3.6111923E1,2.8286451E1,1.9448274E0,2.6141722E1,2.1993404E1,2.2410874E0,5.4806356E0,3.5402652E2,3.109021E2,4.8032444E1,5.0894034E2,5.1777067E0,7.4117117E0,1.4799544E1,4.586718E0,1.9189178E0,3.4193005E1,2.624217E1,2.044281E0,2.4876345E1,1.2653762E0,1.1981836E1,1.0011568E1,1.0977058E0,1.1433816E0,1.6299211E0,3.8507147E0,3.7024014E0,3.503241E2,1.9815006E0,3.089206E2,3.0514624E1,1.751782E1,5.0600568E2,2.9346628E0,3.6578407E0,1.5198661E0,4.4243546E0,2.9873571E0,2.101162E0,2.4855561E0,1.0007653E0,1.0435156E0,7.3335357E0,1.754281E1,4.155746E0,5.855822E0],"tree_param":{"num_deleted":"0","num_feature":"9","num_nodes":"69","size_leaf_vector":"1"}},{"base_weights":[-8.683775E-1,-8.846224E-1,-5.3493404E-1,-8.940942E-1,-6.297335E-1,-8.245067E-1,-3.6554372E-1,-8.408822E-1,-9.2223954E-1,-3.7721434E-1,-8.1996775E-1,-1.2343115E-1,-8.8690215E-1,5.529306E-1,-4.4930327E-1,1.03719644E-1,-8.557323E-1,-9.641711E-1,-8.690494E-1,-5.113494E-1,5.491148E-1,-4.964931E-1,-2.760193E-1,-1.7442717E-1,1.4126466E-1,-5.3475997E-3,-9.2303073E-1,-6.1845636E-1,-1.2368004E-1,7.396449E-1,-3.388978E-1,-9.333594E-1,-7.67511E-1,-2.8977165E-1,-4.4148117E-1,-4.794926E-1,-9.0893257E-1,5.7021356E-1,-6.415358E-1,4.17209E-1,-1.7358378E-1,3.101702E-1,-7.489969E-1,-2.883186E-1,-8.4197804E-2,-3.2125333E-1,-8.397097E-1,1.5726896E-1,-5.938374E-1,-1.00745395E-1,5.6909704E-1,1.1106331E-1,-2.2835109E-1,-8.614381E-2,-2.820011E-1,9.0636924E-2,-2.3539041E-1,-1.8346797E-1,-1.2670965E-3,7.468539E-2,-1.7815903E-1,-2.7403545E-1,-5.9895482E-2,2.8825593E-1,-2.475001E-2,-2.7868602E-1,-6.719444E-2,-1.527257E-1,2.9215857E-1,-6.735912E-3,-2.574441E-1,1.749569E-1,-1.5227638E-1,-2.8423306E-1,6.957162E-2,1.0692643E-1,-1.9384354E-1,-9.261843E-3,-2.4468271E-1],"categories":[],"categories_nodes":[],"categories_segments":[],"categories_sizes":[],"default_left":[0,0,0,0,0,0,0,0,0,0,0,0,0,0,0,0,0,0,0,0,0,0,0,0,0,0,0,0,0,0,0,0,0,0,0,0,0,0,0,0,0,0,0,0,0,0,0,0,0,0,0,0,0,0,0,0,0,0,0,0,0,0,0,0,0,0,0,0,0,0,0,0,0,0,0,0,0,0,0],"id":11,"left_children":[1,3,5,7,9,11,13,15,17,19,21,23,25,-1,27,29,31,33,35,37,39,41,-1,-1,-1,-1,43,45,47,49,51,53,55,-1,57,59,61,63,65,-1,-1,67,69,-1,-1,71,73,75,77,-1,-1,-1,-1,-1,-1,-1,-1,-1,-1,-1,-1,-1,-1,-1,-1,-1,-1,-1,-1,-1,-1,-1,-1,-1,-1,-1,-1,-1,-1],"loss_changes":[8.158325E0,3.1016846E0,3.45372E0,1.4128418E0,2.4657478E0,1.0916538E0,1.0095917E1,7.3384094E0,1.2705078E0,3.5949628E0,5.824013E-1,1.2007865E0,7.7015305E-1,0E0,2.6263542E0,2.7532513E0,2.7689514E0,4.4525146E-2,6.196228E0,3.7193298E0,4.46426E0,2.219637E0,0E0,0E0,0E0,0E0,3.1739426E-1,1.8374157E0,2.4744902E0,5.5696964E0,2.0568871E0,8.725586E-1,4.703171E0,0E0,2.6215237E-1,3.6269999E0,1.0551147E0,8.666934E-1,2.3996286E0,0E0,0E0,2.1450114E0,5.93235E-1,0E0,0E0,2.8736515E0,2.2689323E0,2.1622005E0,8.4278226E-1,0E0,0E0,0E0,0E0,0E0,0E0,0E0,0E0,0E0,0E0,0E0,0E0,0E0,0E0,0E0,0E0,0E0,0E0,0E0,0E0,0E0,0E0,0E0,0E0,0E0,0E0,0E0,0E0,0E0,0E0],"parents":[2147483647,0,0,1,1,2,2,3,3,4,4,5,5,6,6,7,7,8,8,9,9,10,10,11,11,12,12,14,14,15,15,16,16,17,17,18,18,19,19,20,20,21,21,26,26,27,27,28,28,29,29,30,30,31,31,32,32,34,34,35,35,36,36,37,37,38,38,41,41,42,42,45,45,46,46,47,47,48,48],"right_children":[2,4,6,8,10,12,14,16,18,20,22,24,26,-1,28,30,32,34,36,38,40,42,-1,-1,-1,-1,44,46,48,50,52,54,56,-1,58,60,62,64,66,-1,-1,68,70,-1,-1,72,74,76,78,-1,-1,-1,-1,-1,-1,-1,-1,-1,-1,-1,-1,-1,-1,-1,-1,-1,-1,-1,-1,-1,-1,-1,-1,-1,-1,-1,-1,-1,-1],"split_conditions":[1.6023E2,7.832E3,5.094E3,5.411E3,4.1E-1,1E-1,5.3E3,2.75E0,5.651E3,3.6E-1,1.1E1,6E-2,3.009E3,5.529306E-1,2.3981E2,2.4E-1,5.094E3,1E0,5.812E3,7.02E0,1.4E1,7.995E3,-2.760193E-1,-1.7442717E-1,1.4126466E-1,-5.3475997E-3,9.4E-1,5.499E3,1.4E1,4.899E3,1.1E1,3.387E3,5.211E3,-2.8977165E-1,5.9E-1,2.93E1,1E0,6.5E-1,7.4E1,4.17209E-1,-1.7358378E-1,7.6E-1,5E-1,-2.883186E-1,-8.4197804E-2,1.3E-1,9.2E-1,8.011E3,3E-1,-1.00745395E-1,5.6909704E-1,1.1106331E-1,-2.2835109E-1,-8.614381E-2,-2.820011E-1,9.0636924E-2,-2.3539041E-1,-1.8346797E-1,-1.2670965E-3,7.468539E-2,-1.7815903E-1,-2.7403545E-1,-5.9895482E-2,2.8825593E-1,-2.475001E-2,-2.7868602E-1,-6.719444E-2,-1.527257E-1,2.9215857E-1,-6.735912E-3,-2.574441E-1,1.749569E-1,-1.5227638E-1,-2.8423306E-1,6.957162E-2,1.0692643E-1,-1.9384354E-1,-9.261843E-3,-2.4468271E-1],"split_indices":[2,0,0,0,6,7,0,2,0,6,1,7,0,0,2,4,0,6,0,2,1,0,0,0,0,0,4,0,1,0,1,0,0,0,5,2,5,7,2,0,0,6,6,0,0,3,6,0,6,0,0,0,0,0,0,0,0,0,0,0,0,0,0,0,0,0,0,0,0,0,0,0,0,0,0,0,0,0,0],"split_type":[0,0,0,0,0,0,0,0,0,0,0,0,0,0,0,0,0,0,0,0,0,0,0,0,0,0,0,0,0,0,0,0,0,0,0,0,0,0,0,0,0,0,0,0,0,0,0,0,0,0,0,0,0,0,0,0,0,0,0,0,0,0,0,0,0,0,0,0,0,0,0,0,0,0,0,0,0,0,0],"sum_hessian":[1.5924833E3,1.5169277E3,7.5555626E1,1.4601595E3,5.6768124E1,2.6458069E1,4.909756E1,5.158194E2,9.4434015E2,2.5672733E1,3.109539E1,2.40571E0,2.4052359E1,1.0264531E0,4.8071106E1,7.8910837E0,5.0792834E2,5.184792E2,4.25861E2,2.2816782E1,2.8559508E0,8.756807E0,2.2338583E1,1.3709272E0,1.0347828E0,1.0195817E0,2.3032776E1,3.1044807E1,1.7026299E1,2.9629831E0,4.9281006E0,2.6509128E2,2.4283707E2,5.159194E2,2.559794E0,4.076021E1,3.8510077E2,2.0882275E0,2.0728554E1,1.5019301E0,1.3540208E0,2.033164E0,6.723643E0,2.1276968E1,1.7558079E0,1.4294885E1,1.6749924E1,1.1074235E1,5.952064E0,1.903756E0,1.0592272E0,1.8853614E0,3.0427392E0,3.1478899E0,2.619434E2,3.5640447E0,2.3927303E2,1.5559531E0,1.0038408E0,5.3715215E0,3.5388683E1,3.8237674E2,2.7240236E0,1.0110432E0,1.0771843E0,1.1552092E1,9.176463E0,1.0141964E0,1.0189676E0,1.0356537E0,5.687989E0,2.0781283E0,1.2216756E1,1.5325102E1,1.4248222E0,9.320268E0,1.7539667E0,2.004041E0,3.948023E0],"tree_param":{"num_deleted":"0","num_feature":"9","num_nodes":"79","size_leaf_vector":"1"}},{"base_weights":[-8.280233E-1,-8.478333E-1,-4.6602076E-1,-8.595878E-1,-5.6014705E-1,-7.7792144E-1,-3.0459034E-1,-7.937973E-1,-8.952651E-1,-3.2584304E-1,-7.9557943E-1,-8.5442084E-1,-3.6612146E-2,3.9768672E-1,-3.854486E-1,-1.9848011E-1,-8.220794E-1,-9.4964045E-1,-8.2831955E-1,7.645486E-2,-6.6094995E-1,-2.8641102E-1,-2.7019584E-1,-2.8431416E-1,-8.657276E-2,1.4573853E-1,-1.5727326E-1,-4.4221625E-1,1.7542759E-1,4.9052462E-1,-5.587048E-1,-9.084481E-1,-7.250552E-1,-2.8556836E-1,-3.9679152E-1,-4.0211546E-1,-8.7818825E-1,-6.045017E-1,4.5056581E-1,-2.4549975E-1,-1.700145E-1,1.395422E-1,-5.628586E-1,1.4625874E-1,-1.6819619E-1,-6.3157916E-1,-1.5832344E-1,-4.312519E-2,5.194334E-1,5.911466E-2,-2.2008863E-1,-7.0682645E-2,-2.7512756E-1,6.6313714E-2,-2.2388788E-1,-6.957587E-4,-1.7022878E-1,-2.7115735E-1,-6.2382676E-2,-2.4335222E-1,-2.9319406E-1,-2.2633515E-1,-2.095299E-3,-1.9617938E-1,2.466952E-1,1.0341188E-1,-1.9472148E-1,-3.0183601E-3,-2.1637857E-1,3.465372E-2,-2.2492999E-1,3.2676287E-2,-2.4763893E-1],"categories":[],"categories_nodes":[],"categories_segments":[],"categories_sizes":[],"default_left":[0,0,0,0,0,0,0,0,0,0,0,0,0,0,0,0,0,0,0,0,0,0,0,0,0,0,0,0,0,0,0,0,0,0,0,0,0,0,0,0,0,0,0,0,0,0,0,0,0,0,0,0,0,0,0,0,0,0,0,0,0,0,0,0,0,0,0,0,0,0,0,0,0],"id":12,"left_children":[1,3,5,7,9,11,13,15,17,19,21,23,25,-1,27,29,31,33,35,37,39,41,-1,-1,43,-1,-1,45,-1,47,49,51,53,-1,55,57,59,61,63,-1,65,-1,67,-1,-1,69,71,-1,-1,-1,-1,-1,-1,-1,-1,-1,-1,-1,-1,-1,-1,-1,-1,-1,-1,-1,-1,-1,-1,-1,-1,-1,-1],"loss_changes":[8.462769E0,3.4746094E0,3.1016617E0,1.9232178E0,2.4324074E0,1.2146778E0,6.4870844E0,6.62825E0,1.833313E0,3.5758283E0,1.0070515E0,1.3413992E0,1.0443676E0,0E0,2.6802487E0,5.14173E0,2.5654907E0,1.0873413E-1,6.6694183E0,3.5280511E0,9.7114944E-1,1.4068079E0,0E0,0E0,1.1587814E0,0E0,0E0,2.1636848E0,0E0,5.9676976E0,1.9089427E0,9.447937E-1,3.9053345E0,0E0,2.2079408E-1,3.3636532E0,1.1665344E0,4.3900228E-1,4.1597066E0,0E0,1.3951414E0,0E0,3.8516486E-1,0E0,0E0,2.2873964E0,3.331773E0,0E0,0E0,0E0,0E0,0E0,0E0,0E0,0E0,0E0,0E0,0E0,0E0,0E0,0E0,0E0,0E0,0E0,0E0,0E0,0E0,0E0,0E0,0E0,0E0,0E0,0E0],"parents":[2147483647,0,0,1,1,2,2,3,3,4,4,5,5,6,6,7,7,8,8,9,9,10,10,11,11,12,12,14,14,15,15,16,16,17,17,18,18,19,19,20,20,21,21,24,24,27,27,29,29,30,30,31,31,32,32,34,34,35,35,36,36,37,37,38,38,40,40,42,42,45,45,46,46],"right_children":[2,4,6,8,10,12,14,16,18,20,22,24,26,-1,28,30,32,34,36,38,40,42,-1,-1,44,-1,-1,46,-1,48,50,52,54,-1,56,58,60,62,64,-1,66,-1,68,-1,-1,70,72,-1,-1,-1,-1,-1,-1,-1,-1,-1,-1,-1,-1,-1,-1,-1,-1,-1,-1,-1,-1,-1,-1,-1,-1,-1,-1],"split_conditions":[1.6023E2,7.832E3,5.094E3,5.411E3,1.4E1,9.1E-1,5.261E3,1.27E1,5.651E3,8.011E3,1.8E-1,9.3E-1,5.5E-1,3.9768672E-1,9.9E-1,2.5E-1,5.094E3,1E0,5.812E3,9E0,8E-1,2.1E-1,-2.7019584E-1,-2.8431416E-1,4.2E-1,1.4573853E-1,-1.5727326E-1,6.4E-1,1.7542759E-1,7.8E-1,7.7E-1,3.387E3,5.211E3,-2.8556836E-1,3.364E1,9E0,1.6E1,7.3E-1,2.1E-1,-2.4549975E-1,7.9E1,1.395422E-1,2.4E-1,1.4625874E-1,-1.6819619E-1,1.1E-1,6.8E-1,-4.312519E-2,5.194334E-1,5.911466E-2,-2.2008863E-1,-7.0682645E-2,-2.7512756E-1,6.6313714E-2,-2.2388788E-1,-6.957587E-4,-1.7022878E-1,-2.7115735E-1,-6.2382676E-2,-2.4335222E-1,-2.9319406E-1,-2.2633515E-1,-2.095299E-3,-1.9617938E-1,2.466952E-1,1.0341188E-1,-1.9472148E-1,-3.0183601E-3,-2.1637857E-1,3.465372E-2,-2.2492999E-1,3.2676287E-2,-2.4763893E-1],"split_indices":[2,0,0,0,1,5,0,2,0,0,6,6,6,0,4,4,0,6,0,1,4,4,0,0,5,0,0,5,0,7,2,0,0,0,2,1,1,4,5,0,2,0,3,0,0,7,4,0,0,0,0,0,0,0,0,0,0,0,0,0,0,0,0,0,0,0,0,0,0,0,0,0,0],"split_type":[0,0,0,0,0,0,0,0,0,0,0,0,0,0,0,0,0,0,0,0,0,0,0,0,0,0,0,0,0,0,0,0,0,0,0,0,0,0,0,0,0,0,0,0,0,0,0,0,0,0,0,0,0,0,0,0,0,0,0,0,0,0,0,0,0,0,0,0,0,0,0,0,0],"sum_hessian":[1.2341986E3,1.168891E3,6.530766E1,1.1210964E3,4.7794563E1,2.0970842E1,4.4336823E1,4.023661E2,7.187303E2,2.5149559E1,2.2645004E1,1.887088E1,2.099963E0,1.3677014E0,4.296912E1,1.8612167E1,3.837539E2,3.893237E2,3.2940662E2,1.1779748E1,1.336981E1,4.511041E0,1.8133963E1,1.6617607E1,2.253273E0,1.0156498E0,1.0843132E0,4.110806E1,1.8610626E0,6.2658005E0,1.2346368E1,1.9860095E2,1.8515297E2,3.8702396E2,2.2997162E0,3.5454765E1,2.9395184E2,3.9585543E0,7.8211937E0,9.6192255E0,3.750585E0,1.0295466E0,3.4814944E0,1.0062999E0,1.2469733E0,2.3924898E1,1.7183159E1,4.731521E0,1.5342792E0,2.296768E0,1.00496E1,2.8774242E0,1.9572353E2,3.858427E0,1.8129454E2,1.0004693E0,1.2992468E0,8.872745E0,2.658202E1,1.8086226E2,1.13089584E2,2.9544775E0,1.0040768E0,1.7784002E0,6.0427933E0,1.9431858E0,1.8073992E0,1.0122947E0,2.4691997E0,3.2709637E0,2.0653934E1,1.2866E1,4.317159E0],"tree_param":{"num_deleted":"0","num_feature":"9","num_nodes":"73","size_leaf_vector":"1"}},{"base_weights":[-7.796665E-1,-8.0499244E-1,-4.1928524E-1,-7.689005E-1,-9.286371E-1,-7.7014655E-1,-2.4545187E-1,-7.861003E-1,-3.6582708E-1,-6.118743E-1,-2.8207898E-1,-7.444896E-2,-8.474475E-1,4.848942E-1,-3.264391E-1,1.7560646E-1,-7.9217064E-1,-1.6595544E-2,-6.9312733E-1,3.028826E-1,-2.6547918E-1,1.4643452E-1,-1.6545972E-1,-1.662469E-2,-8.928616E-1,-2.1754764E-1,-2.603338E-1,3.42134E-1,-4.707257E-1,-8.814441E-1,-7.3595965E-1,-4.9368843E-1,6.148044E-1,-2.6960105E-1,-3.464045E-1,1.4417642E-1,-8.041827E-3,-2.8314257E-1,-3.9767824E-2,-3.4540844E-1,4.167545E-1,-2.3833883E-3,-1.9138236E-1,-2.6544648E-1,-2.5003174E-2,-2.1325214E-1,-2.8600934E-1,4.927982E-2,-2.2069937E-1,3.4429306E-1,-1.956603E-1,8.635357E-2,-1.9304407E-1,-2.615064E-2,-2.1775508E-1,-1.6466987E-1,2.1365687E-1],"categories":[],"categories_nodes":[],"categories_segments":[],"categories_sizes":[],"default_left":[0,0,0,0,0,0,0,0,0,0,0,0,0,0,0,0,0,0,0,0,0,0,0,0,0,0,0,0,0,0,0,0,0,0,0,0,0,0,0,0,0,0,0,0,0,0,0,0,0,0,0,0,0,0,0,0,0],"id":13,"left_children":[1,3,5,7,9,11,13,15,17,19,-1,21,23,-1,25,27,29,31,33,35,-1,-1,-1,-1,37,39,-1,-1,41,43,45,47,49,-1,51,-1,-1,-1,-1,53,55,-1,-1,-1,-1,-1,-1,-1,-1,-1,-1,-1,-1,-1,-1,-1,-1],"loss_changes":[8.517334E0,3.326355E0,3.8236313E0,4.611389E0,1.6030884E-1,1.0839357E0,7.3823195E0,4.0904236E0,3.507887E0,2.7496958E0,0E0,1.1359044E0,6.3752556E-1,0E0,2.4283943E0,3.6948006E0,2.7274475E0,5.0993247E0,8.196559E-1,1.9034252E-1,0E0,0E0,0E0,0E0,5.72032E-1,3.250002E0,0E0,0E0,2.8437907E-1,6.132965E-1,1.6099396E0,1.6529036E0,5.6750894E0,0E0,1.6046958E0,0E0,0E0,0E0,0E0,3.1218197E0,2.3531513E0,0E0,0E0,0E0,0E0,0E0,0E0,0E0,0E0,0E0,0E0,0E0,0E0,0E0,0E0,0E0,0E0],"parents":[2147483647,0,0,1,1,2,2,3,3,4,4,5,5,6,6,7,7,8,8,9,9,11,11,12,12,14,14,15,15,16,16,17,17,18,18,19,19,24,24,25,25,28,28,29,29,30,30,31,31,32,32,34,34,39,39,40,40],"right_children":[2,4,6,8,10,12,14,16,18,20,-1,22,24,-1,26,28,30,32,34,36,-1,-1,-1,-1,38,40,-1,-1,42,44,46,48,50,-1,52,-1,-1,-1,-1,54,56,-1,-1,-1,-1,-1,-1,-1,-1,-1,-1,-1,-1,-1,-1,-1,-1],"split_conditions":[1.5391E2,1.7E1,5.094E3,7.832E3,7.7E-1,1E-1,5.251E3,3.509E3,8.011E3,1.8E1,-2.8207898E-1,1.3E1,3.144E3,4.848942E-1,8.011E3,7.8E1,1E1,5.9E-1,6.1E-1,5.2E-1,-2.6547918E-1,1.4643452E-1,-1.6545972E-1,-1.662469E-2,9.7E-1,7.011E3,-2.603338E-1,3.42134E-1,3.1E-1,1E0,5.941E3,7.922E3,6.7E-1,-2.6960105E-1,3.1E-1,1.4417642E-1,-8.041827E-3,-2.8314257E-1,-3.9767824E-2,5.8E-1,2.2E-1,-2.3833883E-3,-1.9138236E-1,-2.6544648E-1,-2.5003174E-2,-2.1325214E-1,-2.8600934E-1,4.927982E-2,-2.2069937E-1,3.4429306E-1,-1.956603E-1,8.635357E-2,-1.9304407E-1,-2.615064E-2,-2.1775508E-1,-1.6466987E-1,2.1365687E-1],"split_indices":[2,1,0,0,2,7,0,0,0,1,0,1,0,0,0,2,1,7,4,7,0,0,0,0,7,0,0,0,5,3,0,0,4,0,3,0,0,0,0,3,7,0,0,0,0,0,0,0,0,0,0,0,0,0,0,0,0],"split_type":[0,0,0,0,0,0,0,0,0,0,0,0,0,0,0,0,0,0,0,0,0,0,0,0,0,0,0,0,0,0,0,0,0,0,0,0,0,0,0,0,0,0,0,0,0,0,0,0,0,0,0,0,0,0,0,0,0],"sum_hessian":[9.69188E2,9.0439734E2,6.479066E1,7.0563965E2,1.9875774E2,2.0328897E1,4.4461758E1,6.758498E2,2.9789848E1,8.935402E0,1.8982234E2,2.2292309E0,1.8099667E1,1.0631865E0,4.339857E1,4.0640254E0,6.7178577E2,1.4920394E1,1.4869454E1,2.028973E0,6.906429E0,1.0123602E0,1.2168708E0,1.1019341E0,1.6997732E1,3.7297905E1,6.1006675E0,1.3236299E0,2.7403955E0,2.538861E2,4.1789966E2,8.622922E0,6.2974715E0,8.335902E0,6.5335517E0,1.0209621E0,1.008011E0,1.5704064E1,1.2936684E0,3.1419834E1,5.8780684E0,1.0053971E0,1.7349986E0,2.5270804E2,1.1780672E0,3.784435E2,3.9456135E1,2.4049094E0,6.218013E0,4.49944E0,1.7980317E0,2.0939941E0,4.4395576E0,1.9447926E1,1.19719095E1,1.1760652E0,4.702003E0],"tree_param":{"num_deleted":"0","num_feature":"9","num_nodes":"57","size_leaf_vector":"1"}},{"base_weights":[-7.222502E-1,-7.5157714E-1,-3.5414973E-1,-7.0912206E-1,-9.0423745E-1,-7.1643156E-1,-1.9770317E-1,-8.5686123E-1,-6.4665896E-1,-5.427011E-1,-9.1926545E-1,-8.095516E-1,4.159389E-3,3.5354513E-1,-2.710382E-1,-7.4296053E-3,-8.6194724E-1,-6.7450786E-1,-1.7361483E-1,-2.5586787E-1,1.0686065E-1,-2.7747965E-1,-4.029953E-1,-2.7854508E-1,-7.290104E-4,-1.755911E-1,-2.4951407E-1,-8.865066E-1,-6.1562204E-1,-5.4642E-1,-7.4679136E-1,1.4742863E-1,-6.1253345E-1,-2.2390303E-3,-1.7153423E-1,-6.2717065E-2,-6.9985294E-1,-2.676028E-1,-6.9992594E-2,-2.2533607E-1,7.6867834E-2,3.7747707E-2,-1.8501684E-1,-2.6686653E-1,-1.5932417E-1,1.9913577E-1,-1.1191228E-1,-2.6134637E-1,2.5984317E-2,-1.5578757E-1,4.1554492E-2,-2.4262033E-1,-4.593435E-2],"categories":[],"categories_nodes":[],"categories_segments":[],"categories_sizes":[],"default_left":[0,0,0,0,0,0,0,0,0,0,0,0,0,0,0,0,0,0,0,0,0,0,0,0,0,0,0,0,0,0,0,0,0,0,0,0,0,0,0,0,0,0,0,0,0,0,0,0,0,0,0,0,0],"id":14,"left_children":[1,3,5,7,9,11,13,15,17,19,21,23,-1,-1,25,-1,27,29,31,-1,-1,-1,33,-1,-1,35,-1,37,39,41,43,45,47,-1,-1,49,51,-1,-1,-1,-1,-1,-1,-1,-1,-1,-1,-1,-1,-1,-1,-1,-1],"loss_changes":[8.075073E0,3.991333E0,3.1971474E0,4.649475E0,3.263626E-1,1.1935196E0,4.610938E0,6.7474365E-1,5.1575775E0,2.6746855E0,4.965973E-2,1.479496E0,0E0,0E0,2.0579436E0,0E0,4.4309998E-1,3.0897064E0,3.4169261E0,0E0,0E0,0E0,2.1869391E-1,0E0,0E0,2.113707E0,0E0,3.1796265E-1,2.3297338E0,6.6946716E0,6.880722E0,4.128551E0,1.9138002E0,0E0,0E0,2.9293246E0,2.5483608E-1,0E0,0E0,0E0,0E0,0E0,0E0,0E0,0E0,0E0,0E0,0E0,0E0,0E0,0E0,0E0,0E0],"parents":[2147483647,0,0,1,1,2,2,3,3,4,4,5,5,6,6,7,7,8,8,9,9,10,10,11,11,14,14,16,16,17,17,18,18,22,22,25,25,27,27,28,28,29,29,30,30,31,31,32,32,35,35,36,36],"right_children":[2,4,6,8,10,12,14,16,18,20,22,24,-1,-1,26,-1,28,30,32,-1,-1,-1,34,-1,-1,36,-1,38,40,42,44,46,48,-1,-1,50,52,-1,-1,-1,-1,-1,-1,-1,-1,-1,-1,-1,-1,-1,-1,-1,-1],"split_conditions":[1.5391E2,1.7E1,5.094E3,9E0,7.7E-1,9.1E-1,5.251E3,3.395E3,7.542E3,-5.2E1,9.9E-1,9.3E-1,4.159389E-3,3.5354513E-1,8.011E3,-7.4296053E-3,1.0699E2,5.411E3,8.011E3,-2.5586787E-1,1.0686065E-1,-2.7747965E-1,5.471E1,-2.7854508E-1,-7.290104E-4,1.8E1,-2.4951407E-1,8.062E3,8.8E-1,1.988E1,5.651E3,3.9E-1,8E-1,-2.2390303E-3,-1.7153423E-1,3E0,2.9142E2,-2.676028E-1,-6.9992594E-2,-2.2533607E-1,7.6867834E-2,3.7747707E-2,-1.8501684E-1,-2.6686653E-1,-1.5932417E-1,1.9913577E-1,-1.1191228E-1,-2.6134637E-1,2.5984317E-2,-1.5578757E-1,4.1554492E-2,-2.4262033E-1,-4.593435E-2],"split_indices":[2,1,0,1,2,5,0,0,0,2,5,6,0,0,0,0,2,0,0,0,0,0,2,0,0,1,0,0,7,2,0,6,4,0,0,8,2,0,0,0,0,0,0,0,0,0,0,0,0,0,0,0,0],"split_type":[0,0,0,0,0,0,0,0,0,0,0,0,0,0,0,0,0,0,0,0,0,0,0,0,0,0,0,0,0,0,0,0,0,0,0,0,0,0,0,0,0,0,0,0,0,0,0,0,0,0,0,0,0],"sum_hessian":[7.716753E2,7.13767E2,5.7908268E1,5.6287555E2,1.508915E2,1.6385384E1,4.1522884E1,1.6348318E2,3.9939236E2,7.502898E0,1.433886E2,1.4436111E1,1.9492729E0,1.3383261E0,4.018456E1,1.0288407E0,1.6245435E2,3.7678455E2,2.2607805E1,5.616093E0,1.8868052E0,1.4104886E2,2.3397443E0,1.2451045E1,1.9850662E0,3.5461E1,4.7235584E0,1.4536234E2,1.7091997E1,1.3901202E2,2.3777254E2,1.3440771E1,9.167034E0,1.0121322E0,1.3276122E0,3.010006E1,5.36094E0,1.4378545E2,1.5768887E0,1.4912799E1,2.1791978E0,1.3086563E1,1.2592545E2,1.4119908E2,9.657346E1,6.6088142E0,6.831957E0,6.5121193E0,2.6549146E0,8.724501E0,2.1375559E1,4.071011E0,1.2899288E0],"tree_param":{"num_deleted":"0","num_feature":"9","num_nodes":"53","size_leaf_vector":"1"}},{"base_weights":[-6.573423E-1,-6.899378E-1,-2.9748258E-1,-6.4688665E-1,-8.9798784E-1,-1.6028865E-1,-7.6300436E-1,-8.146425E-1,-5.841661E-1,-9.065739E-1,-8.95124E-2,-1.6269871E-3,-7.7998143E-1,-2.8210756E-1,-3.4493646E-1,-6.3261553E-3,-8.208643E-1,-6.694949E-1,-4.407957E-1,-2.7452123E-1,-3.983547E-1,-4.372973E-1,2.3318125E-1,-2.600641E-1,-6.590017E-2,5.4088753E-2,-1.7906763E-1,-2.7991566E-1,-7.1625173E-1,1.6365495E-1,-6.807949E-1,-5.845038E-1,-1.3934505E-1,-1.7045917E-1,-1.3091266E-3,2.215183E-1,-6.6374755E-1,-2.892487E-1,4.7555545E-1,-2.2539495E-1,7.744399E-2,1.3980654E-1,-2.0654567E-1,-1.102013E-1,-2.4478243E-1,2.4252577E-1,-1.4346199E-1,-2.6825586E-1,-3.1992517E-2,9.893844E-2,-2.4068765E-1,-3.1527612E-2,2.938446E-1],"categories":[],"categories_nodes":[],"categories_segments":[],"categories_sizes":[],"default_left":[0,0,0,0,0,0,0,0,0,0,0,0,0,0,0,0,0,0,0,0,0,0,0,0,0,0,0,0,0,0,0,0,0,0,0,0,0,0,0,0,0,0,0,0,0,0,0,0,0,0,0,0,0],"id":15,"left_children":[1,3,5,7,9,11,13,15,17,19,-1,21,23,-1,25,-1,27,29,31,-1,33,35,37,-1,-1,-1,-1,-1,39,-1,41,43,45,-1,-1,-1,47,49,51,-1,-1,-1,-1,-1,-1,-1,-1,-1,-1,-1,-1,-1,-1],"loss_changes":[7.1505127E0,4.5625916E0,3.3164062E0,4.5680084E0,2.2312164E-1,4.212004E0,5.646386E-1,6.142807E-1,4.016716E0,4.1549683E-2,0E0,3.694611E0,2.3478842E-1,0E0,7.8923017E-1,0E0,8.2102203E-1,3.3785324E0,5.7422276E0,0E0,2.1949929E-1,3.8571415E0,3.1096892E0,0E0,0E0,0E0,0E0,0E0,2.5846252E0,0E0,2.2387314E0,4.25992E0,1.4745899E1,0E0,0E0,0E0,1.3336177E0,2.8245397E0,4.905099E0,0E0,0E0,0E0,0E0,0E0,0E0,0E0,0E0,0E0,0E0,0E0,0E0,0E0,0E0],"parents":[2147483647,0,0,1,1,2,2,3,3,4,4,5,5,6,6,7,7,8,8,9,9,11,11,12,12,14,14,16,16,17,17,18,18,20,20,21,21,22,22,28,28,30,30,31,31,32,32,36,36,37,37,38,38],"right_children":[2,4,6,8,10,12,14,16,18,20,-1,22,24,-1,26,-1,28,30,32,-1,34,36,38,-1,-1,-1,-1,-1,40,-1,42,44,46,-1,-1,-1,48,50,52,-1,-1,-1,-1,-1,-1,-1,-1,-1,-1,-1,-1,-1,-1],"split_conditions":[1.5391E2,1.8E1,8E0,9E0,9.9E-1,1.7E1,2.3981E2,3.395E3,6.3E-1,9.8E-1,-8.95124E-2,3E0,7.011E3,-2.8210756E-1,3.3E-1,-6.3261553E-3,7E0,3.509E3,5.651E3,-2.7452123E-1,6.4E1,1E-1,3.4E-1,-2.600641E-1,-6.590017E-2,5.4088753E-2,-1.7906763E-1,-2.7991566E-1,1.2702E2,1.6365495E-1,1E-2,5.411E3,5.814E3,-1.7045917E-1,-1.3091266E-3,2.215183E-1,6.4E-1,1.5E-1,1.1E1,-2.2539495E-1,7.744399E-2,1.3980654E-1,-2.0654567E-1,-1.102013E-1,-2.4478243E-1,2.4252577E-1,-1.4346199E-1,-2.6825586E-1,-3.1992517E-2,9.893844E-2,-2.4068765E-1,-3.1527612E-2,2.938446E-1],"split_indices":[2,1,8,1,5,1,2,0,7,4,0,8,0,0,7,0,1,0,0,0,2,7,6,0,0,0,0,0,2,0,5,0,0,0,0,0,3,6,1,0,0,0,0,0,0,0,0,0,0,0,0,0,0],"split_type":[0,0,0,0,0,0,0,0,0,0,0,0,0,0,0,0,0,0,0,0,0,0,0,0,0,0,0,0,0,0,0,0,0,0,0,0,0,0,0,0,0,0,0,0,0,0,0,0,0,0,0,0,0],"sum_hessian":[6.260998E2,5.732579E2,5.284189E1,4.78378E2,9.487988E1,4.1852005E1,1.0989885E1,1.2692061E2,3.5145737E2,9.303574E1,1.8441373E0,3.4119038E1,7.732967E0,6.83923E0,4.1506553E0,1.0215267E0,1.25899086E2,2.1802637E2,1.3343102E2,9.071849E1,2.3172543E0,1.1646819E1,2.247222E1,6.2210197E0,1.511947E0,1.4377997E0,2.7128556E0,5.6928818E1,6.897027E1,1.5733976E0,2.1645297E2,8.972037E1,4.371064E1,1.3102646E0,1.0069897E0,1.5158817E0,1.0130937E1,7.0603848E0,1.5411835E1,6.67955E1,2.1747618E0,1.044886E0,2.1540808E2,4.7622074E1,4.2098293E1,1.1147217E1,3.256342E1,6.73857E0,3.392367E0,3.36152E0,3.6988647E0,7.5285473E0,7.883287E0],"tree_param":{"num_deleted":"0","num_feature":"9","num_nodes":"53","size_leaf_vector":"1"}},{"base_weights":[-5.858832E-1,-5.2609706E-1,-8.326533E-1,-5.658283E-1,-1.613707E-1,-3.539736E-1,-8.545098E-1,-7.637598E-1,-4.9248883E-1,-1.9617854E-2,-7.499348E-1,1.5178722E-1,-2.346513E-1,-8.7046856E-1,-2.9264557E-1,-8.9026934E-1,-6.510234E-1,-5.278055E-1,9.870371E-3,1.2527344E-1,-7.009506E-1,-2.7624428E-1,-1.8211326E-2,-4.9176243E-1,-8.8614565E-1,1.11986585E-1,-2.0175172E-1,-4.751075E-3,-2.730406E-1,-3.8075873E-1,-8.244577E-1,-4.828829E-1,-2.877465E-1,2.048969E-1,-2.2926636E-1,2.9236775E-2,4.3490547E-1,-2.4841239E-1,-3.5795511E-3,-2.3825541E-1,1.3602936E-1,-8.9531815E-1,-9.4930366E-2,-1.8271358E-1,6.7713074E-2,-2.8481867E-2,-2.7092588E-1,-1.7505498E-1,-3.0503519E-2,1.690427E-1,-9.5170975E-2,-6.50886E-2,1.0924328E-1,-2.8532732E-1,-2.204991E-1],"categories":[],"categories_nodes":[],"categories_segments":[],"categories_sizes":[],"default_left":[0,0,0,0,0,0,0,0,0,0,0,0,0,0,0,0,0,0,0,0,0,0,0,0,0,0,0,0,0,0,0,0,0,0,0,0,0,0,0,0,0,0,0,0,0,0,0,0,0,0,0,0,0,0,0],"id":16,"left_children":[1,3,5,7,9,11,13,15,17,19,21,-1,-1,23,25,27,29,31,33,35,37,-1,-1,39,41,-1,-1,-1,-1,43,45,47,-1,49,-1,51,-1,-1,-1,-1,-1,53,-1,-1,-1,-1,-1,-1,-1,-1,-1,-1,-1,-1,-1],"loss_changes":[7.2345276E0,6.0144196E0,7.4069214E-1,5.133583E0,3.555222E0,2.6275356E0,5.939255E-1,8.5803986E-1,4.968567E0,3.5934093E0,9.190979E-1,0E0,0E0,1.0761261E-1,1.2933642E0,7.634239E-1,2.3589E0,4.6020813E0,3.0789118E0,3.7901435E0,5.487149E-1,0E0,0E0,2.0423646E0,1.6944885E-1,0E0,0E0,0E0,0E0,3.480622E0,1.8573761E0,9.09993E0,0E0,3.2212348E0,0E0,2.4796636E0,0E0,0E0,0E0,0E0,0E0,5.848694E-2,0E0,0E0,0E0,0E0,0E0,0E0,0E0,0E0,0E0,0E0,0E0,0E0,0E0],"parents":[2147483647,0,0,1,1,2,2,3,3,4,4,5,5,6,6,7,7,8,8,9,9,10,10,13,13,14,14,15,15,16,16,17,17,18,18,19,19,20,20,23,23,24,24,29,29,30,30,31,31,33,33,35,35,41,41],"right_children":[2,4,6,8,10,12,14,16,18,20,22,-1,-1,24,26,28,30,32,34,36,38,-1,-1,40,42,-1,-1,-1,-1,44,46,48,-1,50,-1,52,-1,-1,-1,-1,-1,54,-1,-1,-1,-1,-1,-1,-1,-1,-1,-1,-1,-1,-1],"split_conditions":[1.7E1,1.5391E2,7.7E-1,9E0,8E0,1.8E1,2.3981E2,7E0,7.542E3,8.2E-1,2.9142E2,1.5178722E-1,-2.346513E-1,4.131E3,3E-1,3.64E3,4.1E-1,5.941E3,1.0557E2,7.9E-1,7.276E3,-2.7624428E-1,-1.8211326E-2,4.121E3,9.9E-1,1.11986585E-1,-2.0175172E-1,-4.751075E-3,-2.730406E-1,3E-1,1.1E-1,5.651E3,-2.877465E-1,4.6E-1,-2.2926636E-1,6.4E-1,4.3490547E-1,-2.4841239E-1,-3.5795511E-3,-2.3825541E-1,1.3602936E-1,7E0,-9.4930366E-2,-1.8271358E-1,6.7713074E-2,-2.8481867E-2,-2.7092588E-1,-1.7505498E-1,-3.0503519E-2,1.690427E-1,-9.5170975E-2,-6.50886E-2,1.0924328E-1,-2.8532732E-1,-2.204991E-1],"split_indices":[1,2,2,1,8,1,2,1,0,3,2,0,0,0,6,0,6,0,2,3,0,0,0,0,5,0,0,0,0,6,7,0,0,6,0,5,0,0,0,0,0,8,0,0,0,0,0,0,0,0,0,0,0,0,0],"split_type":[0,0,0,0,0,0,0,0,0,0,0,0,0,0,0,0,0,0,0,0,0,0,0,0,0,0,0,0,0,0,0,0,0,0,0,0,0,0,0,0,0,0,0,0,0,0,0,0,0,0,0,0,0,0,0],"sum_hessian":[5.190536E2,4.2034625E2,9.870735E1,3.78557E2,4.178925E1,5.0610213E0,9.3646324E1,9.979965E1,2.7875735E2,3.4510815E1,7.278434E0,1.6220094E0,3.439012E0,9.052584E1,3.1204844E0,4.37772E1,5.602245E1,2.6040015E2,1.83572E1,2.9131819E1,5.378998E0,5.5631657E0,1.7152681E0,4.8851523E0,8.564069E1,1.1397263E0,1.9807582E0,1.0123875E0,4.2764812E1,2.3147242E1,3.287521E1,2.377584E2,2.2641735E1,1.5250307E1,3.106893E0,2.8115185E1,1.0166329E0,4.370992E0,1.0080055E0,3.8220286E0,1.0631237E0,8.372123E1,1.9194633E0,1.6813913E1,6.3333273E0,3.413363E0,2.9461845E1,1.8768178E2,5.0076622E1,8.994258E0,6.2560487E0,1.640652E1,1.1708665E1,5.845378E1,2.5267447E1],"tree_param":{"num_deleted":"0","num_feature":"9","num_nodes":"55","size_leaf_vector":"1"}},{"base_weights":[-5.113484E-1,-4.570079E-1,-8.285712E-1,-2.7998197E-1,-5.4153764E-1,-6.6286343E-1,-9.2284226E-1,-6.493084E-1,1.6020128E-1,-7.496371E-1,-3.3346453E-1,-8.808378E-1,-2.703621E-1,-4.4149227E-2,-2.8421304E-1,2.6173937E-1,-7.4305063E-1,1.957284E0,5.5270385E-2,-5.186243E-1,-8.8631165E-1,1.9522065E-1,-5.337118E-1,-5.14295E-3,-2.8111702E-1,-6.189492E-1,4.7096083E-1,7.4906033E-1,-2.7463287E-1,-4.27989E-1,-8.640958E-1,-4.980327E-3,8.75222E-1,5.5257595E-1,-2.6177052E-2,-8.367937E-1,-3.2380784E-1,-9.093261E-1,-4.898427E-2,-8.2699135E-2,1.4000082E0,-7.00139E-1,-1.5229261E-1,-2.5183108E-1,3.786775E-2,4.0667745E-1,-1.8143606E-1,3.8061416E-1,2.1240436E-2,-2.0436239E-1,1.4621297E-1,4.1604705E-2,-1.798302E-1,-2.7122173E-1,-5.0069872E-2,-6.442175E-2,2.2990228E-1,-2.6422277E-1,-7.503173E-2,5.4248113E-2,-1.5136749E-1,-1.0737114E-1,-2.76056E-1,1.4938205E-1,-1.6065809E-1,3.826039E-1,-5.455704E-2,1.193316E-1,7.8573793E-1,-2.2139062E-1,1.966882E-1,5.0557163E-2,-1.8239272E-1],"categories":[],"categories_nodes":[],"categories_segments":[],"categories_sizes":[],"default_left":[0,0,0,0,0,0,0,0,0,0,0,0,0,0,0,0,0,0,0,0,0,0,0,0,0,0,0,0,0,0,0,0,0,0,0,0,0,0,0,0,0,0,0,0,0,0,0,0,0,0,0,0,0,0,0,0,0,0,0,0,0,0,0,0,0,0,0,0,0,0,0,0,0],"id":17,"left_children":[1,3,5,7,9,11,13,15,17,19,21,23,25,-1,-1,27,29,31,33,35,37,39,41,-1,-1,43,45,47,49,51,53,-1,-1,-1,55,57,59,61,63,65,67,69,71,-1,-1,-1,-1,-1,-1,-1,-1,-1,-1,-1,-1,-1,-1,-1,-1,-1,-1,-1,-1,-1,-1,-1,-1,-1,-1,-1,-1,-1,-1],"loss_changes":[7.2261887E0,5.5178757E0,3.7696075E-1,2.0346764E1,1.0807114E1,2.029007E0,5.797653E-1,5.9938564E0,1.0755434E1,3.546112E0,1.3812977E1,7.8970337E-1,3.1094213E0,0E0,0E0,2.0549583E0,1.9881973E0,6.016754E0,8.118855E0,2.801633E0,1.4643555E0,1.2271839E1,5.872097E0,0E0,0E0,1.3955784E0,4.6792383E0,1.3112559E0,1.6021216E0,1.9429317E0,1.0667496E0,0E0,0E0,0E0,8.238649E0,2.4884129E-1,3.0443656E0,1.2670135E-1,1.105283E0,4.33153E0,7.3409586E0,3.8327026E0,4.4720855E0,0E0,0E0,0E0,0E0,0E0,0E0,0E0,0E0,0E0,0E0,0E0,0E0,0E0,0E0,0E0,0E0,0E0,0E0,0E0,0E0,0E0,0E0,0E0,0E0,0E0,0E0,0E0,0E0,0E0,0E0],"parents":[2147483647,0,0,1,1,2,2,3,3,4,4,5,5,6,6,7,7,8,8,9,9,10,10,11,11,12,12,15,15,16,16,17,17,18,18,19,19,20,20,21,21,22,22,25,25,26,26,27,27,28,28,29,29,30,30,34,34,35,35,36,36,37,37,38,38,39,39,40,40,41,41,42,42],"right_children":[2,4,6,8,10,12,14,16,18,20,22,24,26,-1,-1,28,30,32,34,36,38,40,42,-1,-1,44,46,48,50,52,54,-1,-1,-1,56,58,60,62,64,66,68,70,72,-1,-1,-1,-1,-1,-1,-1,-1,-1,-1,-1,-1,-1,-1,-1,-1,-1,-1,-1,-1,-1,-1,-1,-1,-1,-1,-1,-1,-1,-1],"split_conditions":[1.8E1,5.311E3,2E1,5.094E3,5.651E3,6.4E-1,4E-2,3.64E3,5.211E3,5.499E3,5.814E3,7E-2,8.604E1,-4.4149227E-2,-2.8421304E-1,4.5E-1,7.7E1,6E1,2.75E0,1E1,9.8E-1,9.445E1,7.542E3,-5.14295E-3,-2.8111702E-1,9.3E-1,8.1E-1,3.4E-1,7E-1,2.4E-1,9.5E-1,-4.980327E-3,8.75222E-1,5.5257595E-1,5.31E3,9E0,2.6E-1,3E-2,4.6E-1,2.22E0,7.8E-1,9.9E-1,8.011E3,-2.5183108E-1,3.786775E-2,4.0667745E-1,-1.8143606E-1,3.8061416E-1,2.1240436E-2,-2.0436239E-1,1.4621297E-1,4.1604705E-2,-1.798302E-1,-2.7122173E-1,-5.0069872E-2,-6.442175E-2,2.2990228E-1,-2.6422277E-1,-7.503173E-2,5.4248113E-2,-1.5136749E-1,-1.0737114E-1,-2.76056E-1,1.4938205E-1,-1.6065809E-1,3.826039E-1,-5.455704E-2,1.193316E-1,7.8573793E-1,-2.2139062E-1,1.966882E-1,5.0557163E-2,-1.8239272E-1],"split_indices":[1,0,1,0,0,5,3,0,0,0,0,4,2,0,0,5,2,2,2,1,6,2,0,0,0,5,5,7,7,5,5,0,0,0,0,8,3,7,3,2,5,4,0,0,0,0,0,0,0,0,0,0,0,0,0,0,0,0,0,0,0,0,0,0,0,0,0,0,0,0,0,0,0],"split_type":[0,0,0,0,0,0,0,0,0,0,0,0,0,0,0,0,0,0,0,0,0,0,0,0,0,0,0,0,0,0,0,0,0,0,0,0,0,0,0,0,0,0,0,0,0,0,0,0,0,0,0,0,0,0,0,0,0,0,0,0,0,0,0,0,0,0,0,0,0,0,0,0,0],"sum_hessian":[4.4016672E2,3.778768E2,6.228991E1,1.235161E2,2.5436072E2,2.5499264E1,3.6790646E1,6.6905426E1,5.661067E1,1.25870995E2,1.2848972E2,1.5594657E1,9.904608E0,1.3425642E0,3.5448082E1,6.0747695E0,6.0830658E1,2.1492248E0,5.4461445E1,4.857023E1,7.7300766E1,3.53047E1,9.318502E1,1.0327889E0,1.4561868E1,6.849086E0,3.0555222E0,2.9751585E0,3.0996108E0,1.8143015E1,4.268764E1,1.0248919E0,1.1243329E0,1.4320846E0,5.3029358E1,1.7194044E1,3.1376183E1,7.514926E1,2.1515079E0,2.9443945E1,5.860756E0,6.42951E1,2.8889923E1,5.1876345E0,1.6614512E0,1.5339525E0,1.5215697E0,1.1916337E0,1.7835249E0,2.0903358E0,1.0092751E0,4.2585306E0,1.3884484E1,4.0092075E1,2.5955667E0,4.3426117E1,9.603242E0,1.5529517E1,1.6645273E0,8.274444E0,2.310174E1,2.1073477E0,7.3041916E1,1.001873E0,1.1496347E0,1.1964041E0,2.824754E1,3.9443698E0,1.9163859E0,6.2993095E1,1.3020015E0,1.7323652E1,1.156627E1],"tree_param":{"num_deleted":"0","num_feature":"9","num_nodes":"73","size_leaf_vector":"1"}},{"base_weights":[-4.3803278E-1,-3.758616E-1,-7.406112E-1,-7.736195E-1,-3.2636246E-1,-1.8265428E-1,-7.720094E-1,-8.2561255E-1,1.4252701E-1,-2.6224908E-1,-5.876659E-1,-2.0991369E-1,1.814302E-1,-6.1167276E-1,-8.822455E-1,-5.7758316E-3,-8.503453E-1,-3.1690472E-1,9.564185E-2,1.7454257E-2,-7.322801E-1,-6.6032344E-1,4.944653E-2,-7.718953E-2,-9.3764216E-1,-5.4480726E-1,-2.8739822E-1,-4.3081707E-1,-1.00077145E-1,2.571798E-1,-2.4366008E-1,-6.1627614E-1,9.399858E-1,-8.7925535E-1,-3.2674092E-1,-3.5084534E-2,-7.4318725E-1,1.4861956E-1,-1.6649166E-1,-2.901621E-1,-3.6486363E-1,-2.0873109E-1,1.0666266E-1,-5.0425813E-2,-2.2784357E-1,1.16014905E-1,-9.579239E-2,1.3596869E-1,-1.6376773E-1,-2.5265667E-1,8.667791E-2,5.0957006E-1,-8.7520234E-2,-2.21614E-2,-2.7204496E-1,-1.7211992E-1,2.870798E-1,-1.9930089E-1,2.5303724E-1,-1.2458838E-1,-2.789143E-1,-1.6034232E-1,-3.2642036E-4],"categories":[],"categories_nodes":[],"categories_segments":[],"categories_sizes":[],"default_left":[0,0,0,0,0,0,0,0,0,0,0,0,0,0,0,0,0,0,0,0,0,0,0,0,0,0,0,0,0,0,0,0,0,0,0,0,0,0,0,0,0,0,0,0,0,0,0,0,0,0,0,0,0,0,0,0,0,0,0,0,0,0,0],"id":18,"left_children":[1,3,5,7,9,11,13,15,-1,17,19,-1,-1,21,23,-1,25,27,29,31,33,35,-1,37,39,41,-1,43,45,47,-1,49,51,53,55,57,59,-1,-1,-1,61,-1,-1,-1,-1,-1,-1,-1,-1,-1,-1,-1,-1,-1,-1,-1,-1,-1,-1,-1,-1,-1,-1],"loss_changes":[6.90818E0,6.0270386E0,9.8169327E-1,2.6365662E0,4.626749E0,2.3465512E0,5.2723694E-1,6.527691E-1,0E0,4.5479574E0,4.8623524E0,0E0,0E0,1.1610394E0,1.4220161E0,0E0,5.480213E-1,4.911293E0,4.808714E0,7.3997407E0,2.3801098E0,1.3422441E0,0E0,1.1632261E0,1.7648697E-1,1.7144527E0,0E0,1.1201408E1,7.635372E0,4.5593166E0,0E0,1.7810514E0,5.304307E0,6.490078E-1,4.8279934E0,2.8491223E0,1.0371304E0,0E0,0E0,0E0,1.931662E-1,0E0,0E0,0E0,0E0,0E0,0E0,0E0,0E0,0E0,0E0,0E0,0E0,0E0,0E0,0E0,0E0,0E0,0E0,0E0,0E0,0E0,0E0],"parents":[2147483647,0,0,1,1,2,2,3,3,4,4,5,5,6,6,7,7,9,9,10,10,13,13,14,14,16,16,17,17,18,18,19,19,20,20,21,21,23,23,24,24,25,25,27,27,28,28,29,29,31,31,32,32,33,33,34,34,35,35,36,36,40,40],"right_children":[2,4,6,8,10,12,14,16,-1,18,20,-1,-1,22,24,-1,26,28,30,32,34,36,-1,38,40,42,-1,44,46,48,-1,50,52,54,56,58,60,-1,-1,-1,62,-1,-1,-1,-1,-1,-1,-1,-1,-1,-1,-1,-1,-1,-1,-1,-1,-1,-1,-1,-1,-1,-1],"split_conditions":[1.7E1,7E0,7.7E-1,2.9142E2,8E0,-5.2E1,4.5E-1,-5.2E1,1.4252701E-1,1.4456E2,2E-1,-2.0991369E-1,1.814302E-1,2.3981E2,4.131E3,-5.7758316E-3,3.1E-1,5.651E3,8.2E-1,6.3E-1,7.9E-1,1.2E-1,4.944653E-2,7.2E-1,9.7E-1,2.7E-1,-2.8739822E-1,5.411E3,5.814E3,8.1E-1,-2.4366008E-1,1.1273E2,5.5E-1,4E-2,8.8E-1,6.4E-1,4.2E-1,1.4861956E-1,-1.6649166E-1,-2.901621E-1,5.4E-1,-2.0873109E-1,1.0666266E-1,-5.0425813E-2,-2.2784357E-1,1.16014905E-1,-9.579239E-2,1.3596869E-1,-1.6376773E-1,-2.5265667E-1,8.667791E-2,5.0957006E-1,-8.7520234E-2,-2.21614E-2,-2.7204496E-1,-1.7211992E-1,2.870798E-1,-1.9930089E-1,2.5303724E-1,-1.2458838E-1,-2.789143E-1,-1.6034232E-1,-3.2642036E-4],"split_indices":[1,1,2,2,8,2,6,2,0,2,5,0,0,2,0,0,5,0,3,7,5,4,0,6,6,5,0,0,0,7,0,2,3,7,7,7,7,0,0,0,3,0,0,0,0,0,0,0,0,0,0,0,0,0,0,0,0,0,0,0,0,0,0],"split_type":[0,0,0,0,0,0,0,0,0,0,0,0,0,0,0,0,0,0,0,0,0,0,0,0,0,0,0,0,0,0,0,0,0,0,0,0,0,0,0,0,0,0,0,0,0,0,0,0,0,0,0,0,0,0,0,0,0,0,0,0,0,0,0],"sum_hessian":[3.8102652E2,3.1794095E2,6.308557E1,3.3568344E1,2.8437262E2,3.724114E0,5.9361458E1,3.2551796E1,1.0165467E0,2.299546E2,5.4418007E1,2.3152199E0,1.4088941E0,2.6852985E1,3.2508472E1,1.0216453E0,3.1530151E1,1.9958875E2,3.0365852E1,1.06661415E1,4.3751865E1,2.5410517E1,1.4424676E0,2.2470129E0,3.026146E1,9.793722E0,2.173643E1,1.3020006E2,6.9388695E1,2.638731E1,3.978544E0,6.519537E0,4.1466045E0,3.1255978E1,1.2495889E1,3.1401649E0,2.2270353E1,1.0053287E0,1.2416841E0,2.8121313E1,2.1401458E0,8.581988E0,1.2117333E0,7.3197556E1,5.7002502E1,2.1308977E1,4.807972E1,2.1559702E1,4.8276076E0,5.2731276E0,1.2464092E0,2.3316116E0,1.814993E0,1.1559983E0,3.009998E1,1.0943332E1,1.5525566E0,1.9717368E0,1.1684281E0,9.2450695E0,1.3025283E1,1.1395754E0,1.0005704E0],"tree_param":{"num_deleted":"0","num_feature":"9","num_nodes":"63","size_leaf_vector":"1"}},{"base_weights":[-3.686398E-1,-3.2957405E-1,-8.7548083E-1,-7.1759677E-1,-2.9125315E-1,-5.571704E-3,-9.1379637E-1,-8.0516773E-1,1.3988285E-1,-1.4404285E-1,-3.850038E-1,-8.7270044E-2,-2.8608042E-1,-4.1270658E-1,-2.8370458E-1,-1.7918849E-1,2.8766677E-1,-5.1909024E-1,1.3992356E-1,-6.848889E-1,-1.8939048E-1,1.1571779E-1,-6.987009E-1,-1.22081056E-1,-7.044323E-1,1.0172234E0,1.3421893E-2,-3.6007538E-1,-8.160097E-1,3.332225E-1,-3.059646E-1,-2.467293E-1,-4.12962E-3,2.2823681E-1,-7.215413E-2,-4.8138157E-2,-2.4595176E-1,4.6325096E-1,-1.9071247E-1,-1.8604481E-1,7.18956E-2,-2.404285E-1,4.9310005E-3,-2.5553468E-1,2.9423939E-2,1.847831E-1,-1.4548454E-1,-1.0570281E-1,2.4465759E-1],"categories":[],"categories_nodes":[],"categories_segments":[],"categories_sizes":[],"default_left":[0,0,0,0,0,0,0,0,0,0,0,0,0,0,0,0,0,0,0,0,0,0,0,0,0,0,0,0,0,0,0,0,0,0,0,0,0,0,0,0,0,0,0,0,0,0,0,0,0],"id":19,"left_children":[1,3,5,7,9,-1,11,13,15,17,19,-1,-1,21,-1,-1,-1,23,25,27,29,-1,31,33,35,37,39,41,43,45,47,-1,-1,-1,-1,-1,-1,-1,-1,-1,-1,-1,-1,-1,-1,-1,-1,-1,-1],"loss_changes":[6.444538E0,4.509369E0,7.621784E-1,2.2030344E0,3.953516E0,0E0,2.8529167E-1,1.0108128E0,2.6445675E0,1.2279328E1,1.0245571E1,0E0,0E0,2.2042155E0,0E0,0E0,0E0,3.5636835E0,7.312801E0,2.6636696E0,6.7075725E0,0E0,5.474911E-1,1.9600463E0,1.9780636E0,8.216345E0,8.563683E0,3.6291687E0,1.6753883E0,4.9835463E0,4.9254255E0,0E0,0E0,0E0,0E0,0E0,0E0,0E0,0E0,0E0,0E0,0E0,0E0,0E0,0E0,0E0,0E0,0E0,0E0],"parents":[2147483647,0,0,1,1,2,2,3,3,4,4,6,6,7,7,8,8,9,9,10,10,13,13,17,17,18,18,19,19,20,20,22,22,23,23,24,24,25,25,26,26,27,27,28,28,29,29,30,30],"right_children":[2,4,6,8,10,-1,12,14,16,18,20,-1,-1,22,-1,-1,-1,24,26,28,30,-1,32,34,36,38,40,42,44,46,48,-1,-1,-1,-1,-1,-1,-1,-1,-1,-1,-1,-1,-1,-1,-1,-1,-1,-1],"split_conditions":[2E1,7E0,4E-2,1.9569E2,5.411E3,-5.571704E-3,8E-2,3E0,6.8E-1,5.094E3,5.651E3,-8.7270044E-2,-2.8608042E-1,2.5E-1,-2.8370458E-1,-1.7918849E-1,2.8766677E-1,7.8E1,1.913E1,5.499E3,5.812E3,1.1571779E-1,8.7E-1,3.509E3,1.9E-1,7.4E-1,5.376E1,3.502E1,9.8E-1,7.4E-1,9.8E-1,-2.467293E-1,-4.12962E-3,2.2823681E-1,-7.215413E-2,-4.8138157E-2,-2.4595176E-1,4.6325096E-1,-1.9071247E-1,-1.8604481E-1,7.18956E-2,-2.404285E-1,4.9310005E-3,-2.5553468E-1,2.9423939E-2,1.847831E-1,-1.4548454E-1,-1.0570281E-1,2.4465759E-1],"split_indices":[1,1,3,2,0,0,7,8,7,0,0,0,0,7,0,0,0,2,2,0,0,0,7,0,7,3,2,2,6,3,5,0,0,0,0,0,0,0,0,0,0,0,0,0,0,0,0,0,0],"split_type":[0,0,0,0,0,0,0,0,0,0,0,0,0,0,0,0,0,0,0,0,0,0,0,0,0,0,0,0,0,0,0,0,0,0,0,0,0,0,0,0,0,0,0,0,0,0,0,0,0],"sum_hessian":[3.390522E2,3.1632135E2,2.2730831E1,2.683855E1,2.8948282E2,1.0364231E0,2.1694408E1,2.4406971E1,2.4315803E0,1.1361593E2,1.7586688E2,1.8020959E0,1.9892311E1,7.472664E0,1.6934307E1,1.422191E0,1.0093893E0,4.8599865E1,6.501606E1,6.8441444E1,1.0742543E2,1.8787878E0,5.5938764E0,1.5995542E1,3.2604324E1,7.3061438E0,5.7709915E1,2.076021E1,4.7681236E1,1.9253166E1,8.8172264E1,4.5679564E0,1.0259199E0,1.250409E0,1.4745132E1,6.1249027E0,2.6479422E1,5.589908E0,1.7162358E0,1.4726426E1,4.298349E1,9.037621E0,1.172259E1,4.595112E1,1.7301179E0,1.4492436E1,4.76073E0,8.532938E1,2.8428876E0],"tree_param":{"num_deleted":"0","num_feature":"9","num_nodes":"49","size_leaf_vector":"1"}},{"base_weights":[-3.0618396E-1,-2.7092573E-1,-8.4065926E-1,-2.1419272E-1,-5.1906997E-1,-2.8105068E-1,-2.9006207E-1,-1.7145853E-1,-6.348438E-1,-6.5043634E-3,-6.6579497E-1,1.4782919E-1,-2.0676531E-1,7.244637E-3,-2.7413964E-1,-2.3965587E-1,-8.547384E-1,-4.594615E-1,4.7241622E-1,-7.351109E-1,4.449588E-1,-3.9529493E-1,3.2745418E-1,-5.606156E-1,-7.530581E-2,3.9872333E-1,-6.61796E-1,-2.7674523E-1,-7.011577E-3,-6.4653754E-1,4.2897254E-2,9.533384E-1,-1.886722E-1,-7.793414E-1,1.2399913E-1,-9.209281E-3,2.1370378E-1,4.0950634E-2,-1.9210306E-1,1.5054765E-1,-1.5862682E-1,-9.2699856E-2,-2.308123E-1,-8.919331E-2,4.9166527E-2,-1.9608663E-1,4.364176E-1,-2.3893972E-1,-1.6544632E-3,-2.3568988E-1,-7.274838E-4,4.4016635E-1,-1.552285E-1,1.1240055E-1,-2.4765807E-1],"categories":[],"categories_nodes":[],"categories_segments":[],"categories_sizes":[],"default_left":[0,0,0,0,0,0,0,0,0,0,0,0,0,0,0,0,0,0,0,0,0,0,0,0,0,0,0,0,0,0,0,0,0,0,0,0,0,0,0,0,0,0,0,0,0,0,0,0,0,0,0,0,0,0,0],"id":20,"left_children":[1,3,5,7,9,-1,11,13,15,17,19,-1,-1,21,23,25,27,29,31,33,35,37,39,41,43,45,47,-1,-1,49,-1,51,-1,53,-1,-1,-1,-1,-1,-1,-1,-1,-1,-1,-1,-1,-1,-1,-1,-1,-1,-1,-1,-1,-1],"loss_changes":[5.5925636E0,3.9886036E0,7.152395E-1,4.182618E0,4.0183725E0,0E0,1.6582488E0,4.0037155E0,1.676199E0,3.0184612E0,3.5280914E0,0E0,0E0,1.0512922E1,7.848502E0,2.7237961E0,7.39789E-1,8.975829E-1,4.1853337E0,2.3290882E0,4.1168952E-1,4.7974353E0,7.045484E0,2.735321E0,4.452381E0,5.6821337E0,5.14467E-1,0E0,0E0,5.026994E-1,0E0,4.621169E0,0E0,2.3555088E0,0E0,0E0,0E0,0E0,0E0,0E0,0E0,0E0,0E0,0E0,0E0,0E0,0E0,0E0,0E0,0E0,0E0,0E0,0E0,0E0,0E0],"parents":[2147483647,0,0,1,1,2,2,3,3,4,4,6,6,7,7,8,8,9,9,10,10,13,13,14,14,15,15,16,16,17,17,18,18,19,19,20,20,21,21,22,22,23,23,24,24,25,25,26,26,29,29,31,31,33,33],"right_children":[2,4,6,8,10,-1,12,14,16,18,20,-1,-1,22,24,26,28,30,32,34,36,38,40,42,44,46,48,-1,-1,50,-1,52,-1,54,-1,-1,-1,-1,-1,-1,-1,-1,-1,-1,-1,-1,-1,-1,-1,-1,-1,-1,-1,-1,-1],"split_conditions":[2E1,8E0,5.816E3,9.1E-1,2E-1,-2.8105068E-1,2.9E-1,5.311E3,3.8E-1,6.3E-1,9.6E-1,1.4782919E-1,-2.0676531E-1,5.094E3,5.651E3,1.1E1,9.3E-1,1.1273E2,8.604E1,9.9E-1,7.54E1,4.131E3,8.4E-1,5.499E3,5.7E-1,7.349E1,8.2E-1,-2.7674523E-1,-7.011577E-3,8E-1,4.2897254E-2,9.1E-1,-1.886722E-1,3E-2,1.2399913E-1,-9.209281E-3,2.1370378E-1,4.0950634E-2,-1.9210306E-1,1.5054765E-1,-1.5862682E-1,-9.2699856E-2,-2.308123E-1,-8.919331E-2,4.9166527E-2,-1.9608663E-1,4.364176E-1,-2.3893972E-1,-1.6544632E-3,-2.3568988E-1,-7.274838E-4,4.4016635E-1,-1.552285E-1,1.1240055E-1,-2.4765807E-1],"split_indices":[1,8,0,3,5,0,7,0,6,7,4,0,0,0,0,1,5,2,2,5,2,0,6,0,7,2,7,0,0,4,0,7,0,4,0,0,0,0,0,0,0,0,0,0,0,0,0,0,0,0,0,0,0,0,0],"split_type":[0,0,0,0,0,0,0,0,0,0,0,0,0,0,0,0,0,0,0,0,0,0,0,0,0,0,0,0,0,0,0,0,0,0,0,0,0,0,0,0,0,0,0,0,0,0,0,0,0,0,0,0,0,0,0],"sum_hessian":[3.0785806E2,2.9021976E2,1.7638287E1,2.3773074E2,5.2489017E1,1.4418265E1,3.2200203E0,2.1708461E2,2.0646145E1,1.1913834E1,4.0575184E1,1.0082058E0,2.2118144E0,7.955641E1,1.375282E2,8.12822E0,1.2517926E1,6.1437664E0,5.770067E0,3.8510166E1,2.065017E0,3.514309E1,4.4413322E1,5.5600517E1,8.192767E1,3.2575212E0,4.8706985E0,1.14733925E1,1.0445337E0,4.6321845E0,1.5115819E0,4.109789E0,1.6602781E0,3.7391483E1,1.1186856E0,1.0616449E0,1.003372E0,1.1225281E1,2.3917809E1,3.724259E1,7.1707325E0,2.6336914E1,2.9263603E1,4.2364555E1,3.9563118E1,1.8224361E0,1.435085E0,3.8641627E0,1.0065356E0,3.6288297E0,1.003355E0,3.047433E0,1.0623561E0,1.1651952E0,3.6226288E1],"tree_param":{"num_deleted":"0","num_feature":"9","num_nodes":"55","size_leaf_vector":"1"}},{"base_weights":[-2.5169957E-1,-1.9981346E-1,-5.7570547E-1,-6.345532E-1,-1.5804198E-1,-3.42795E-1,-7.4084526E-1,1.3323127E-1,-7.1264166E-1,-3.582213E-1,-8.475452E-2,-6.1384326E-1,2.719224E-1,-3.387885E-2,-8.5664225E-1,-8.6446685E-1,-2.7166945E-1,4.0503088E-1,-4.806426E-1,2.2121894E-1,-2.1937157E-1,-7.336141E-1,4.0204894E-2,-3.3351249E-1,3.5299468E-1,-1.8612106E-1,1.7661081E-1,-3.43291E-2,-9.0329546E-1,-3.7905607E-1,-2.7613914E-1,-2.3460007E-1,5.3118277E-1,1.1350569E0,-2.8300416E-1,-6.670243E-1,-1.00123115E-1,-2.237368E-1,2.9202837E-1,-2.5727364E-1,1.0685236E0,-3.5351858E-2,-2.6733947E-1,1.4912187E-1,-2.1429454E-1,-5.4164287E-2,-2.821029E-1,-1.6474296E-1,-4.624038E-4,3.815585E-1,-1.5440148E-1,5.446197E-1,1.4078075E-2,-2.1720107E-1,1.1096295E-1,-2.3277044E-1,-9.193707E-2,-2.1443512E-1,7.30211E-2,3.4812525E-2,2.2031698E-1,-1.9707552E-1,-4.7518965E-2,5.259095E-1,-1.2868264E-3,-1.4802428E-2,-9.2710124E-4],"categories":[],"categories_nodes":[],"categories_segments":[],"categories_sizes":[],"default_left":[0,0,0,0,0,0,0,0,0,0,0,0,0,0,0,0,0,0,0,0,0,0,0,0,0,0,0,0,0,0,0,0,0,0,0,0,0,0,0,0,0,0,0,0,0,0,0,0,0,0,0,0,0,0,0,0,0,0,0,0,0,0,0,0,0,0,0],"id":21,"left_children":[1,3,5,7,9,11,13,-1,15,17,19,21,23,25,27,29,31,33,35,37,39,41,-1,43,-1,-1,-1,-1,45,47,-1,-1,49,51,53,55,57,-1,59,61,63,65,-1,-1,-1,-1,-1,-1,-1,-1,-1,-1,-1,-1,-1,-1,-1,-1,-1,-1,-1,-1,-1,-1,-1,-1,-1],"loss_changes":[4.692518E0,4.403822E0,1.243865E0,2.1199265E0,3.3089213E0,3.168904E0,1.7658529E0,0E0,1.1275454E0,5.865448E0,6.9653053E0,1.2458043E0,3.7919693E0,1.8722198E0,5.4754734E-1,5.0094604E-2,3.148243E0,4.807369E0,3.6749487E0,3.765111E0,5.9920316E0,1.2000203E0,0E0,1.7775226E0,0E0,0E0,0E0,0E0,2.9990768E-1,2.0580673E-1,0E0,0E0,3.1238613E0,3.2706528E0,1.8221037E0,1.1455088E0,4.0849833E0,0E0,3.728623E0,4.4236E0,2.608819E0,1.247633E-3,0E0,0E0,0E0,0E0,0E0,0E0,0E0,0E0,0E0,0E0,0E0,0E0,0E0,0E0,0E0,0E0,0E0,0E0,0E0,0E0,0E0,0E0,0E0,0E0,0E0],"parents":[2147483647,0,0,1,1,2,2,3,3,4,4,5,5,6,6,8,8,9,9,10,10,11,11,12,12,13,13,14,14,15,15,16,16,17,17,18,18,19,19,20,20,21,21,23,23,28,28,29,29,32,32,33,33,34,34,35,35,36,36,38,38,39,39,40,40,41,41],"right_children":[2,4,6,8,10,12,14,-1,16,18,20,22,24,26,28,30,32,34,36,38,40,42,-1,44,-1,-1,-1,-1,46,48,-1,-1,50,52,54,56,58,-1,60,62,64,66,-1,-1,-1,-1,-1,-1,-1,-1,-1,-1,-1,-1,-1,-1,-1,-1,-1,-1,-1,-1,-1,-1,-1,-1,-1],"split_conditions":[1.7E1,7E0,4.4E-1,3.596E3,2.6E-1,7E0,1.2E-1,1.3323127E-1,1.0699E2,8.48E0,4.8E-1,7.011E3,8.885E1,6E-2,4.131E3,1.6E-1,6E0,4E0,6.7E-1,6E-2,9.9E-1,4.899E3,4.0204894E-2,2.8E-1,3.5299468E-1,-1.8612106E-1,1.7661081E-1,-3.43291E-2,2.2E-1,9E-2,-2.7613914E-1,-2.3460007E-1,5.2E-1,4.4E-1,1.3E1,1.0557E2,5.31E3,-2.237368E-1,5.813E3,1.8E-1,4.3E-1,4.8E-1,-2.6733947E-1,1.4912187E-1,-2.1429454E-1,-5.4164287E-2,-2.821029E-1,-1.6474296E-1,-4.624038E-4,3.815585E-1,-1.5440148E-1,5.446197E-1,1.4078075E-2,-2.1720107E-1,1.1096295E-1,-2.3277044E-1,-9.193707E-2,-2.1443512E-1,7.30211E-2,3.4812525E-2,2.2031698E-1,-1.9707552E-1,-4.7518965E-2,5.259095E-1,-1.2868264E-3,-1.4802428E-2,-9.2710124E-4],"split_indices":[1,1,7,0,6,8,4,0,2,2,6,0,2,4,0,7,1,8,4,7,4,0,0,3,0,0,0,0,2,7,0,0,5,3,1,2,0,0,0,3,5,4,0,0,0,0,0,0,0,0,0,0,0,0,0,0,0,0,0,0,0,0,0,0,0,0,0],"split_type":[0,0,0,0,0,0,0,0,0,0,0,0,0,0,0,0,0,0,0,0,0,0,0,0,0,0,0,0,0,0,0,0,0,0,0,0,0,0,0,0,0,0,0,0,0,0,0,0,0,0,0,0,0,0,0,0,0,0,0,0,0,0,0,0,0,0,0],"sum_hessian":[2.8496957E2,2.4702745E2,3.794212E1,2.0410686E1,2.2661676E2,1.7017168E1,2.0924952E1,1.0614465E0,1.934924E1,5.9690006E1,1.6692676E2,1.1810825E1,5.2063427E0,3.1269279E0,1.7798025E1,1.367918E1,5.6700597E0,7.9314995E0,5.1758507E1,5.0805874E1,1.1612088E2,1.01968355E1,1.6139894E0,3.497328E0,1.7090145E0,1.6118895E0,1.5150385E0,1.2567664E0,1.6541258E1,2.2183752E0,1.1460805E1,3.4824333E0,2.1876266E0,3.5330834E0,4.398416E0,3.4236324E1,1.752218E1,2.8160582E0,4.7989815E1,1.1357856E2,2.5423207E0,2.102234E0,8.094602E0,1.0034122E0,2.4939158E0,1.0929362E0,1.5448321E1,1.2159214E0,1.0024539E0,1.1541523E0,1.0334743E0,1.7626432E0,1.7704402E0,2.5601687E0,1.8382471E0,2.5411245E1,8.82508E0,5.8945484E0,1.1627632E1,3.5234604E1,1.2755213E1,2.140785E1,9.217071E1,1.1649646E0,1.3773562E0,1.0970844E0,1.0051494E0],"tree_param":{"num_deleted":"0","num_feature":"9","num_nodes":"67","size_leaf_vector":"1"}},{"base_weights":[-2.0348068E-1,-1.7410234E-1,-7.699014E-1,-5.7346004E-1,-1.4301369E-1,-2.714493E-1,-1.7337938E-1,-6.590167E-1,1.11580886E-1,-1.0956102E-1,-5.050021E-1,-1.8273081E-1,1.3469909E-1,-2.323927E-1,-8.411042E-1,-3.276485E-1,-3.5091024E-2,2.140372E-2,-7.752423E-1,3.65073E-1,-2.2219515E-1,-2.4940064E-2,-2.7209824E-1,2.765999E-1,-4.4390568E-1,1.13999195E-1,-2.1504405E-1,-2.3254095E-1,8.064159E-1,-8.3820033E-1,-3.2720405E-3,-1.648867E-1,3.138137E-1,3.1106263E-1,-5.1214065E-2,-1.8676418E-1,-4.5949094E-2,1.7043155E-2,5.910144E-1,-3.6124825E-2,-2.1928711E-1,-1.6630301E-1,4.536299E-1,-2.7269125E-1,-5.5374574E-2],"categories":[],"categories_nodes":[],"categories_segments":[],"categories_sizes":[],"default_left":[0,0,0,0,0,0,0,0,0,0,0,0,0,0,0,0,0,0,0,0,0,0,0,0,0,0,0,0,0,0,0,0,0,0,0,0,0,0,0,0,0,0,0,0,0],"id":22,"left_children":[1,3,5,7,9,-1,11,13,-1,15,17,-1,-1,19,21,23,25,27,29,31,-1,-1,-1,33,35,37,39,-1,41,43,-1,-1,-1,-1,-1,-1,-1,-1,-1,-1,-1,-1,-1,-1,-1],"loss_changes":[4.3314934E0,3.1014872E0,8.8464785E-1,1.7161684E0,2.8415785E0,0E0,1.2562732E0,1.1281333E0,0E0,3.5658352E0,2.856094E0,0E0,0E0,2.2377255E0,5.019293E-1,4.0530586E0,4.459859E0,5.467471E0,6.26842E-1,2.8470755E0,0E0,0E0,0E0,3.4566364E0,2.3615894E0,9.554211E0,3.5857785E0,0E0,5.054198E0,3.9643192E-1,0E0,0E0,0E0,0E0,0E0,0E0,0E0,0E0,0E0,0E0,0E0,0E0,0E0,0E0,0E0],"parents":[2147483647,0,0,1,1,2,2,3,3,4,4,6,6,7,7,9,9,10,10,13,13,14,14,15,15,16,16,17,17,18,18,19,19,23,23,24,24,25,25,26,26,28,28,29,29],"right_children":[2,4,6,8,10,-1,12,14,-1,16,18,-1,-1,20,22,24,26,28,30,32,-1,-1,-1,34,36,38,40,-1,42,44,-1,-1,-1,-1,-1,-1,-1,-1,-1,-1,-1,-1,-1,-1,-1],"split_conditions":[2E1,7E0,5.816E3,2.9142E2,9.1E-1,-2.714493E-1,7.54E1,3E0,1.11580886E-1,2.6E-1,1.1E1,-1.8273081E-1,1.3469909E-1,4.5E-1,9E-2,8.48E0,6.5E-1,7.349E1,9.4E-1,4.7E-1,-2.2219515E-1,-2.4940064E-2,-2.7209824E-1,2.2E-1,8.604E1,8.9E-1,8.8E-1,-2.3254095E-1,9.5E-1,9E-1,-3.2720405E-3,-1.648867E-1,3.138137E-1,3.1106263E-1,-5.1214065E-2,-1.8676418E-1,-4.5949094E-2,1.7043155E-2,5.910144E-1,-3.6124825E-2,-2.1928711E-1,-1.6630301E-1,4.536299E-1,-2.7269125E-1,-5.5374574E-2],"split_indices":[1,1,0,2,3,0,2,8,0,6,1,0,0,5,6,2,6,2,5,4,0,0,0,4,2,3,5,0,3,7,0,0,0,0,0,0,0,0,0,0,0,0,0,0,0],"split_type":[0,0,0,0,0,0,0,0,0,0,0,0,0,0,0,0,0,0,0,0,0,0,0,0,0,0,0,0,0,0,0,0,0,0,0,0,0,0,0,0,0,0,0,0,0],"sum_hessian":[2.6735352E2,2.5541345E2,1.1940061E1,1.7187017E1,2.3822643E2,9.315995E0,2.624065E0,1.6038485E1,1.1485344E0,2.1926593E2,1.8960499E1,1.5560251E0,1.0680398E0,5.4785995E0,1.0559884E1,5.4948368E1,1.6431757E2,6.744182E0,1.2216316E1,2.6477919E0,2.8308074E0,1.0254326E0,9.5344515E0,8.643654E0,4.6304714E1,9.006535E1,7.4252205E1,3.3537562E0,3.3904262E0,1.1197355E1,1.0189608E0,1.2122974E0,1.4354945E0,2.7135563E0,5.9300976E0,2.7974817E1,1.8329897E1,8.837301E1,1.6923462E0,6.3786068E1,1.0466139E1,1.2310568E0,2.1593692E0,9.750902E0,1.4464536E0],"tree_param":{"num_deleted":"0","num_feature":"9","num_nodes":"45","size_leaf_vector":"1"}},{"base_weights":[-1.6239895E-1,-1.3764389E-1,-7.191529E-1,-8.7139025E-2,-3.817781E-1,-2.6340362E-1,-1.4851567E-1,-6.1957166E-2,-2.5530136E-1,-4.8014322E-1,3.6314514E-1,1.2852119E-1,-1.761445E-1,9.658993E-2,-1.5892714E-1,-6.933847E-1,-1.8798599E-1,1.0245987E0,-1.923557E-1,-2.5850117E-1,3.3016E-1,-4.3613937E-1,4.0992987E-3,9.897053E-2,-7.7417654E-1,5.2180713E-1,-7.130694E-1,-9.162358E-2,5.051672E-1,6.637658E-2,-1.6289358E-1,4.3938524E-1,6.9090225E-2,-4.4820324E-2,-2.1088861E-1,1.3987418E-1,-3.5543885E-2,-2.5578132E-1,9.237994E-2,-1.1422378E-1,4.3853873E-1,-2.6178634E-1,-5.3614307E-2],"categories":[],"categories_nodes":[],"categories_segments":[],"categories_sizes":[],"default_left":[0,0,0,0,0,0,0,0,0,0,0,0,0,0,0,0,0,0,0,0,0,0,0,0,0,0,0,0,0,0,0,0,0,0,0,0,0,0,0,0,0,0,0],"id":23,"left_children":[1,3,5,7,9,-1,11,13,-1,15,17,-1,-1,19,21,23,25,27,-1,29,31,33,35,-1,37,39,41,-1,-1,-1,-1,-1,-1,-1,-1,-1,-1,-1,-1,-1,-1,-1,-1],"loss_changes":[3.417563E0,2.9940033E0,8.327656E-1,3.8854008E0,3.2364812E0,0E0,1.1416198E0,3.0790868E0,0E0,2.1962986E0,4.2734537E0,0E0,0E0,6.409281E0,5.606977E0,2.009449E0,6.756135E0,3.7298775E0,0E0,4.3257394E0,4.922969E0,3.4096594E0,4.535625E0,0E0,1.956747E0,7.2257266E0,7.1949005E-1,0E0,0E0,0E0,0E0,0E0,0E0,0E0,0E0,0E0,0E0,0E0,0E0,0E0,0E0,0E0,0E0],"parents":[2147483647,0,0,1,1,2,2,3,3,4,4,6,6,7,7,9,9,10,10,13,13,14,14,15,15,16,16,17,17,19,19,20,20,21,21,22,22,24,24,25,25,26,26],"right_children":[2,4,6,8,10,-1,12,14,-1,16,18,-1,-1,20,22,24,26,28,-1,30,32,34,36,-1,38,40,42,-1,-1,-1,-1,-1,-1,-1,-1,-1,-1,-1,-1,-1,-1,-1,-1],"split_conditions":[2E1,8E0,5.816E3,9.8E-1,9.2E-1,-2.6340362E-1,2.9E-1,5.311E3,-2.5530136E-1,6.3E-1,5.5E-1,1.2852119E-1,-1.761445E-1,5.094E3,5.651E3,4.829E3,4.3E-1,1.1E1,-1.923557E-1,4.131E3,5.211E3,5.499E3,5.812E3,9.897053E-2,2.3981E2,2.7E-1,9E-1,-9.162358E-2,5.051672E-1,6.637658E-2,-1.6289358E-1,4.3938524E-1,6.9090225E-2,-4.4820324E-2,-2.1088861E-1,1.3987418E-1,-3.5543885E-2,-2.5578132E-1,9.237994E-2,-1.1422378E-1,4.3853873E-1,-2.6178634E-1,-5.3614307E-2],"split_indices":[1,8,0,7,4,0,7,0,0,7,3,0,0,0,0,0,6,1,0,0,0,0,0,0,2,6,7,0,0,0,0,0,0,0,0,0,0,0,0,0,0,0,0],"split_type":[0,0,0,0,0,0,0,0,0,0,0,0,0,0,0,0,0,0,0,0,0,0,0,0,0,0,0,0,0,0,0,0,0,0,0,0,0,0,0,0,0,0,0],"sum_hessian":[2.541464E2,2.4452142E2,9.624979E0,2.0373169E2,4.078973E1,7.10764E0,2.5173392E0,1.9827635E2,5.4553375E0,3.634581E1,4.443921E0,1.0973496E0,1.4199897E0,7.524833E1,1.2302802E2,2.021664E1,1.612917E1,2.6671512E0,1.7767696E0,2.9814821E1,4.543351E1,4.4938595E1,7.8089424E1,1.253742E0,1.8962898E1,6.860957E0,9.268211E0,1.061835E0,1.6053163E0,1.1180956E1,1.8633865E1,2.5700045E0,4.2863506E1,2.2412813E1,2.2525782E1,1.5782495E1,6.230693E1,1.7879164E1,1.0837344E0,3.8036938E0,3.0572634E0,6.6496673E0,2.6185446E0],"tree_param":{"num_deleted":"0","num_feature":"9","num_nodes":"43","size_leaf_vector":"1"}},{"base_weights":[-1.3120699E-1,-4.6823885E-2,-2.717775E-1,-3.4575722E-1,6.184491E-2,2.0547539E-1,-3.755365E-1,1.4768259E-1,-5.045548E-1,-2.5129372E-1,1.1110739E-1,8.113603E-1,-4.6325538E-1,-4.9247938E-1,-3.5038974E-2,-3.9174503E-1,1.0191469E0,-6.5678996E-1,1.958371E-1,-1.2162803E-2,4.3406287E-1,1.7794884E0,-2.5173882E-1,-7.092242E-1,2.6979994E-2,1.0622338E-1,-5.451255E-1,3.5723853E-1,-7.410899E-1,2.4985148E-1,-2.5095835E-1,5.7724917E-1,1.6796423E-1,-2.5949103E-1,-3.5747617E-1,-3.1877404E-1,4.4042525E-1,5.284226E-1,-1.5023485E-1,1.7596122E0,-7.6860696E-2,2.5008497E0,-1.5271851E-1,1.6016728E-1,-2.198897E-1,-2.3816976E-1,-5.255792E-2,1.6505232E-1,-1.7059238E-1,-5.0064427E-1,3.212694E-1,-5.8975416E-1,-1.085089E-2,8.2020575E-1,-2.5753695E-1,-4.5948576E-2,-2.5277296E-1,2.4024111E-1,-1.6508378E-1,1.7967588E-1,-1.8394986E-1,-2.2167191E-1,1.2599649E-1,-1.88732E-1,2.8920272E-1,-1.0549209E-1,8.902237E-2,-1.12543814E-1,1.0118412E-1,9.207246E-1,1.38631E-1,-1.9969426E-3,-1.9984265E-1,-8.5581146E-2,-1.9925748E-1,1.9111466E-1,-2.0060559E-1,4.49734E-1,-2.8357077E-2,-2.3160036E-1,1.4194715E-1],"categories":[],"categories_nodes":[],"categories_segments":[],"categories_sizes":[],"default_left":[0,0,0,0,0,0,0,0,0,0,0,0,0,0,0,0,0,0,0,0,0,0,0,0,0,0,0,0,0,0,0,0,0,0,0,0,0,0,0,0,0,0,0,0,0,0,0,0,0,0,0,0,0,0,0,0,0,0,0,0,0,0,0,0,0,0,0,0,0,0,0,0,0,0,0,0,0,0,0,0,0],"id":24,"left_children":[1,3,5,7,9,11,13,15,17,-1,19,21,23,25,27,29,31,33,35,37,39,41,43,45,47,49,51,53,55,-1,-1,-1,57,-1,59,61,-1,63,65,-1,67,69,-1,-1,-1,-1,-1,-1,-1,71,-1,73,75,77,79,-1,-1,-1,-1,-1,-1,-1,-1,-1,-1,-1,-1,-1,-1,-1,-1,-1,-1,-1,-1,-1,-1,-1,-1,-1,-1],"loss_changes":[2.8984108E0,5.042508E0,4.6256456E0,3.3154063E0,5.153766E0,7.283964E0,3.0011272E0,5.49667E0,3.489111E0,0E0,4.351067E0,1.0028557E1,1.0731578E0,1.8339491E0,5.930223E0,4.7381783E0,3.0843458E0,1.318327E0,4.656602E0,6.0489225E0,8.420842E1,9.520615E0,2.3999E0,1.2577605E-1,1.5231389E0,3.6923618E0,1.2324467E0,4.145916E0,3.2627106E-1,0E0,0E0,0E0,1.974788E0,0E0,3.4041674E0,1.9791515E0,0E0,8.922196E0,5.909523E0,0E0,3.656457E0,3.1782417E0,0E0,0E0,0E0,0E0,0E0,0E0,0E0,3.2183087E-1,0E0,8.969097E-1,2.5673325E0,5.187298E0,2.8837485E0,0E0,0E0,0E0,0E0,0E0,0E0,0E0,0E0,0E0,0E0,0E0,0E0,0E0,0E0,0E0,0E0,0E0,0E0,0E0,0E0,0E0,0E0,0E0,0E0,0E0,0E0],"parents":[2147483647,0,0,1,1,2,2,3,3,4,4,5,5,6,6,7,7,8,8,10,10,11,11,12,12,13,13,14,14,15,15,16,16,17,17,18,18,19,19,20,20,21,21,22,22,23,23,24,24,25,25,26,26,27,27,28,28,32,32,34,34,35,35,37,37,38,38,40,40,41,41,49,49,51,51,52,52,53,53,54,54],"right_children":[2,4,6,8,10,12,14,16,18,-1,20,22,24,26,28,30,32,34,36,38,40,42,44,46,48,50,52,54,56,-1,-1,-1,58,-1,60,62,-1,64,66,-1,68,70,-1,-1,-1,-1,-1,-1,-1,72,-1,74,76,78,80,-1,-1,-1,-1,-1,-1,-1,-1,-1,-1,-1,-1,-1,-1,-1,-1,-1,-1,-1,-1,-1,-1,-1,-1,-1,-1],"split_conditions":[1.4E1,2.628E1,1.988E1,5.411E3,5E0,4.7E-1,7.6E-1,6.2E-1,5.921E3,-2.5129372E-1,5.722E3,4.6E-1,6E0,8E-2,5.719E3,1.06E0,7.3E-1,1.1E1,8.5E-1,1.8E-1,5.912E3,6.6E-1,5.411E3,8.3E-1,8E0,7E0,7.549E3,5.3E-1,1.5E1,2.4985148E-1,-2.5095835E-1,5.7724917E-1,1.1E1,-2.5949103E-1,2.2E-1,7.995E3,4.4042525E-1,2.5E-1,1.2E1,1.7596122E0,7.549E3,6.9E-1,-1.5271851E-1,1.6016728E-1,-2.198897E-1,-2.3816976E-1,-5.255792E-2,1.6505232E-1,-1.7059238E-1,3.7E-1,3.212694E-1,4.953E1,5E0,8.8E-1,7.9E-1,-4.5948576E-2,-2.5277296E-1,2.4024111E-1,-1.6508378E-1,1.7967588E-1,-1.8394986E-1,-2.2167191E-1,1.2599649E-1,-1.88732E-1,2.8920272E-1,-1.0549209E-1,8.902237E-2,-1.12543814E-1,1.0118412E-1,9.207246E-1,1.38631E-1,-1.9969426E-3,-1.9984265E-1,-8.5581146E-2,-1.9925748E-1,1.9111466E-1,-2.0060559E-1,4.49734E-1,-2.8357077E-2,-2.3160036E-1,1.4194715E-1],"split_indices":[1,2,2,0,1,6,5,6,0,0,0,5,8,7,0,2,6,1,4,5,0,3,0,7,8,8,0,3,1,0,0,0,1,0,7,0,0,3,1,0,0,7,0,0,0,0,0,0,0,4,0,2,8,5,3,0,0,0,0,0,0,0,0,0,0,0,0,0,0,0,0,0,0,0,0,0,0,0,0,0,0],"split_type":[0,0,0,0,0,0,0,0,0,0,0,0,0,0,0,0,0,0,0,0,0,0,0,0,0,0,0,0,0,0,0,0,0,0,0,0,0,0,0,0,0,0,0,0,0,0,0,0,0,0,0,0,0,0,0,0,0,0,0,0,0,0,0,0,0,0,0,0,0,0,0,0,0,0,0,0,0,0,0,0,0],"sum_hessian":[2.4442159E2,1.5356882E2,9.085276E1,4.036056E1,1.1320826E2,1.6049711E1,7.480305E1,9.843463E0,3.0517097E1,5.0471888E0,1.0816107E2,8.308627E0,7.741084E0,5.534769E1,1.945536E1,6.420014E0,3.423449E0,2.511946E1,5.3976393E0,7.897798E1,2.9183086E1,3.9958625E0,4.3127646E0,4.8573E0,2.8837843E0,4.3912916E0,5.0956398E1,1.2824294E1,6.631066E0,1.4780798E0,4.941934E0,1.0482858E0,2.375163E0,1.3700547E1,1.1418912E1,4.3767343E0,1.0209049E0,1.5492795E1,6.3485188E1,1.6081287E0,2.7574959E1,2.9676726E0,1.0281898E0,1.5966718E0,2.716093E0,3.7725198E0,1.0847797E0,1.575854E0,1.3079304E0,2.9908185E0,1.4004731E0,4.6932247E1,4.024152E0,7.1247354E0,5.6995583E0,1.345508E0,5.2855577E0,1.2015438E0,1.1736193E0,2.1256511E0,9.293261E0,2.7899191E0,1.5868151E0,4.1145353E0,1.137826E1,4.391195E1,1.9573238E1,1.6084354E1,1.1490604E1,1.9255996E0,1.0420731E0,1.0115888E0,1.9792297E0,1.0168933E1,3.6763313E1,2.0433035E0,1.9808484E0,3.7228181E0,3.4019175E0,3.3114882E0,2.3880703E0],"tree_param":{"num_deleted":"0","num_feature":"9","num_nodes":"81","size_leaf_vector":"1"}},{"base_weights":[-1.196739E-1,-8.92594E-2,-4.7857192E-1,-3.4850916E-1,-4.053773E-2,-1.00765415E-1,-7.384819E-1,-4.1040963E-1,2.0619138E-1,-9.313342E-5,-4.9649715E-1,-2.1994635E-1,3.072597E-1,-2.740198E-1,1.3546371E-1,-5.7348096E-1,9.434587E-3,-1.1162931E-1,1.9856152E-1,2.7836508E-1,-6.682615E-1,-1.7066029E-1,6.661898E-1,2.2211067E-1,-6.980261E-1,-6.1384565E-1,5.150882E-1,4.449112E-1,-1.634425E-1,-5.688046E-1,3.2347625E-1,1.1450232E-1,-7.90369E-1,1.1840862E0,-6.7390025E-2,2.935012E-1,-1.0633556E-1,-2.3191439E-1,2.8264483E-2,-2.283458E-1,-2.9580258E-3,2.9888317E-1,-1.0357981E-1,2.4406487E-1,-1.0852109E-1,7.87163E-2,-7.2116904E-2,-6.695099E-3,-2.5212458E-1,4.5741394E-1,6.869019E-2,-9.504571E-4,-2.5650972E-1,4.4394568E-1,1.06115066E-1],"categories":[],"categories_nodes":[],"categories_segments":[],"categories_sizes":[],"default_left":[0,0,0,0,0,0,0,0,0,0,0,0,0,0,0,0,0,0,0,0,0,0,0,0,0,0,0,0,0,0,0,0,0,0,0,0,0,0,0,0,0,0,0,0,0,0,0,0,0,0,0,0,0,0,0],"id":25,"left_children":[1,3,5,7,9,11,13,15,-1,17,19,-1,21,-1,-1,23,25,27,29,-1,31,-1,33,35,37,39,41,43,45,47,49,-1,51,53,-1,-1,-1,-1,-1,-1,-1,-1,-1,-1,-1,-1,-1,-1,-1,-1,-1,-1,-1,-1,-1],"loss_changes":[2.5787706E0,2.797865E0,1.7454176E0,2.5318284E0,3.476778E0,2.473041E0,2.6649961E0,2.3150992E0,0E0,3.881412E0,4.3782268E0,0E0,2.2656562E0,0E0,0E0,2.564259E0,3.6006253E0,3.3077614E0,6.2218065E0,0E0,2.1336098E0,0E0,2.4420092E0,2.112472E0,1.3366976E0,4.483868E-1,2.9510355E0,3.215447E0,3.4499276E0,1.3439434E0,5.8731313E0,0E0,6.65452E-1,2.4815178E-1,0E0,0E0,0E0,0E0,0E0,0E0,0E0,0E0,0E0,0E0,0E0,0E0,0E0,0E0,0E0,0E0,0E0,0E0,0E0,0E0,0E0],"parents":[2147483647,0,0,1,1,2,2,3,3,4,4,5,5,6,6,7,7,9,9,10,10,12,12,15,15,16,16,17,17,18,18,20,20,22,22,23,23,24,24,25,25,26,26,27,27,28,28,29,29,30,30,32,32,33,33],"right_children":[2,4,6,8,10,12,14,16,-1,18,20,-1,22,-1,-1,24,26,28,30,-1,32,-1,34,36,38,40,42,44,46,48,50,-1,52,54,-1,-1,-1,-1,-1,-1,-1,-1,-1,-1,-1,-1,-1,-1,-1,-1,-1,-1,-1,-1,-1],"split_conditions":[9.1E-1,1.4E-1,3.8E-1,9.8E-1,9.3E-1,9.5E-1,9.4E-1,7.5E-1,2.0619138E-1,6.3E-1,4.829E3,-2.1994635E-1,2.9E-1,-2.740198E-1,1.3546371E-1,1.3E-1,7E1,2E-1,5.094E3,2.7836508E-1,8E-2,-1.7066029E-1,1.1E1,3.954E1,7.832E3,7.1E-1,5.4E-1,4.4E-1,9E-2,3.2E-1,5.261E3,1.1450232E-1,4.87E0,5.1E-1,-6.7390025E-2,2.935012E-1,-1.0633556E-1,-2.3191439E-1,2.8264483E-2,-2.283458E-1,-2.9580258E-3,2.9888317E-1,-1.0357981E-1,2.4406487E-1,-1.0852109E-1,7.87163E-2,-7.2116904E-2,-6.695099E-3,-2.5212458E-1,4.5741394E-1,6.869019E-2,-9.504571E-4,-2.5650972E-1,4.4394568E-1,1.06115066E-1],"split_indices":[3,3,6,4,7,3,5,5,0,7,0,0,4,0,0,7,2,3,0,0,4,0,1,2,0,6,6,7,7,5,0,0,2,7,0,0,0,0,0,0,0,0,0,0,0,0,0,0,0,0,0,0,0,0,0],"split_type":[0,0,0,0,0,0,0,0,0,0,0,0,0,0,0,0,0,0,0,0,0,0,0,0,0,0,0,0,0,0,0,0,0,0,0,0,0,0,0,0,0,0,0,0,0,0,0,0,0,0,0,0,0,0,0],"sum_hessian":[2.3915752E2,2.2162482E2,1.7532698E1,3.4088043E1,1.8753677E2,7.711261E0,9.821436E0,3.2735542E1,1.3525027E0,1.7317589E2,1.4360876E1,2.711669E0,4.999592E0,8.765487E0,1.0559491E0,2.3314169E1,9.421372E0,1.1118711E2,6.1988785E1,1.0716869E0,1.3289189E1,1.28299E0,3.7166018E0,3.0496573E0,2.0264513E1,4.124032E0,5.297341E0,8.823587E0,1.02363525E2,8.1806345E0,5.3808147E1,1.1630476E0,1.2126142E1,2.1420672E0,1.5745347E0,1.0178229E0,2.0318344E0,1.8533678E1,1.7308335E0,3.1062317E0,1.0178001E0,3.2959554E0,2.0013855E0,6.050124E0,2.7734632E0,1.5297311E1,8.7066216E1,3.075272E0,5.1053624E0,2.8208845E0,5.0987263E1,1.0001E0,1.1126041E1,1.0028021E0,1.139265E0],"tree_param":{"num_deleted":"0","num_feature":"9","num_nodes":"55","size_leaf_vector":"1"}},{"base_weights":[-9.4823815E-2,-7.509815E-2,-6.329309E-1,-2.9814372E-2,-3.0702168E-1,-2.4976929E-1,-6.843144E-2,-1.1436801E-2,-2.3504247E-1,7.915028E-2,-4.7013092E-1,1.4361764E-1,-1.63176E-1,2.0142222E-2,-4.2797738E-1,-2.0483373E-1,3.1632712E-1,-7.2236246E-1,1.1141332E-3,-2.8953162E-1,6.8480425E-2,-7.6951927E-1,1.5141724E-1,-1.757179E-1,5.393749E-1,-8.247196E-1,6.40107E-2,-3.2060745E-1,2.77876E-1,-1.823047E-1,4.8749425E-2,-3.4199078E-2,4.8967917E-2,-1.1428469E-3,-2.6146483E-1,-1.8510585E-1,1.7911124E-1,2.688919E-1,-5.2953854E-2,-5.12847E-2,-2.8323936E-1,9.412299E-2,-2.479565E-1],"categories":[],"categories_nodes":[],"categories_segments":[],"categories_sizes":[],"default_left":[0,0,0,0,0,0,0,0,0,0,0,0,0,0,0,0,0,0,0,0,0,0,0,0,0,0,0,0,0,0,0,0,0,0,0,0,0,0,0,0,0,0,0],"id":26,"left_children":[1,3,5,7,9,-1,11,13,-1,15,17,-1,-1,19,21,-1,23,25,27,29,31,33,35,-1,37,39,-1,41,-1,-1,-1,-1,-1,-1,-1,-1,-1,-1,-1,-1,-1,-1,-1],"loss_changes":[2.4285629E0,2.3660636E0,8.574455E-1,2.6270952E0,2.3575256E0,0E0,1.0953785E0,2.4658709E0,0E0,2.3474336E0,3.0962968E0,0E0,0E0,2.6333961E0,2.730467E0,0E0,2.2631884E0,1.8008242E0,3.2965174E0,3.5165048E0,2.6436408E0,6.5878105E-1,2.332026E0,0E0,2.2739692E0,1.0484543E0,0E0,2.8974657E0,0E0,0E0,0E0,0E0,0E0,0E0,0E0,0E0,0E0,0E0,0E0,0E0,0E0,0E0,0E0],"parents":[2147483647,0,0,1,1,2,2,3,3,4,4,6,6,7,7,9,9,10,10,13,13,14,14,16,16,17,17,18,18,19,19,20,20,21,21,22,22,24,24,25,25,27,27],"right_children":[2,4,6,8,10,-1,12,14,-1,16,18,-1,-1,20,22,-1,24,26,28,30,32,34,36,-1,38,40,-1,42,-1,-1,-1,-1,-1,-1,-1,-1,-1,-1,-1,-1,-1,-1,-1],"split_conditions":[2E1,8E0,5.816E3,9.8E-1,2E-1,-2.4976929E-1,4E-1,9.5E-1,-2.3504247E-1,2.9E-1,7.8E-1,1.4361764E-1,-1.63176E-1,1.4E-1,9.9E-1,-2.0483373E-1,9E0,9.6E-1,7.8E-1,6.4E-1,4.375E1,1.125E1,6.143E1,-1.757179E-1,5.655E3,5.251E3,6.40107E-2,3.6E-1,2.77876E-1,-1.823047E-1,4.8749425E-2,-3.4199078E-2,4.8967917E-2,-1.1428469E-3,-2.6146483E-1,-1.8510585E-1,1.7911124E-1,2.688919E-1,-5.2953854E-2,-5.12847E-2,-2.8323936E-1,9.412299E-2,-2.479565E-1],"split_indices":[1,8,0,7,5,0,6,4,0,7,5,0,0,3,4,0,1,4,6,5,2,2,2,0,0,0,0,6,0,0,0,0,0,0,0,0,0,0,0,0,0,0,0],"split_type":[0,0,0,0,0,0,0,0,0,0,0,0,0,0,0,0,0,0,0,0,0,0,0,0,0,0,0,0,0,0,0,0,0,0,0,0,0,0,0,0,0,0,0],"sum_hessian":[2.3227429E2,2.2516005E2,7.1142497E0,1.8932275E2,3.5837288E1,4.9048085E0,2.209441E0,1.8580713E2,3.515623E0,1.0794747E1,2.5042543E1,1.024135E0,1.1853061E0,1.7359787E2,1.2209262E1,2.1165535E0,8.678193E0,1.5964659E1,9.077884E0,2.27652E1,1.5083267E2,7.474843E0,4.734419E0,1.3980728E0,7.280121E0,1.4497457E1,1.4672015E0,7.2204037E0,1.8574806E0,1.3159117E1,9.606082E0,5.1480286E1,9.935239E1,1.000875E0,6.473968E0,1.5965918E0,3.137827E0,4.689822E0,2.5902987E0,2.6145515E0,1.1882905E1,3.3720896E0,3.848314E0],"tree_param":{"num_deleted":"0","num_feature":"9","num_nodes":"43","size_leaf_vector":"1"}},{"base_weights":[-8.031643E-2,-2.5163087E-1,-2.4197187E-2,4.1860912E-2,-3.7887743E-1,1.738309E-1,-1.325492E-1,-6.727267E-1,2.8385565E-1,-7.189301E-1,-1.9868143E-1,1.0236607E0,9.8983355E-2,-3.4676038E-2,-5.7707685E-1,-2.2971807E-1,-6.0911614E-2,4.551501E-1,-1.880226E-1,-8.4473884E-1,1.2223561E-1,8.963376E-1,-3.5190877E-1,5.511049E-1,-4.323641E-2,-1.352288E-1,3.4768832E-1,-5.248833E-1,9.74813E-2,1.7340103E-1,-7.762889E-1,1.6875955E-1,5.196798E-1,-2.4597816E-2,-2.7539372E-1,-1.5562579E-1,5.077911E-1,1.2501119E-1,-6.104175E-1,-1.5606216E-1,1.3932826E-1,4.7658116E-2,-7.277635E-1,5.7079506E-1,-2.1595615E-1,3.023189E-1,-7.5593936E-1,1.6299601E-1,-6.836618E-1,7.980268E-1,-1.9178818E-1,9.3205E-2,-8.9050573E-1,-9.564906E-2,3.180583E-1,-7.0556425E-2,3.383259E-1,6.1090175E-2,-2.0590563E-1,-2.2411992E-1,5.5904273E-2,-2.5271338E-1,-2.795757E-3,4.0142518E-1,3.3554405E-2,-1.752515E-1,2.337514E-1,3.5313675E-1,-1.5018238E-1,-2.751124E-1,-6.961191E-2,-4.7096547E-2,1.0358677E-1,-2.4570614E-1,-5.334508E-3,-2.2834169E-2,3.9140788E-1,-5.0457876E-2,-2.802917E-1],"categories":[],"categories_nodes":[],"categories_segments":[],"categories_sizes":[],"default_left":[0,0,0,0,0,0,0,0,0,0,0,0,0,0,0,0,0,0,0,0,0,0,0,0,0,0,0,0,0,0,0,0,0,0,0,0,0,0,0,0,0,0,0,0,0,0,0,0,0,0,0,0,0,0,0,0,0,0,0,0,0,0,0,0,0,0,0,0,0,0,0,0,0,0,0,0,0,0,0],"id":27,"left_children":[1,3,5,7,9,11,13,15,17,19,21,23,25,27,29,-1,-1,31,-1,33,-1,35,37,-1,39,41,43,45,47,49,51,53,-1,-1,-1,-1,-1,55,57,-1,-1,59,61,63,65,67,69,71,73,75,-1,-1,77,-1,-1,-1,-1,-1,-1,-1,-1,-1,-1,-1,-1,-1,-1,-1,-1,-1,-1,-1,-1,-1,-1,-1,-1,-1,-1],"loss_changes":[2.198615E0,2.125101E0,3.753139E0,3.3004684E0,2.2773814E0,3.8367844E0,4.893281E0,5.6194305E-2,2.490196E0,2.2286997E0,4.878975E0,4.335326E0,3.4259715E0,6.116065E0,3.1715922E0,0E0,0E0,4.2712297E0,0E0,6.1117077E-1,0E0,4.9579315E0,3.106459E0,0E0,9.918846E-1,3.3501072E0,3.6963615E0,4.0579863E0,3.9282033E0,3.0881848E0,2.2922688E0,5.2494535E0,0E0,0E0,0E0,0E0,0E0,3.685423E0,1.1355071E0,0E0,0E0,2.8194468E0,5.9139323E-1,7.115292E0,3.673462E0,4.1637173E0,1.133153E0,4.1150417E0,5.2295136E-1,1.568085E0,0E0,0E0,3.1583595E-1,0E0,0E0,0E0,0E0,0E0,0E0,0E0,0E0,0E0,0E0,0E0,0E0,0E0,0E0,0E0,0E0,0E0,0E0,0E0,0E0,0E0,0E0,0E0,0E0,0E0,0E0],"parents":[2147483647,0,0,1,1,2,2,3,3,4,4,5,5,6,6,7,7,8,8,9,9,10,10,11,11,12,12,13,13,14,14,17,17,19,19,21,21,22,22,24,24,25,25,26,26,27,27,28,28,29,29,30,30,31,31,37,37,38,38,41,41,42,42,43,43,44,44,45,45,46,46,47,47,48,48,49,49,52,52],"right_children":[2,4,6,8,10,12,14,16,18,20,22,24,26,28,30,-1,-1,32,-1,34,-1,36,38,-1,40,42,44,46,48,50,52,54,-1,-1,-1,-1,-1,56,58,-1,-1,60,62,64,66,68,70,72,74,76,-1,-1,78,-1,-1,-1,-1,-1,-1,-1,-1,-1,-1,-1,-1,-1,-1,-1,-1,-1,-1,-1,-1,-1,-1,-1,-1,-1,-1],"split_conditions":[2.6E-1,8E-2,4.8E-1,2E-2,3.1E-1,3.05E0,1.6E1,7E0,8.8E-1,7.995E3,3.8E-1,5E-1,5.9E-1,9E0,1.9E-1,-2.2971807E-1,-6.0911614E-2,8E-1,-1.880226E-1,1E0,1.2223561E-1,4.9E-1,3.6E-1,5.511049E-1,5.3E-1,4.5E-1,7E-1,1.6E-1,9E-1,5.533E3,4.131E3,1.5E1,5.196798E-1,-2.4597816E-2,-2.7539372E-1,-1.5562579E-1,5.077911E-1,8.6E-1,1.06E0,-1.5606216E-1,1.3932826E-1,6E-2,7.531E3,3.1E-1,8E-1,6.442E1,1.1721E2,5.311E1,8.7E-1,7.6E-1,-1.9178818E-1,9.3205E-2,1.95E0,-9.564906E-2,3.180583E-1,-7.0556425E-2,3.383259E-1,6.1090175E-2,-2.0590563E-1,-2.2411992E-1,5.5904273E-2,-2.5271338E-1,-2.795757E-3,4.0142518E-1,3.3554405E-2,-1.752515E-1,2.337514E-1,3.5313675E-1,-1.5018238E-1,-2.751124E-1,-6.961191E-2,-4.7096547E-2,1.0358677E-1,-2.4570614E-1,-5.334508E-3,-2.2834169E-2,3.9140788E-1,-5.0457876E-2,-2.802917E-1],"split_indices":[6,6,6,6,5,2,1,8,4,0,5,7,7,1,7,0,0,4,0,8,0,4,7,0,3,7,4,7,3,0,0,1,0,0,0,0,0,4,2,0,0,7,0,5,5,2,2,2,5,6,0,0,2,0,0,0,0,0,0,0,0,0,0,0,0,0,0,0,0,0,0,0,0,0,0,0,0,0,0],"split_type":[0,0,0,0,0,0,0,0,0,0,0,0,0,0,0,0,0,0,0,0,0,0,0,0,0,0,0,0,0,0,0,0,0,0,0,0,0,0,0,0,0,0,0,0,0,0,0,0,0,0,0,0,0,0,0,0,0,0,0,0,0,0,0,0,0,0,0,0,0,0,0,0,0,0,0,0,0,0,0],"sum_hessian":[2.2832135E2,5.5478638E1,1.7284271E2,1.6981699E1,3.8496937E1,6.0912495E1,1.1193022E2,3.8457222E0,1.3135978E1,1.2298466E1,2.6198471E1,3.9044294E0,5.7008068E1,9.261653E1,1.9313688E1,2.683992E0,1.1617302E0,1.147715E1,1.6588279E0,1.1287748E1,1.0107173E0,2.620646E0,2.3577826E1,1.8058771E0,2.0985522E0,2.9594448E1,2.7413618E1,1.9035833E1,7.3580696E1,4.078522E0,1.5235167E1,1.0299623E1,1.1775274E0,1.1746008E0,1.0113148E1,1.0691762E0,1.5514698E0,8.469306E0,1.5108519E1,1.0692452E0,1.029307E0,2.3317139E1,6.277309E0,1.963058E1,7.783037E0,4.0888724E0,1.4946961E1,6.8617096E1,4.9636006E0,2.3162975E0,1.7622246E0,1.2850974E0,1.3950068E1,7.073149E0,3.226473E0,6.79419E0,1.6751161E0,1.1455909E0,1.3962928E1,2.8127546E0,2.0504385E1,5.2648907E0,1.0124184E0,6.630259E0,1.3000322E1,5.982405E0,1.8006322E0,1.7338123E0,2.35506E0,1.0857737E1,4.0892253E0,2.4953798E1,4.36633E1,3.9339368E0,1.0296637E0,1.1617423E0,1.1545552E0,1.0742608E0,1.2875808E1],"tree_param":{"num_deleted":"0","num_feature":"9","num_nodes":"79","size_leaf_vector":"1"}},{"base_weights":[-7.201059E-2,-5.837492E-1,-5.551699E-2,1.316491E-1,-2.5011563E-1,1.3286462E-2,-1.7536923E-1,-2.772651E-1,8.9013904E-2,-3.2343116E-2,-4.9012128E-1,2.2083084E-1,-6.021356E-1,1.1595591E0,4.855481E-2,6.431475E-2,-6.284594E-1,-8.198741E-2,-6.295274E-1,4.1245517E-1,-1.4932136E-2,-8.570574E-1,-9.2747845E-3,5.6546175E-1,2.9089324E-2,-1.7049114E-1,2.13196E-1,3.2988915E-1,-2.310357E-1,-1.2573546E-1,-2.4747159E-1,-2.1253674E-1,3.4707448E-1,-7.694682E-1,-2.6179898E-1,9.190963E-2,-2.26239E-1,-7.368092E-2,-2.773905E-1,-1.2505132E-1,2.3649184E-1,-1.2605867E-1,6.092642E-2,4.202066E-1,3.5429887E-2,5.204792E-3,2.7443483E-1,-2.0767498E-1,-1.8685853E-2,1.3833947E-1,-1.7404844E-1,2.5515008E-1,-1.7542922E-1,-2.501564E-1,-1.5181251E-3,-2.2078656E-1,7.161857E-2],"categories":[],"categories_nodes":[],"categories_segments":[],"categories_sizes":[],"default_left":[0,0,0,0,0,0,0,0,0,0,0,0,0,0,0,0,0,0,0,0,0,0,0,0,0,0,0,0,0,0,0,0,0,0,0,0,0,0,0,0,0,0,0,0,0,0,0,0,0,0,0,0,0,0,0,0,0],"id":28,"left_children":[1,3,5,-1,-1,7,9,11,13,15,17,19,21,23,25,27,29,31,33,-1,35,37,39,-1,-1,41,43,45,47,49,-1,-1,51,53,55,-1,-1,-1,-1,-1,-1,-1,-1,-1,-1,-1,-1,-1,-1,-1,-1,-1,-1,-1,-1,-1,-1],"loss_changes":[1.8786365E0,2.146096E0,1.8202279E0,0E0,0E0,3.1266594E0,3.606724E0,4.8888717E0,4.8203793E0,3.2900872E0,1.3748355E0,3.376248E0,2.721044E0,2.943623E0,3.9865952E0,3.9539428E0,6.825702E-1,2.2706904E0,7.5252676E-1,0E0,2.8983686E0,2.942238E-1,2.422175E0,0E0,0E0,4.521676E0,6.9463634E0,4.8179064E0,1.8243691E0,1.1787646E0,0E0,0E0,2.90954E0,6.312914E-1,1.7481768E0,0E0,0E0,0E0,0E0,0E0,0E0,0E0,0E0,0E0,0E0,0E0,0E0,0E0,0E0,0E0,0E0,0E0,0E0,0E0,0E0,0E0,0E0],"parents":[2147483647,0,0,1,1,2,2,5,5,6,6,7,7,8,8,9,9,10,10,11,11,12,12,13,13,14,14,15,15,16,16,17,17,18,18,20,20,21,21,22,22,25,25,26,26,27,27,28,28,29,29,32,32,33,33,34,34],"right_children":[2,4,6,-1,-1,8,10,12,14,16,18,20,22,24,26,28,30,32,34,-1,36,38,40,-1,-1,42,44,46,48,50,-1,-1,52,54,56,-1,-1,-1,-1,-1,-1,-1,-1,-1,-1,-1,-1,-1,-1,-1,-1,-1,-1,-1,-1,-1,-1],"split_conditions":[6E0,4.112E3,1.4E1,1.316491E-1,-2.5011563E-1,2E-1,7E-1,8E-2,2.2E-1,8.8E-1,1.5E1,1E0,7.3E-1,5.83E1,6.341E1,4.8E-1,4.505E1,4E0,9.578E1,4.1245517E-1,7.1E-1,1.3E-1,1.3E1,5.6546175E-1,2.9089324E-2,5.9E-1,6.815E1,6.3E-1,2.2E-1,2.6E-1,-2.4747159E-1,-2.1253674E-1,5.6E-1,8.8E-1,4E-1,9.190963E-2,-2.26239E-1,-7.368092E-2,-2.773905E-1,-1.2505132E-1,2.3649184E-1,-1.2605867E-1,6.092642E-2,4.202066E-1,3.5429887E-2,5.204792E-3,2.7443483E-1,-2.0767498E-1,-1.8685853E-2,1.3833947E-1,-1.7404844E-1,2.5515008E-1,-1.7542922E-1,-2.501564E-1,-1.5181251E-3,-2.2078656E-1,7.161857E-2],"split_indices":[1,0,1,0,0,4,4,4,4,7,1,8,5,2,2,3,2,8,2,0,6,7,1,0,0,5,2,7,5,4,0,0,3,3,3,0,0,0,0,0,0,0,0,0,0,0,0,0,0,0,0,0,0,0,0,0,0],"split_type":[0,0,0,0,0,0,0,0,0,0,0,0,0,0,0,0,0,0,0,0,0,0,0,0,0,0,0,0,0,0,0,0,0,0,0,0,0,0,0,0,0,0,0,0,0,0,0,0,0,0,0,0,0,0,0,0,0],"sum_hessian":[2.2541603E2,5.9645495E0,2.1945149E2,1.0232182E0,4.941331E0,1.3998157E2,7.9469925E1,2.8390675E1,1.1159089E2,5.5398922E1,2.4071005E1,1.1333794E1,1.7056879E1,3.0564835E0,1.085344E2,4.843714E1,6.961779E0,6.532928E0,1.7538076E1,1.1030513E0,1.0230742E1,1.1616373E1,5.440506E0,1.3566276E0,1.6998559E0,4.6557156E1,6.1977245E1,2.5442612E1,2.2994532E1,2.4168582E0,4.5449204E0,2.390871E0,4.142057E0,1.1912304E1,5.6257725E0,7.5392833E0,2.6914594E0,1.6172838E0,9.999089E0,3.9165342E0,1.523972E0,2.7830301E1,1.8726856E1,3.5773103E0,5.8399937E1,1.7253048E1,8.189563E0,5.3285856E0,1.7665945E1,1.0482905E0,1.3685678E0,2.7458823E0,1.3961748E0,1.0903082E1,1.0092219E0,2.64745E0,2.9783227E0],"tree_param":{"num_deleted":"0","num_feature":"9","num_nodes":"57","size_leaf_vector":"1"}},{"base_weights":[-6.263506E-2,-2.6063412E-2,-2.5646868E-1,-5.133897E-3,-5.248882E-1,-3.851543E-1,1.4242345E-1,