{"learner":{"attributes":{"scikit_learn":"{\"_estimator_type\": \"classifier\"}"},"feature_names":["mcc","hour_of_day","amount","vulnerability_score1","vulnerability_score2","vulnerability_score3","vulnerability_score4","vulnerability_score5","merch_risk_score","merch_cpp_score"],"feature_types":["int","int","float","float","float","float","float","float","int","float"],"gradient_booster":{"model":{"gbtree_model_param":{"num_parallel_tree":"1","num_trees":"100"},"iteration_indptr":[0,1,2,3,4,5,6,7,8,9,10,11,12,13,14,15,16,17,18,19,20,21,22,23,24,25,26,27,28,29,30,31,32,33,34,35,36,37,38,39,40,41,42,43,44,45,46,47,48,49,50,51,52,53,54,55,56,57,58,59,60,61,62,63,64,65,66,67,68,69,70,71,72,73,74,75,76,77,78,79,80,81,82,83,84,85,86,87,88,89,90,91,92,93,94,95,96,97,98,99,100],"tree_info":[0,0,0,0,0,0,0,0,0,0,0,0,0,0,0,0,0,0,0,0,0,0,0,0,0,0,0,0,0,0,0,0,0,0,0,0,0,0,0,0,0,0,0,0,0,0,0,0,0,0,0,0,0,0,0,0,0,0,0,0,0,0,0,0,0,0,0,0,0,0,0,0,0,0,0,0,0,0,0,0,0,0,0,0,0,0,0,0,0,0,0,0,0,0,0,0,0,0,0,0],"trees":[{"base_weights":[-1.1292597E0],"categories":[],"categories_nodes":[],"categories_segments":[],"categories_sizes":[],"default_left":[0],"id":0,"left_children":[-1],"loss_changes":[0E0],"parents":[2147483647],"right_children":[-1],"split_conditions":[-3.3877793E-1],"split_indices":[0],"split_type":[0],"sum_hessian":[3.417663E4],"tree_param":{"num_deleted":"0","num_feature":"10","num_nodes":"1","size_leaf_vector":"1"}},{"base_weights":[-1.0882792E0,-3.2673272E-1,-1.015004E0,-3.240366E-1,-9.0652144E-1,-5.421322E-1,-9.614694E-1,2.5725213E-1,-7.293943E-1,-9.78653E-1,6.5088207E-3,-2.937733E-1,-2.961275E-1,-2.3946476E-1,-1.004531E0,1.6573739E-1,-2.146994E-1,-2.4089234E-1,2.7190164E-1,-1.0183876E-1,-3.0394995E-1],"categories":[],"categories_nodes":[],"categories_segments":[],"categories_sizes":[],"default_left":[0,0,0,0,0,0,0,0,0,0,0,0,0,0,0,0,0,0,0,0,0],"id":1,"left_children":[1,-1,3,-1,5,7,9,-1,11,13,-1,15,-1,17,19,-1,-1,-1,-1,-1,-1],"loss_changes":[4.8046875E-1,0E0,1.1907959E0,0E0,1.9103546E0,5.3973083E0,1.7822647E0,0E0,1.5733042E0,1.7195358E0,0E0,3.106227E0,0E0,3.813393E0,2.2285461E-1,0E0,0E0,0E0,0E0,0E0,0E0],"parents":[2147483647,0,0,2,2,4,4,5,5,6,6,8,8,9,9,11,11,13,13,14,14],"right_children":[2,-1,4,-1,6,8,10,-1,12,14,-1,16,-1,18,20,-1,-1,-1,-1,-1,-1],"split_conditions":[2.1063E2,-3.2673272E-1,5.094E3,-3.240366E-1,5.311E3,8E-2,9.9E-1,2.5725213E-1,1.3E1,5E-2,6.5088207E-3,3E-1,-2.961275E-1,8.2E-1,2E-2,1.6573739E-1,-2.146994E-1,-2.4089234E-1,2.7190164E-1,-1.0183876E-1,-3.0394995E-1],"split_indices":[2,0,0,0,0,7,3,0,1,5,0,4,0,7,3,0,0,0,0,0,0],"split_type":[0,0,0,0,0,0,0,0,0,0,0,0,0,0,0,0,0,0,0,0,0],"sum_hessian":[2.6118443E4,2.581227E4,3.0617477E2,1.8573102E2,1.2044375E2,1.720625E1,1.032375E2,1.6080607E0,1.5598189E1,1.01468636E2,1.7688668E0,6.593049E0,9.00514E0,3.7789428E0,9.768969E1,2.090479E0,4.50257E0,2.7337034E0,1.0452394E0,1.7688668E0,9.592082E1],"tree_param":{"num_deleted":"0","num_feature":"10","num_nodes":"21","size_leaf_vector":"1"}},{"base_weights":[-1.0586694E0,-3.1791967E-1,-9.669856E-1,-1.0483403E0,-8.3813024E-1,-4.4676724E-1,-3.1654033E-1,-6.0116935E-1,-9.484003E-1,-1.6372599E-2,-1.8038529E-1,-6.982415E-1,1.9136028E-1,-2.4463492E-2,-9.9018013E-1,-2.7876744E-1,-9.6550554E-1,-2.0440064E-1,2.5166127E-1,-1.0199536E0,-3.2379436E-1,-2.7776945E-1,9.0784125E-2,-3.0434245E-1,-1.958459E-2,-6.567655E-2,-3.1072688E-1,1.1341241E-1,-2.1389306E-1],"categories":[],"categories_nodes":[],"categories_segments":[],"categories_sizes":[],"default_left":[0,0,0,0,0,0,0,0,0,0,0,0,0,0,0,0,0,0,0,0,0,0,0,0,0,0,0,0,0],"id":2,"left_children":[1,-1,3,5,7,9,-1,11,13,-1,-1,15,-1,17,19,21,23,-1,-1,25,27,-1,-1,-1,-1,-1,-1,-1,-1],"loss_changes":[9.042969E-1,0E0,1.620163E0,1.0949707E-1,1.9707031E0,1.6847575E-1,0E0,4.4880867E0,2.4705544E0,0E0,0E0,3.2788372E0,0E0,2.7386394E0,8.9603424E-1,5.4429593E0,7.680435E-1,0E0,0E0,5.1628494E-1,1.3917353E0,0E0,0E0,0E0,0E0,0E0,0E0,0E0,0E0],"parents":[2147483647,0,0,2,2,3,3,4,4,5,5,7,7,8,8,11,11,13,13,14,14,15,15,16,16,19,19,20,20],"right_children":[2,-1,4,6,8,10,-1,12,14,-1,-1,16,-1,18,20,22,24,-1,-1,26,28,-1,-1,-1,-1,-1,-1,-1,-1],"split_conditions":[2.1063E2,-3.1791967E-1,5.094E3,2E-2,5.732E3,1.3E1,-3.1654033E-1,5.712E3,5E-2,-1.6372599E-2,-1.8038529E-1,1.3E1,1.9136028E-1,8.2E-1,9.5E-1,9E0,9.6E-1,-2.0440064E-1,2.5166127E-1,2E-2,1.1E1,-2.7776945E-1,9.0784125E-2,-3.0434245E-1,-1.958459E-2,-6.567655E-2,-3.1072688E-1,1.1341241E-1,-2.1389306E-1],"split_indices":[2,0,0,9,0,1,0,0,5,0,0,1,0,7,6,1,3,0,0,3,1,0,0,0,0,0,0,0,0],"split_type":[0,0,0,0,0,0,0,0,0,0,0,0,0,0,0,0,0,0,0,0,0,0,0,0,0,0,0,0,0],"sum_hessian":[1.9805188E4,1.9567818E4,2.3736998E2,1.4112978E2,9.624021E1,2.3216155E0,1.3880817E2,3.2611877E1,6.3628334E1,1.0386174E0,1.282998E0,3.0647285E1,1.9645916E0,2.8213477E0,6.0806988E1,1.2722392E1,1.7924894E1,1.7219803E0,1.0993674E0,5.76985E1,3.1084857E0,5.7403126E0,6.9820795E0,1.6879776E1,1.0451176E0,1.4036077E0,5.629489E1,1.1190549E0,1.9894309E0],"tree_param":{"num_deleted":"0","num_feature":"10","num_nodes":"29","size_leaf_vector":"1"}},{"base_weights":[-1.0360953E0,-3.112417E-1,-9.2126304E-1,-1.0229445E0,-7.707867E-1,-4.0178663E-1,-3.0947495E-1,-3.6164656E-1,-8.463458E-1,-9.99564E-3,-1.6822791E-1,1.7401454E-1,-2.729574E-1,-8.718372E-1,4.4061314E-2,-2.2569375E-1,6.907705E-1,-1.5179214E-1,-9.083426E-1,4.0423185E-1,-5.053221E-2,-2.1965586E-1,2.2845629E-1,-1.358098E-1,-2.8399247E-1],"categories":[],"categories_nodes":[],"categories_segments":[],"categories_sizes":[],"default_left":[0,0,0,0,0,0,0,0,0,0,0,0,0,0,0,0,0,0,0,0,0,0,0,0,0],"id":3,"left_children":[1,-1,3,5,7,9,-1,11,13,-1,-1,15,-1,17,-1,-1,19,21,23,-1,-1,-1,-1,-1,-1],"loss_changes":[1.4072266E0,0E0,2.0576782E0,1.6477203E-1,2.1382103E0,1.6399592E-1,0E0,4.290571E0,1.7989464E0,0E0,0E0,4.3284693E0,0E0,1.5572243E0,0E0,0E0,3.4028585E0,2.8434634E0,6.3900375E-1,0E0,0E0,0E0,0E0,0E0,0E0],"parents":[2147483647,0,0,2,2,3,3,4,4,5,5,7,7,8,8,11,11,13,13,16,16,17,17,18,18],"right_children":[2,-1,4,6,8,10,-1,12,14,-1,-1,16,-1,18,-1,-1,20,22,24,-1,-1,-1,-1,-1,-1],"split_conditions":[2.1063E2,-3.112417E-1,5.094E3,2E-2,5.311E3,3.64E3,-3.0947495E-1,1.3E1,9.9E-1,-9.99564E-3,-1.6822791E-1,9E0,-2.729574E-1,5E-2,4.4061314E-2,-2.2569375E-1,4.8E-1,8.5E-1,8E-2,4.0423185E-1,-5.053221E-2,-2.1965586E-1,2.2845629E-1,-1.358098E-1,-2.8399247E-1],"split_indices":[2,0,0,9,0,0,0,1,3,0,0,1,0,5,0,0,5,7,3,0,0,0,0,0,0],"split_type":[0,0,0,0,0,0,0,0,0,0,0,0,0,0,0,0,0,0,0,0,0,0,0,0,0],"sum_hessian":[1.4943243E4,1.4758228E4,1.850159E2,1.069491E2,7.80668E1,2.1186557E0,1.04830444E2,1.30717325E1,6.499507E1,1.0031474E0,1.1155083E0,6.9567866E0,6.114946E0,6.348783E1,1.5072402E0,2.3279357E0,4.628851E0,3.3123343E0,6.0175495E1,2.3015885E0,2.3272624E0,2.1465554E0,1.1657789E0,5.6598854E0,5.451561E1],"tree_param":{"num_deleted":"0","num_feature":"10","num_nodes":"25","size_leaf_vector":"1"}},{"base_weights":[-1.0177214E0,-1.0195143E0,-8.7430406E-1,-5.74517E-1,-3.0590573E-1,-1.0008134E0,-7.011898E-1,1.3617551E-1,-2.5486398E-1,-1.0850679E-1,-3.035747E-1,-6.7870565E-2,-7.6530445E-1,3.0834618E-1,-5.2361995E-1,-7.921159E-1,5.248009E-2,8.037121E-2,-2.4251536E-1,-2.8943437E-1,-8.519249E-1,6.665768E-2,-2.449954E-1,-1.9362798E-1,-2.84457E-1],"categories":[],"categories_nodes":[],"categories_segments":[],"categories_sizes":[],"default_left":[0,0,0,0,0,0,0,0,0,0,0,0,0,0,0,0,0,0,0,0,0,0,0,0,0],"id":4,"left_children":[1,3,5,7,-1,9,11,-1,-1,-1,-1,13,15,-1,17,19,-1,-1,-1,21,23,-1,-1,-1,-1],"loss_changes":[1.9980469E0,2.607422E-1,2.491661E0,2.242411E0,0E0,2.151947E-1,2.5836182E0,0E0,0E0,0E0,0E0,4.0657697E0,1.6219559E0,0E0,1.4904114E0,1.4789238E0,0E0,0E0,0E0,2.236062E0,3.9735794E-1,0E0,0E0,0E0,0E0],"parents":[2147483647,0,0,1,1,2,2,3,3,5,5,6,6,11,11,12,12,14,14,15,15,19,19,20,20],"right_children":[2,4,6,8,-1,10,12,-1,-1,-1,-1,14,16,-1,18,20,-1,-1,-1,22,24,-1,-1,-1,-1],"split_conditions":[2.1063E2,3.256E3,5.094E3,2.5E-1,-3.0590573E-1,2E-2,9E-2,1.3617551E-1,-2.5486398E-1,-1.0850679E-1,-3.035747E-1,1.8E-1,9.9E-1,3.0834618E-1,5.311E3,1.1E-1,5.248009E-2,8.037121E-2,-2.4251536E-1,7.802E3,5.719E3,6.665768E-2,-2.449954E-1,-1.9362798E-1,-2.84457E-1],"split_indices":[2,0,0,7,0,9,7,0,0,0,0,3,3,0,0,5,0,0,0,0,0,0,0,0,0],"split_type":[0,0,0,0,0,0,0,0,0,0,0,0,0,0,0,0,0,0,0,0,0,0,0,0,0],"sum_hessian":[1.1240611E4,1.1095797E4,1.4481499E2,5.5645576E0,1.1090232E4,8.090766E1,6.3907326E1,1.036874E0,4.5276833E0,1.9547925E0,7.895287E1,6.0641994E0,5.7843124E1,1.4126768E0,4.6515226E0,5.639259E1,1.4505349E0,1.246366E0,3.4051569E0,6.617047E0,4.9775543E1,3.651795E0,2.965252E0,1.827611E1,3.1499434E1],"tree_param":{"num_deleted":"0","num_feature":"10","num_nodes":"25","size_leaf_vector":"1"}},{"base_weights":[-1.0014813E0,-1.003851E0,-8.2173246E-1,-5.041687E-1,-1.0040752E0,-9.796126E-1,-6.255497E-1,1.3930728E-1,-2.4343438E-1,-3.0184138E-1,-9.4011486E-1,-9.3723215E-2,-2.9821053E-1,-4.0922764E-1,-8.7523687E-1,-3.4870017E-1,-9.5290965E-1,4.682715E-1,-5.3982013E-1,-9.432997E-1,-2.781359E-1,-2.3133816E-1,1.1563435E-1,-9.5629215E-1,-4.041281E-2,-1.0349291E-1,3.5730392E-1,9.126205E-2,-6.2955797E-1,-5.4057103E-2,-2.9600242E-1,-2.0585312E-1,1.3350758E-1,-1.6768987E-1,1.6236216E-1,-2.8789228E-1,-6.7866094E-2,2.9583475E-1,-2.1186934E-1,-7.5715825E-2,-2.5017744E-1],"categories":[],"categories_nodes":[],"categories_segments":[],"categories_sizes":[],"default_left":[0,0,0,0,0,0,0,0,0,0,0,0,0,0,0,0,0,0,0,0,0,0,0,0,0,0,0,0,0,0,0,0,0,0,0,0,0,0,0,0,0],"id":5,"left_children":[1,3,5,7,9,11,13,-1,-1,-1,15,-1,-1,17,19,21,23,25,27,29,31,-1,33,35,-1,-1,-1,37,39,-1,-1,-1,-1,-1,-1,-1,-1,-1,-1,-1,-1],"loss_changes":[2.7734375E0,4.267578E-1,2.9612732E0,2.0857124E0,1.5234375E-1,2.8770828E-1,2.5704708E0,0E0,0E0,0E0,1.7511597E0,0E0,0E0,3.7971764E0,7.248478E-1,1.5421451E0,6.1543274E-1,3.0806694E0,1.6084647E0,5.30138E-1,1.457286E0,0E0,1.5652454E0,4.3728638E-1,0E0,0E0,0E0,3.7529283E0,1.647542E0,0E0,0E0,0E0,0E0,0E0,0E0,0E0,0E0,0E0,0E0,0E0,0E0],"parents":[2147483647,0,0,1,1,2,2,3,3,4,4,5,5,6,6,10,10,13,13,14,14,15,15,16,16,17,17,18,18,19,19,20,20,22,22,23,23,27,27,28,28],"right_children":[2,4,6,8,10,12,14,-1,-1,-1,16,-1,-1,18,20,22,24,26,28,30,32,-1,34,36,-1,-1,-1,38,40,-1,-1,-1,-1,-1,-1,-1,-1,-1,-1,-1,-1],"split_conditions":[2.1063E2,3.256E3,5.094E3,2E-1,7.542E3,2E-2,1.4E1,1.3930728E-1,-2.4343438E-1,-3.0184138E-1,7.02E0,-9.3723215E-2,-2.9821053E-1,9E-2,8.9E-1,7.922E3,1E0,6.5E-1,1.1E-1,5E-2,7E-1,-2.3133816E-1,9E0,1E0,-4.041281E-2,-1.0349291E-1,3.5730392E-1,5.5E-1,5.732E3,-5.4057103E-2,-2.9600242E-1,-2.0585312E-1,1.3350758E-1,-1.6768987E-1,1.6236216E-1,-2.8789228E-1,-6.7866094E-2,2.9583475E-1,-2.1186934E-1,-7.5715825E-2,-2.5017744E-1],"split_indices":[2,0,0,7,0,9,1,0,0,0,2,0,0,7,7,0,4,4,5,6,3,0,1,9,0,0,0,9,0,0,0,0,0,0,0,0,0,0,0,0,0],"split_type":[0,0,0,0,0,0,0,0,0,0,0,0,0,0,0,0,0,0,0,0,0,0,0,0,0,0,0,0,0,0,0,0,0,0,0,0,0,0,0,0,0],"sum_hessian":[8.44314E3,8.328747E3,1.1439198E2,4.7421527E0,8.324005E3,6.1170795E1,5.322119E1,1.019032E0,3.7231205E0,8.049673E3,2.7433224E2,1.7738076E0,5.9396988E1,2.9929802E1,2.3291388E1,6.407571E0,2.6792465E2,3.5422657E0,2.6387537E1,2.0387627E1,2.9037619E0,3.0092235E0,3.3983474E0,2.6665353E2,1.2711376E0,1.9127135E0,1.6295521E0,3.2829773E0,2.3104559E1,1.3737144E0,1.9013912E1,1.8890272E0,1.0147345E0,1.1933128E0,2.2050345E0,2.65123E2,1.5305533E0,1.4355979E0,1.8473796E0,8.904924E0,1.41996355E1],"tree_param":{"num_deleted":"0","num_feature":"10","num_nodes":"41","size_leaf_vector":"1"}},{"base_weights":[-9.858148E-1,-9.889143E-1,-7.6566595E-1,-4.3757474E-1,-9.892072E-1,-9.5760167E-1,-5.5229414E-1,1.373082E-1,-2.3210114E-1,-2.9757553E-1,-9.0700096E-1,-8.067855E-2,-2.928823E-1,-3.4012935E-1,-8.269369E-1,-3.0851725E-1,-9.230055E-1,-1.267455E-1,-2.6883882E-1,-2.8835362E-1,-3.473159E-1,1.4022025E-1,-5.199446E-1,-9.2728984E-1,-3.4480598E-2,2.0889606E-1,-5.3747207E-1,1.4021644E-1,-6.141379E-1,-2.4557845E-1,1.3714188E-1,-2.794596E-1,-5.8131352E-2,3.5736066E-1,-1.39727015E-2,1.2020414E-1,-2.0978867E-1,-2.2918265E-1,-7.7690086E-3],"categories":[],"categories_nodes":[],"categories_segments":[],"categories_sizes":[],"default_left":[0,0,0,0,0,0,0,0,0,0,0,0,0,0,0,0,0,0,0,0,0,0,0,0,0,0,0,0,0,0,0,0,0,0,0,0,0,0,0],"id":6,"left_children":[1,3,5,7,9,11,13,-1,-1,-1,15,-1,-1,17,19,21,23,25,-1,-1,27,-1,29,31,-1,33,35,-1,37,-1,-1,-1,-1,-1,-1,-1,-1,-1,-1],"loss_changes":[3.5703125E0,5.761719E-1,3.2589035E0,1.8923422E0,4.9316406E-1,3.460579E-1,2.4085464E0,0E0,0E0,0E0,1.7376099E0,0E0,0E0,3.1777349E0,9.1651726E-1,1.3915758E0,6.036072E-1,3.036559E0,0E0,0E0,1.5505874E0,0E0,2.1178708E0,4.5401E-1,0E0,3.1656058E0,1.7708836E0,0E0,4.0414262E-1,0E0,0E0,0E0,0E0,0E0,0E0,0E0,0E0,0E0,0E0],"parents":[2147483647,0,0,1,1,2,2,3,3,4,4,5,5,6,6,10,10,13,13,14,14,15,15,16,16,17,17,20,20,22,22,23,23,25,25,26,26,28,28],"right_children":[2,4,6,8,10,12,14,-1,-1,-1,16,-1,-1,18,20,22,24,26,-1,-1,28,-1,30,32,-1,34,36,-1,38,-1,-1,-1,-1,-1,-1,-1,-1,-1,-1],"split_conditions":[2.1063E2,3.256E3,5.094E3,1.6E-1,7.542E3,2E-2,1.4E1,1.373082E-1,-2.3210114E-1,-2.9757553E-1,7.02E0,-8.067855E-2,-2.928823E-1,8.011E3,7.6E-1,1.4E-1,1E0,5.2E-1,-2.6883882E-1,-2.8835362E-1,8.2E-1,1.4022025E-1,8.4E-1,1E0,-3.4480598E-2,9E-2,1.1E-1,1.4021644E-1,8E-1,-2.4557845E-1,1.3714188E-1,-2.794596E-1,-5.8131352E-2,3.5736066E-1,-1.39727015E-2,1.2020414E-1,-2.0978867E-1,-2.2918265E-1,-7.7690086E-3],"split_indices":[2,0,0,7,0,9,1,0,0,0,2,0,0,0,3,3,4,5,0,0,3,0,3,9,0,7,3,0,9,0,0,0,0,0,0,0,0,0,0],"split_type":[0,0,0,0,0,0,0,0,0,0,0,0,0,0,0,0,0,0,0,0,0,0,0,0,0,0,0,0,0,0,0,0,0,0,0,0,0,0,0],"sum_hessian":[6.341648E3,6.2501587E3,9.148942E1,4.112191E0,6.2460464E3,4.6327866E1,4.5161552E1,1.0236545E0,3.0885367E0,6.0359087E3,2.1013779E2,1.6295636E0,4.4698303E1,2.6741705E1,1.8419846E1,6.0012255E0,2.0413657E2,2.0212454E1,6.5292525E0,1.3607255E1,4.8125916E0,1.0258312E0,4.9753942E0,2.029132E2,1.2233729E0,1.1393335E1,8.819118E0,1.0018615E0,3.81073E0,3.9348853E0,1.0405091E0,2.0147804E2,1.435142E0,1.5955566E0,9.797778E0,1.0802809E0,7.7388372E0,2.7991877E0,1.0115424E0],"tree_param":{"num_deleted":"0","num_feature":"10","num_nodes":"39","size_leaf_vector":"1"}},{"base_weights":[-9.692861E-1,-9.733315E-1,-7.041945E-1,-9.768822E-1,-8.6853105E-1,-9.332035E-1,-4.7985145E-1,-5.0085145E-1,-9.7747576E-1,-1.10853225E-1,-8.840132E-1,-6.926423E-2,-2.8715888E-1,-3.0595142E-1,-8.5858434E-1,1.859883E-1,-2.4978028E-1,-9.5628524E-1,-2.9650596E-1,-1.7896293E-1,9.492249E-2,-5.1041E-1,-9.079954E-1,1.0891926E-1,-6.226852E-1,-4.633671E-3,-2.8022385E-1,1.4531678E-1,-4.5416437E-2,6.073182E-1,-9.606178E-1,-7.224111E-1,1.5409565E-1,-9.138922E-1,-1.9850813E-2,-9.506791E-2,3.536859E-1,-7.6361716E-1,2.4517126E-1,-4.246958E-2,4.2060426E-1,-2.982814E-1,-2.7518025E-1,-6.9152312E-3,-2.3931283E-1,-2.7592358E-1,-4.4581152E-2,2.780166E-1,-9.7655825E-2,-1.4671406E-2,-2.445638E-1,-2.1706887E-2,1.3530648E-1],"categories":[],"categories_nodes":[],"categories_segments":[],"categories_sizes":[],"default_left":[0,0,0,0,0,0,0,0,0,0,0,0,0,0,0,0,0,0,0,0,0,0,0,0,0,0,0,0,0,0,0,0,0,0,0,0,0,0,0,0,0,0,0,0,0,0,0,0,0,0,0,0,0],"id":7,"left_children":[1,3,5,7,9,11,13,15,17,19,21,-1,-1,23,25,27,-1,29,-1,-1,-1,31,33,35,37,-1,-1,-1,-1,39,41,43,-1,45,-1,47,-1,49,51,-1,-1,-1,-1,-1,-1,-1,-1,-1,-1,-1,-1,-1,-1],"loss_changes":[4.429199E0,8.984375E-1,3.4211006E0,7.910156E-1,1.8125916E0,3.8910294E-1,2.3782568E0,1.9084477E0,9.814453E-2,1.1028223E0,9.653549E-1,0E0,0E0,3.88299E0,7.5350094E-1,4.0796375E-1,0E0,1.1193359E1,0E0,0E0,0E0,2.9552E0,6.770096E-1,3.0414839E0,2.2191525E0,0E0,0E0,0E0,0E0,3.1386635E0,1.3670654E0,5.2280045E-1,0E0,5.237961E-1,0E0,3.173812E0,0E0,4.961338E-1,2.3381513E-1,0E0,0E0,0E0,0E0,0E0,0E0,0E0,0E0,0E0,0E0,0E0,0E0,0E0,0E0],"parents":[2147483647,0,0,1,1,2,2,3,3,4,4,5,5,6,6,7,7,8,8,9,9,10,10,13,13,14,14,15,15,17,17,21,21,22,22,23,23,24,24,29,29,30,30,31,31,33,33,35,35,37,37,38,38],"right_children":[2,4,6,8,10,12,14,16,18,20,22,-1,-1,24,26,28,-1,30,-1,-1,-1,32,34,36,38,-1,-1,-1,-1,40,42,44,-1,46,-1,48,-1,50,52,-1,-1,-1,-1,-1,-1,-1,-1,-1,-1,-1,-1,-1,-1],"split_conditions":[2.1063E2,7.542E3,5.094E3,3.387E3,4.41E0,2E-2,7.995E3,3.3E-1,5.411E3,7.922E3,7E-2,-6.926423E-2,-2.8715888E-1,1.2E1,8E-2,4.6E-1,-2.4978028E-1,1.06E0,-2.9650596E-1,-1.7896293E-1,9.492249E-2,6E-2,1E0,9.1E-1,8.9E-1,-4.633671E-3,-2.8022385E-1,1.4531678E-1,-4.5416437E-2,5.9E-1,5.094E3,1.481E1,1.5409565E-1,1E0,-1.9850813E-2,1E-1,3.536859E-1,8E-2,5.8E-1,-4.246958E-2,4.2060426E-1,-2.982814E-1,-2.7518025E-1,-6.9152312E-3,-2.3931283E-1,-2.7592358E-1,-4.4581152E-2,2.780166E-1,-9.7655825E-2,-1.4671406E-2,-2.445638E-1,-2.1706887E-2,1.3530648E-1],"split_indices":[2,0,0,0,2,9,0,3,0,0,6,0,0,1,9,6,0,2,0,0,0,6,4,6,7,0,0,0,0,7,0,2,0,9,0,3,0,3,3,0,0,0,0,0,0,0,0,0,0,0,0,0,0],"split_type":[0,0,0,0,0,0,0,0,0,0,0,0,0,0,0,0,0,0,0,0,0,0,0,0,0,0,0,0,0,0,0,0,0,0,0,0,0,0,0,0,0,0,0,0,0,0,0,0,0,0,0,0,0],"sum_hessian":[4.768319E3,4.694014E3,7.430466E1,4.5321416E3,1.6187268E2,3.5206345E1,3.909831E1,6.695969E0,4.525446E3,3.4048102E0,1.5846786E2,1.5139003E0,3.3692444E1,2.8033978E1,1.1064331E1,2.3239448E0,4.372024E0,1.5651892E3,2.9602563E3,1.4080298E0,1.9967803E0,1.0902833E1,1.4756503E2,1.2420813E1,1.5613166E1,1.008284E0,1.0056047E1,1.0019724E0,1.3219724E0,3.9403732E0,1.5612488E3,9.2768955E0,1.6259372E0,1.4645355E2,1.1114771E0,1.1197348E1,1.2234656E0,1.3535272E1,2.0778942E0,2.4517877E0,1.4885855E0,8.665756E2,6.946732E2,1.0286903E0,8.248205E0,1.4514168E2,1.311886E0,1.5046421E0,9.692705E0,1.0424777E0,1.2492793E1,1.0723213E0,1.0055729E0],"tree_param":{"num_deleted":"0","num_feature":"10","num_nodes":"53","size_leaf_vector":"1"}},{"base_weights":[-9.5054924E-1,-9.580908E-1,-7.2107875E-1,-9.62589E-1,-8.086979E-1,-9.3699604E-1,-5.3698105E-1,-7.072151E-1,-9.637968E-1,-5.3728616E-1,-9.089357E-1,-2.3596827E-2,-9.54513E-1,9.312795E-3,-6.8080574E-1,2.6727548E-1,-8.508288E-1,-9.3933064E-1,-9.759523E-1,-6.78045E-3,-7.813013E-1,-8.37453E-2,-2.7964774E-1,-9.648735E-2,-2.9145157E-1,7.816048E-1,-3.4173927E-1,-8.1080776E-1,-4.717666E-2,-1.6077404E-1,-2.8498816E-1,1.2964478E-1,-9.434392E-1,-2.982962E-1,-9.513116E-1,-7.0868975E-1,8.693575E-1,-8.6451024E-1,8.1802316E-2,-1.6756931E-1,1.4245605E-1,-1.6724597E-1,1.3454256E0,1.0974283E-1,-2.5096887E-1,-8.4593624E-1,-1.9967425E-1,2.616349E-1,-3.2947177E-1,1.330608E-1,-1.8050283E-1,-1.6103025E-1,4.2835867E-1,-2.9499936E-1,-2.6855427E-1,-2.117996E-1,-2.90989E-1,-2.4961238E-1,-3.3884703E-3,-5.201282E-2,5.7626575E-1,-4.9015637E-2,-2.8679097E-1,5.783414E-1,6.3391276E-2,2.4199204E-1,-1.2601458E-1,-2.5973794E-1,-1.2490808E-2,1.3064568E-1,-1.8806213E-1,2.5267255E-1,-1.8412036E-1],"categories":[],"categories_nodes":[],"categories_segments":[],"categories_sizes":[],"default_left":[0,0,0,0,0,0,0,0,0,0,0,0,0,0,0,0,0,0,0,0,0,0,0,0,0,0,0,0,0,0,0,0,0,0,0,0,0,0,0,0,0,0,0,0,0,0,0,0,0,0,0,0,0,0,0,0,0,0,0,0,0,0,0,0,0,0,0,0,0,0,0,0,0],"id":8,"left_children":[1,3,5,7,9,11,13,15,17,19,21,-1,23,25,27,-1,29,31,33,35,37,39,-1,-1,-1,41,43,45,47,49,-1,51,53,-1,55,57,59,61,-1,-1,-1,-1,63,65,-1,67,69,-1,71,-1,-1,-1,-1,-1,-1,-1,-1,-1,-1,-1,-1,-1,-1,-1,-1,-1,-1,-1,-1,-1,-1,-1,-1],"loss_changes":[5.531494E0,1.5585938E0,4.205265E0,3.5839844E-1,2.4477005E0,7.2439194E-1,5.2139244E0,5.262269E0,8.0322266E-2,4.079282E0,1.4045906E0,0E0,2.4695587E-1,4.279453E0,4.2846565E0,0E0,1.1140528E0,5.126587E0,5.6396484E-2,7.349786E0,2.1303482E0,1.1183504E0,0E0,0E0,0E0,4.471592E0,2.5202775E0,7.6460457E-1,2.881422E0,1.2073706E0,0E0,5.301393E0,1.3052368E0,0E0,3.7476807E0,5.60961E-1,6.165609E0,1.1431274E0,0E0,0E0,0E0,0E0,2.0771585E0,2.7638445E0,0E0,6.157379E-1,1.2695123E0,0E0,3.3058796E0,0E0,0E0,0E0,0E0,0E0,0E0,0E0,0E0,0E0,0E0,0E0,0E0,0E0,0E0,0E0,0E0,0E0,0E0,0E0,0E0,0E0,0E0,0E0,0E0],"parents":[2147483647,0,0,1,1,2,2,3,3,4,4,5,5,6,6,7,7,8,8,9,9,10,10,12,12,13,13,14,14,16,16,17,17,18,18,19,19,20,20,21,21,25,25,26,26,27,27,28,28,29,29,31,31,32,32,34,34,35,35,36,36,37,37,42,42,43,43,45,45,46,46,48,48],"right_children":[2,4,6,8,10,12,14,16,18,20,22,-1,24,26,28,-1,30,32,34,36,38,40,-1,-1,-1,42,44,46,48,50,-1,52,54,-1,56,58,60,62,-1,-1,-1,-1,64,66,-1,68,70,-1,72,-1,-1,-1,-1,-1,-1,-1,-1,-1,-1,-1,-1,-1,-1,-1,-1,-1,-1,-1,-1,-1,-1,-1,-1],"split_conditions":[1.6649E2,7.832E3,5.094E3,3.509E3,1.2E1,3E-2,5.311E3,4.505E1,5.411E3,8.011E3,7.02E0,-2.3596827E-2,2E-2,3E-1,2.9142E2,2.6727548E-1,1.3E-1,1.06E0,5.651E3,9E0,9.5E-1,3.66E0,-2.7964774E-1,-9.648735E-2,-2.9145157E-1,2.8E-1,4.9E-1,9.5E-1,5.732E3,3.8E-1,-2.8498816E-1,7.8E-1,5.094E3,-2.982962E-1,5.812E3,1.2233E2,6E0,1.4E-1,8.1802316E-2,-1.6756931E-1,1.4245605E-1,-1.6724597E-1,5.4E-1,4E0,-2.5096887E-1,9.9E-1,9.7E-1,2.616349E-1,5E-2,1.330608E-1,-1.8050283E-1,-1.6103025E-1,4.2835867E-1,-2.9499936E-1,-2.6855427E-1,-2.117996E-1,-2.90989E-1,-2.4961238E-1,-3.3884703E-3,-5.201282E-2,5.7626575E-1,-4.9015637E-2,-2.8679097E-1,5.783414E-1,6.3391276E-2,2.4199204E-1,-1.2601458E-1,-2.5973794E-1,-1.2490808E-2,1.3064568E-1,-1.8806213E-1,2.5267255E-1,-1.8412036E-1],"split_indices":[2,0,0,0,1,6,0,2,0,0,2,0,9,4,2,0,4,2,0,1,9,2,0,0,0,6,7,6,0,3,0,9,0,0,0,2,8,4,0,0,0,0,3,8,0,3,6,0,5,0,0,0,0,0,0,0,0,0,0,0,0,0,0,0,0,0,0,0,0,0,0,0,0],"split_type":[0,0,0,0,0,0,0,0,0,0,0,0,0,0,0,0,0,0,0,0,0,0,0,0,0,0,0,0,0,0,0,0,0,0,0,0,0,0,0,0,0,0,0,0,0,0,0,0,0,0,0,0,0,0,0,0,0,0,0,0,0,0,0,0,0,0,0,0,0,0,0,0,0],"sum_hessian":[3.5945764E3,3.4771252E3,1.1745106E2,3.3702048E3,1.0692045E2,5.2171974E1,6.527908E1,1.8625172E1,3.3515796E3,3.0552984E1,7.636746E1,1.1532323E0,5.101874E1,1.3799448E1,5.1479633E1,1.1066629E0,1.7518509E1,1.1384407E3,2.213139E3,9.949619E0,2.0603367E1,2.2164655E0,7.415099E1,1.8550135E0,4.916373E1,3.929136E0,9.870312E0,4.248362E1,8.996013E0,2.5298762E0,1.4988632E1,4.241835E0,1.1341989E3,1.2454045E3,9.6773444E2,5.630178E0,4.319441E0,1.9262407E1,1.3409593E0,1.1981112E0,1.0183544E0,1.1675067E0,2.7616293E0,5.56812E0,4.3021917E0,3.981104E1,2.672581E0,1.6226103E0,7.3734026E0,1.0646584E0,1.465218E0,3.1905625E0,1.0512724E0,6.10316E2,5.238829E2,7.112537E1,8.966091E2,4.6199546E0,1.0102233E0,2.5881035E0,1.7313374E0,2.5443056E0,1.6718102E1,1.3622715E0,1.3993578E0,2.1791131E0,3.3890069E0,3.8777237E1,1.033802E0,1.0669074E0,1.6056734E0,1.056339E0,6.317064E0],"tree_param":{"num_deleted":"0","num_feature":"10","num_nodes":"73","size_leaf_vector":"1"}},{"base_weights":[-9.283787E-1,-9.3807626E-1,-6.5592295E-1,-9.439106E-1,-7.551694E-1,-9.1141605E-1,-4.621059E-1,-9.0976393E-1,-9.614227E-1,-4.6864513E-1,-8.7530124E-1,-4.5419517E-3,-9.338036E-1,-8.787893E-4,-6.093637E-1,3.6823285E-1,-9.1715455E-1,-2.9571515E-1,-9.292621E-1,-2.2744011E-2,-7.247456E-1,-3.55068E-2,-9.051896E-1,-7.790303E-2,-2.8675908E-1,2.738699E-1,-2.31672E-1,-7.553335E-1,-1.810198E-2,-1.1820032E-1,3.4489012E-1,-9.6607983E-1,-8.575826E-1,-6.346969E-1,-9.535423E-1,-6.52761E-1,5.27574E-1,-8.229043E-1,6.414354E-2,-1.5435931E-1,1.3759346E-1,-4.142345E-2,-9.2027223E-1,7.454484E-1,-2.0147192E-1,-7.962614E-1,-1.7085588E-1,-4.049284E-1,5.796712E-1,-2.1437378E-1,2.6500356E-1,-1.2113989E-1,-2.9097438E-1,5.195536E-1,-2.6086766E-1,5.8912583E-2,-2.1373874E-1,-2.8717238E-1,-1.9158705E-1,-2.3777178E-3,-2.3738572E-1,3.618552E-1,-7.174515E-2,-4.0047545E-2,-2.8073815E-1,-1.7139354E-1,-2.9027689E-1,-1.8209079E-1,3.7752625E-1,1.8532176E-1,-1.8587875E-1,-2.6069424E-1,-9.0414196E-2,-1.8019067E-1,1.2599893E-1,1.3338107E-1,-1.9513454E-1,2.95912E-1,-5.4574877E-2],"categories":[],"categories_nodes":[],"categories_segments":[],"categories_sizes":[],"default_left":[0,0,0,0,0,0,0,0,0,0,0,0,0,0,0,0,0,0,0,0,0,0,0,0,0,0,0,0,0,0,0,0,0,0,0,0,0,0,0,0,0,0,0,0,0,0,0,0,0,0,0,0,0,0,0,0,0,0,0,0,0,0,0,0,0,0,0,0,0,0,0,0,0,0,0,0,0,0,0],"id":9,"left_children":[1,3,5,7,9,11,13,15,17,19,21,-1,23,25,27,29,31,-1,33,35,37,39,41,-1,-1,43,-1,45,47,49,-1,51,53,55,57,59,61,63,-1,-1,-1,-1,65,67,69,71,73,75,77,-1,-1,-1,-1,-1,-1,-1,-1,-1,-1,-1,-1,-1,-1,-1,-1,-1,-1,-1,-1,-1,-1,-1,-1,-1,-1,-1,-1,-1,-1],"loss_changes":[6.578125E0,2.090088E0,4.3770676E0,6.4501953E-1,2.5566673E0,8.0392456E-1,3.8795233E0,8.650818E0,3.828125E-1,3.1370802E0,1.4632988E0,0E0,3.4305954E-1,3.3537266E0,3.7234612E0,2.3306134E0,1.7228394E0,0E0,4.6358643E0,4.1952605E0,1.7889671E0,9.6703815E-1,5.380974E-1,0E0,0E0,2.7663364E0,0E0,6.940975E-1,2.4541113E0,3.2984645E0,0E0,6.27655E-1,1.4023315E1,3.9396324E0,1.7492676E-1,4.9622583E-1,3.660818E0,1.1247578E0,0E0,0E0,0E0,0E0,3.7526703E-1,4.9758635E0,2.6432765E0,8.9540863E-1,1.1522717E0,1.6274017E0,1.4747946E0,0E0,0E0,0E0,0E0,0E0,0E0,0E0,0E0,0E0,0E0,0E0,0E0,0E0,0E0,0E0,0E0,0E0,0E0,0E0,0E0,0E0,0E0,0E0,0E0,0E0,0E0,0E0,0E0,0E0,0E0],"parents":[2147483647,0,0,1,1,2,2,3,3,4,4,5,5,6,6,7,7,8,8,9,9,10,10,12,12,13,13,14,14,15,15,16,16,18,18,19,19,20,20,21,21,22,22,25,25,27,27,28,28,29,29,31,31,32,32,33,33,34,34,35,35,36,36,37,37,42,42,43,43,44,44,45,45,46,46,47,47,48,48],"right_children":[2,4,6,8,10,12,14,16,18,20,22,-1,24,26,28,30,32,-1,34,36,38,40,42,-1,-1,44,-1,46,48,50,-1,52,54,56,58,60,62,64,-1,-1,-1,-1,66,68,70,72,74,76,78,-1,-1,-1,-1,-1,-1,-1,-1,-1,-1,-1,-1,-1,-1,-1,-1,-1,-1,-1,-1,-1,-1,-1,-1,-1,-1,-1,-1,-1,-1],"split_conditions":[1.6649E2,7.832E3,5.094E3,5.411E3,1.2E1,3.009E3,5.311E3,1.06E0,5.651E3,8.011E3,4E-2,-4.5419517E-3,2E-2,1.6E1,2.9142E2,8.3E-1,5.094E3,-2.9571515E-1,5.812E3,9E0,9.5E-1,4.8E-1,4.41E0,-7.790303E-2,-2.8675908E-1,5E-1,-2.31672E-1,9.5E-1,6.8E-1,7.3E-1,3.4489012E-1,3.387E3,5.192E3,2.471E1,9.9E-1,1.9E-1,1.1E1,1.4E-1,6.414354E-2,-1.5435931E-1,1.3759346E-1,-4.142345E-2,1.6E-1,3E-1,8E-2,8.5E-1,2.1063E2,1.1E-1,1.4E1,-2.1437378E-1,2.6500356E-1,-1.2113989E-1,-2.9097438E-1,5.195536E-1,-2.6086766E-1,5.8912583E-2,-2.1373874E-1,-2.8717238E-1,-1.9158705E-1,-2.3777178E-3,-2.3738572E-1,3.618552E-1,-7.174515E-2,-4.0047545E-2,-2.8073815E-1,-1.7139354E-1,-2.9027689E-1,-1.8209079E-1,3.7752625E-1,1.8532176E-1,-1.8587875E-1,-2.6069424E-1,-9.0414196E-2,-1.8019067E-1,1.2599893E-1,1.3338107E-1,-1.9513454E-1,2.95912E-1,-5.4574877E-2],"split_indices":[2,0,0,0,1,0,0,2,0,0,6,0,9,1,2,9,0,0,0,1,9,4,2,0,0,4,0,6,4,3,0,0,0,2,6,6,1,4,0,0,0,0,7,3,7,5,2,3,1,0,0,0,0,0,0,0,0,0,0,0,0,0,0,0,0,0,0,0,0,0,0,0,0,0,0,0,0,0,0],"split_type":[0,0,0,0,0,0,0,0,0,0,0,0,0,0,0,0,0,0,0,0,0,0,0,0,0,0,0,0,0,0,0,0,0,0,0,0,0,0,0,0,0,0,0,0,0,0,0,0,0,0,0,0,0,0,0,0,0,0,0,0,0,0,0,0,0,0,0,0,0,0,0,0,0,0,0,0,0,0,0],"sum_hessian":[2.7215095E3,2.6256123E3,9.589714E1,2.540418E3,8.519451E1,3.9769638E1,5.6127506E1,8.791404E2,1.6612775E3,2.6615486E1,5.8579025E1,1.0100235E0,3.8759613E1,1.3826715E1,4.230079E1,4.774087E0,8.743663E2,9.2948456E2,7.317929E2,1.0106933E1,1.6508554E1,2.0883753E0,5.6490646E1,1.6328541E0,3.712676E1,1.0670852E1,3.1558642E0,3.3702797E1,8.59799E0,3.4654977E0,1.3085889E0,4.717279E2,4.026384E2,5.779307E1,6.739998E2,4.625453E0,5.4814796E0,1.5057043E1,1.4515115E0,1.0394778E0,1.0488975E0,1.2850884E0,5.520556E1,5.071383E0,5.599468E0,3.1158575E1,2.5442235E0,5.4158998E0,3.1820903E0,2.3516881E0,1.1138096E0,3.9154277E0,4.6781247E2,1.192507E0,4.014459E2,4.814609E0,5.2978462E1,6.6415936E2,9.840472E0,1.0048894E0,3.6205635E0,2.6037743E0,2.877705E0,2.4257247E0,1.2631318E1,8.152894E0,4.7052666E1,1.3442136E0,3.7271695E0,1.7308621E0,3.8686063E0,2.6507534E1,4.6510406E0,1.4632865E0,1.080937E0,1.0324886E0,4.3834114E0,1.8819427E0,1.3001477E0],"tree_param":{"num_deleted":"0","num_feature":"10","num_nodes":"79","size_leaf_vector":"1"}},{"base_weights":[-9.0154415E-1,-9.1372436E-1,-5.9097743E-1,-9.211892E-1,-6.9631773E-1,-8.807903E-1,-3.9874074E-1,-8.7745374E-1,-9.439715E-1,-4.6123666E-1,-8.776824E-1,-3.8672294E-3,-9.089777E-1,-4.4314733E-1,2.239495E-1,1.456424E-1,-8.8935083E-1,-2.9279E-1,-9.023751E-1,2.0826973E-2,-7.612784E-1,-8.041782E-3,-9.004125E-1,-6.68617E-2,-2.8116032E-1,-4.992987E-1,5.560684E-1,8.0379105E-1,-4.39368E-1,-9.4992894E-1,-8.175922E-1,-5.5871063E-1,-9.336713E-1,3.732778E-1,-2.015436E-1,-8.439397E-1,4.7353534E-3,-4.7311556E-1,-2.9241735E-1,-3.3436292E-1,-7.8908795E-1,2.8473043E-1,-2.6582753E-2,-9.2694946E-2,5.180719E-1,1.4504455E-1,-2.3293766E-1,-1.02885306E-1,-2.8649092E-1,3.007966E-1,-2.497396E-1,1.0613366E-1,-1.904206E-1,-1.6417862E-1,-2.8155926E-1,-1.8602517E-1,1.1912521E-1,-8.679578E-2,-2.8233856E-1,-2.4914357E-1,1.2693118E-1,-1.2803303E-1,2.3633139E-1,-8.606229E-2,-2.8226736E-1],"categories":[],"categories_nodes":[],"categories_segments":[],"categories_sizes":[],"default_left":[0,0,0,0,0,0,0,0,0,0,0,0,0,0,0,0,0,0,0,0,0,0,0,0,0,0,0,0,0,0,0,0,0,0,0,0,0,0,0,0,0,0,0,0,0,0,0,0,0,0,0,0,0,0,0,0,0,0,0,0,0,0,0,0,0],"id":10,"left_children":[1,3,5,7,9,11,13,15,17,19,21,-1,23,25,-1,27,29,-1,31,33,35,-1,37,-1,-1,39,41,43,45,47,49,51,53,-1,55,57,-1,59,-1,61,63,-1,-1,-1,-1,-1,-1,-1,-1,-1,-1,-1,-1,-1,-1,-1,-1,-1,-1,-1,-1,-1,-1,-1,-1],"loss_changes":[7.3044434E0,2.5941162E0,4.166687E0,1.0892334E0,2.5914917E0,7.591858E-1,2.90316E0,8.324646E0,7.8564453E-1,4.747564E0,7.217045E-1,0E0,3.818493E-1,3.044876E0,0E0,3.6638262E0,2.1171265E0,0E0,5.47583E0,3.9299135E0,1.3102093E0,0E0,7.305317E-1,0E0,0E0,1.9932652E0,8.6887103E-1,5.053131E0,1.9926715E0,7.579651E-1,9.278717E0,3.6260214E0,4.4329834E-1,0E0,3.3290222E0,7.1238136E-1,0E0,2.7544413E0,0E0,3.6369834E0,9.798651E-1,0E0,0E0,0E0,0E0,0E0,0E0,0E0,0E0,0E0,0E0,0E0,0E0,0E0,0E0,0E0,0E0,0E0,0E0,0E0,0E0,0E0,0E0,0E0,0E0],"parents":[2147483647,0,0,1,1,2,2,3,3,4,4,5,5,6,6,7,7,8,8,9,9,10,10,12,12,13,13,15,15,16,16,18,18,19,19,20,20,22,22,25,25,26,26,27,27,28,28,29,29,30,30,31,31,32,32,34,34,35,35,37,37,39,39,40,40],"right_children":[2,4,6,8,10,12,14,16,18,20,22,-1,24,26,-1,28,30,-1,32,34,36,-1,38,-1,-1,40,42,44,46,48,50,52,54,-1,56,58,-1,60,-1,62,64,-1,-1,-1,-1,-1,-1,-1,-1,-1,-1,-1,-1,-1,-1,-1,-1,-1,-1,-1,-1,-1,-1,-1,-1],"split_conditions":[1.6649E2,7.832E3,5.094E3,5.411E3,1.4E1,3.009E3,9.9E-1,2.75E0,5.651E3,8.011E3,5.96E0,-3.8672294E-3,2E-2,9.7E-1,2.239495E-1,4.4E-1,5.094E3,-2.9279E-1,5.812E3,7E-2,9.5E-1,-8.041782E-3,1.8E-1,-6.68617E-2,-2.8116032E-1,6.5E-1,4.5E-1,4.899E3,1.1E1,3.387E3,5.192E3,7E-2,2E-2,3.732778E-1,6.3E-1,1.4E-1,4.7353534E-3,7.4E-1,-2.9241735E-1,6.1E-1,1E1,2.8473043E-1,-2.6582753E-2,-9.2694946E-2,5.180719E-1,1.4504455E-1,-2.3293766E-1,-1.02885306E-1,-2.8649092E-1,3.007966E-1,-2.497396E-1,1.0613366E-1,-1.904206E-1,-1.6417862E-1,-2.8155926E-1,-1.8602517E-1,1.1912521E-1,-8.679578E-2,-2.8233856E-1,-2.4914357E-1,1.2693118E-1,-1.2803303E-1,2.3633139E-1,-8.606229E-2,-2.8226736E-1],"split_indices":[2,0,0,0,1,0,3,2,0,0,2,0,9,9,0,6,0,0,0,6,9,0,3,0,0,9,4,0,1,0,0,6,3,0,6,4,0,4,0,9,1,0,0,0,0,0,0,0,0,0,0,0,0,0,0,0,0,0,0,0,0,0,0,0,0],"split_type":[0,0,0,0,0,0,0,0,0,0,0,0,0,0,0,0,0,0,0,0,0,0,0,0,0,0,0,0,0,0,0,0,0,0,0,0,0,0,0,0,0,0,0,0,0,0,0,0,0,0,0,0,0,0,0,0,0,0,0,0,0,0,0,0,0],"sum_hessian":[2.072741E3,1.9926482E3,8.009274E1,1.9233707E3,6.927756E1,3.0511826E1,4.9580917E1,6.722871E2,1.2510836E3,3.1713863E1,3.7563694E1,1.0056243E0,2.95062E1,4.832035E1,1.2605667E0,7.5986004E0,6.646885E2,6.9445776E2,5.566258E2,1.2523501E1,1.9190361E1,1.0340616E0,3.6529633E1,1.5173112E0,2.798889E1,4.6223133E1,2.097219E0,3.3997898E0,4.1988106E0,3.537864E2,3.109021E2,4.8032444E1,5.0859335E2,1.2193705E0,1.1304131E1,1.7267445E1,1.9229163E0,6.5031066E0,3.0026525E1,3.0829884E1,1.5393248E1,1.009536E0,1.0876828E0,1.8431894E0,1.5566006E0,1.007182E0,3.1916285E0,3.4824326E0,3.50304E2,1.9815006E0,3.089206E2,3.4130988E0,4.4619347E1,7.7277994E0,5.0086557E2,6.6316576E0,4.6724734E0,3.1676588E0,1.4099787E1,4.7016864E0,1.8014202E0,2.9056591E1,1.7732927E0,4.243656E0,1.1149591E1],"tree_param":{"num_deleted":"0","num_feature":"10","num_nodes":"65","size_leaf_vector":"1"}},{"base_weights":[-8.681471E-1,-8.8447386E-1,-5.283252E-1,-8.940452E-1,-6.255339E-1,-8.191054E-1,-3.6171424E-1,-4.2383054E-1,-8.9675534E-1,-3.8081026E-1,-8.384788E-1,-4.375148E-3,-8.504517E-1,9.43853E-2,-5.3126234E-1,2.7610612E-1,-6.808218E-1,-8.476096E-1,-9.221979E-1,2.792389E-2,-6.975125E-1,-8.94587E-1,-2.3550828E-1,-4.981111E-1,-2.8584406E-1,3.121488E-1,-2.1308206E-1,-7.660306E-1,-3.6634803E-2,6.406382E-2,-2.6307014E-1,-3.7180644E-1,-8.672985E-1,-9.641711E-1,-8.6891E-1,-2.62694E-1,8.396921E-1,-8.004356E-1,4.1302413E-2,-5.254343E-1,-2.8787166E-1,1.3920833E-1,-1.9611692E-1,-7.0573246E-1,1.072722E-1,-4.8915622E-1,5.975379E-1,-2.4030319E-1,-8.2547563E-1,2.1525021E-1,-2.2080825E-1,4.549946E-2,-2.7493104E-1,-2.825026E-1,-2.3478843E-1,-2.897711E-1,-1.3352017E-1,-1.4316535E-1,-2.7265957E-1,1.6632715E-1,-1.8898307E-1,-1.7355153E-1,5.521856E-1,-6.291004E-2,-2.7639112E-1,-2.4227506E-1,1.0910394E-1,-3.4475399E-3,-2.4852827E-1,-6.682133E-3,-1.9694203E-1,2.6359674E-1,-1.7906825E-1,1.4693445E-1,-1.9871695E-1,-2.588433E-1,-2.1198168E-2,-1.9854459E-1,1.4421687E-1],"categories":[],"categories_nodes":[],"categories_segments":[],"categories_sizes":[],"default_left":[0,0,0,0,0,0,0,0,0,0,0,0,0,0,0,0,0,0,0,0,0,0,0,0,0,0,0,0,0,0,0,0,0,0,0,0,0,0,0,0,0,0,0,0,0,0,0,0,0,0,0,0,0,0,0,0,0,0,0,0,0,0,0,0,0,0,0,0,0,0,0,0,0,0,0,0,0,0,0],"id":11,"left_children":[1,3,5,7,9,11,13,15,17,19,21,-1,23,25,27,-1,29,31,33,35,37,39,41,43,-1,45,-1,47,49,-1,-1,51,53,55,57,59,61,63,-1,65,-1,-1,-1,67,-1,69,71,73,75,77,-1,-1,-1,-1,-1,-1,-1,-1,-1,-1,-1,-1,-1,-1,-1,-1,-1,-1,-1,-1,-1,-1,-1,-1,-1,-1,-1,-1,-1],"loss_changes":[8.362793E0,3.2008057E0,3.3587303E0,1.4813232E0,2.6723557E0,6.6069794E-1,3.897571E0,4.173218E0,1.0332031E0,3.7142482E0,7.9969025E-1,0E0,4.512825E-1,2.733035E0,4.201231E0,0E0,1.7995443E0,4.4313354E0,1.2757568E0,3.387106E0,1.4959078E0,1.4268303E-1,1.4442426E0,1.6513603E0,0E0,3.0305777E0,0E0,5.719309E-1,2.408587E0,0E0,0E0,6.386757E0,2.3269958E0,3.729248E-2,6.240814E0,3.5438423E0,6.4259844E0,8.4201145E-1,0E0,1.8607476E0,0E0,0E0,0E0,5.589175E-1,0E0,2.739851E-1,3.6403334E0,1.5307238E0,5.5150986E-1,2.6848295E0,0E0,0E0,0E0,0E0,0E0,0E0,0E0,0E0,0E0,0E0,0E0,0E0,0E0,0E0,0E0,0E0,0E0,0E0,0E0,0E0,0E0,0E0,0E0,0E0,0E0,0E0,0E0,0E0,0E0],"parents":[2147483647,0,0,1,1,2,2,3,3,4,4,5,5,6,6,7,7,8,8,9,9,10,10,12,12,13,13,14,14,16,16,17,17,18,18,19,19,20,20,21,21,22,22,23,23,25,25,27,27,28,28,31,31,32,32,33,33,34,34,35,35,36,36,37,37,39,39,43,43,45,45,46,46,47,47,48,48,49,49],"right_children":[2,4,6,8,10,12,14,16,18,20,22,-1,24,26,28,-1,30,32,34,36,38,40,42,44,-1,46,-1,48,50,-1,-1,52,54,56,58,60,62,64,-1,66,-1,-1,-1,68,-1,70,72,74,76,78,-1,-1,-1,-1,-1,-1,-1,-1,-1,-1,-1,-1,-1,-1,-1,-1,-1,-1,-1,-1,-1,-1,-1,-1,-1,-1,-1,-1,-1],"split_conditions":[1.6023E2,7.832E3,5.094E3,3.509E3,1.4E1,4E-2,5.311E3,4.505E1,5.411E3,8.011E3,9E0,-4.375148E-3,1E1,1.6E1,2.3981E2,2.7610612E-1,1.3E-1,1.27E1,5.651E3,7.9E-1,9.1E-1,1.8E-1,3.6E-1,2.9142E2,-2.8584406E-1,9E0,-2.1308206E-1,1.2E-1,8.011E3,6.406382E-2,-2.6307014E-1,5.1E-1,5.094E3,1E0,5.812E3,3.5E-1,5.4E-1,1.4E-1,4.1302413E-2,1.4E-1,-2.8787166E-1,1.3920833E-1,-1.9611692E-1,1.8E-1,1.072722E-1,4.1E-1,7.7E-1,3.5E-1,9.7E-1,5.651E3,-2.2080825E-1,4.549946E-2,-2.7493104E-1,-2.825026E-1,-2.3478843E-1,-2.897711E-1,-1.3352017E-1,-1.4316535E-1,-2.7265957E-1,1.6632715E-1,-1.8898307E-1,-1.7355153E-1,5.521856E-1,-6.291004E-2,-2.7639112E-1,-2.4227506E-1,1.0910394E-1,-3.4475399E-3,-2.4852827E-1,-6.682133E-3,-1.9694203E-1,2.6359674E-1,-1.7906825E-1,1.4693445E-1,-1.9871695E-1,-2.588433E-1,-2.1198168E-2,-1.9854459E-1,1.4421687E-1],"split_indices":[2,0,0,0,1,7,0,2,0,0,8,0,1,1,2,0,4,2,0,4,3,3,5,2,0,1,0,9,0,0,0,6,0,6,0,9,9,4,0,3,0,0,0,3,0,3,5,6,3,0,0,0,0,0,0,0,0,0,0,0,0,0,0,0,0,0,0,0,0,0,0,0,0,0,0,0,0,0,0],"split_type":[0,0,0,0,0,0,0,0,0,0,0,0,0,0,0,0,0,0,0,0,0,0,0,0,0,0,0,0,0,0,0,0,0,0,0,0,0,0,0,0,0,0,0,0,0,0,0,0,0,0,0,0,0,0,0,0,0,0,0,0,0,0,0,0,0,0,0,0,0,0,0,0,0,0,0,0,0,0,0],"sum_hessian":[1.5905302E3,1.5160869E3,7.444326E1,1.4596794E3,5.640746E1,2.569042E1,4.8752842E1,9.26686E0,1.4504126E3,2.7542719E1,2.886474E1,1.0183786E0,2.467204E1,1.3331968E1,3.5420876E1,1.0730488E0,8.193811E0,5.0644946E2,9.439631E2,1.2422343E1,1.5120376E1,2.5964989E1,2.8997517E0,6.8747077E0,1.7797335E1,1.0974131E1,2.357838E0,2.364798E1,1.1772896E1,1.4573513E0,6.7364597E0,2.0914423E1,4.8553503E2,5.184792E2,4.2548392E2,9.645566E0,2.7767775E0,1.3498515E1,1.6218603E0,5.246626E0,2.0718363E1,1.0439769E0,1.8557746E0,5.673376E0,1.2013316E0,2.6945298E0,8.279601E0,2.9145296E0,2.073345E1,9.164536E0,2.6083586E0,1.1032279E1,9.882145E0,2.5309111E2,2.3244391E2,5.158966E2,2.5826085E0,4.058278E1,3.8490112E2,2.8328674E0,6.812699E0,1.3235253E0,1.4532523E0,2.7573051E0,1.074121E1,4.0523596E0,1.1942666E0,1.0163372E0,4.6570387E0,1.0098271E0,1.6847026E0,6.9161987E0,1.3634019E0,1.0089551E0,1.9055744E0,1.9619915E1,1.1135352E0,1.782515E0,7.382022E0],"tree_param":{"num_deleted":"0","num_feature":"10","num_nodes":"79","size_leaf_vector":"1"}},{"base_weights":[-8.2805926E-1,-8.4765166E-1,-4.6993205E-1,-8.594795E-1,-5.5865943E-1,-7.718825E-1,-3.1875488E-1,-7.9376775E-1,-8.951669E-1,3.8261244E-1,-6.1924064E-1,-3.7223576E-3,-8.09018E-1,-2.0639355E-1,-2.6212433E-1,1.5047371E-1,-8.121289E-1,-9.496321E-1,-8.280292E-1,2.932828E-1,-6.9472305E-2,-3.2812357E-1,-7.926394E-1,-4.3330628E-1,-2.8052336E-1,-9.266582E-2,-7.324412E-1,4.7557506E-1,-1.9934605E-1,-9.098753E-1,-7.062115E-1,-2.8556767E-1,-3.8974866E-1,-3.9818612E-1,-8.780617E-1,2.0593873E-1,-4.4543904E-1,-2.681684E-1,-8.788325E-1,-6.507207E-1,8.3688825E-2,1.254936E-1,-4.0866813E-1,-2.5161958E-1,-1.6638562E-2,-3.8305093E-2,5.6647104E-1,-5.424047E-2,-2.7555373E-1,1.6577464E-1,-2.1832384E-1,-1.0981504E-3,-1.6787806E-1,-1.8537377E-1,3.999939E-2,-2.43282E-1,-2.931849E-1,-1.7069891E-1,1.2354575E-1,-2.2854778E-1,2.2070336E-1,-2.1331271E-2,-2.7490717E-1,-1.6539434E-3,-2.3662505E-1,1.1328789E-1,-1.3774572E-1,-1.8017505E-1,1.0281535E-1],"categories":[],"categories_nodes":[],"categories_segments":[],"categories_sizes":[],"default_left":[0,0,0,0,0,0,0,0,0,0,0,0,0,0,0,0,0,0,0,0,0,0,0,0,0,0,0,0,0,0,0,0,0,0,0,0,0,0,0,0,0,0,0,0,0,0,0,0,0,0,0,0,0,0,0,0,0,0,0,0,0,0,0,0,0,0,0,0,0],"id":12,"left_children":[1,3,5,7,9,11,13,15,17,19,21,-1,23,25,-1,27,29,31,33,-1,-1,35,37,39,-1,41,43,45,-1,47,49,-1,51,53,55,-1,57,59,61,63,-1,65,67,-1,-1,-1,-1,-1,-1,-1,-1,-1,-1,-1,-1,-1,-1,-1,-1,-1,-1,-1,-1,-1,-1,-1,-1,-1,-1],"loss_changes":[8.267395E0,3.5182495E0,2.7806854E0,1.9202881E0,3.022481E0,5.940294E-1,2.6812034E0,7.120865E0,1.8435669E0,1.5317273E0,2.075966E0,0E0,5.612087E-1,2.2935197E0,0E0,2.5795877E0,3.4585876E0,1.2283325E-1,6.746048E0,0E0,0E0,2.565046E0,1.0434723E0,1.2639308E0,0E0,2.3675823E0,4.4793773E-1,5.9424276E0,0E0,1.1093903E0,5.6769104E0,0E0,2.1188363E-1,4.31358E0,1.1701965E0,0E0,2.1006837E0,3.2528358E0,6.5812683E-1,4.9928498E-1,0E0,3.2161782E0,2.218518E0,0E0,0E0,0E0,0E0,0E0,0E0,0E0,0E0,0E0,0E0,0E0,0E0,0E0,0E0,0E0,0E0,0E0,0E0,0E0,0E0,0E0,0E0,0E0,0E0,0E0,0E0],"parents":[2147483647,0,0,1,1,2,2,3,3,4,4,5,5,6,6,7,7,8,8,9,9,10,10,12,12,13,13,15,15,16,16,17,17,18,18,21,21,22,22,23,23,25,25,26,26,27,27,29,29,30,30,32,32,33,33,34,34,36,36,37,37,38,38,39,39,41,41,42,42],"right_children":[2,4,6,8,10,12,14,16,18,20,22,-1,24,26,-1,28,30,32,34,-1,-1,36,38,40,-1,42,44,46,-1,48,50,-1,52,54,56,-1,58,60,62,64,-1,66,68,-1,-1,-1,-1,-1,-1,-1,-1,-1,-1,-1,-1,-1,-1,-1,-1,-1,-1,-1,-1,-1,-1,-1,-1,-1,-1],"split_conditions":[1.6023E2,7.832E3,5.094E3,5.411E3,7.02E0,4E-2,8.011E3,2.75E0,5.651E3,8.041E3,1.2E1,-3.7223576E-3,1E1,1.8E1,-2.6212433E-1,8E-1,5.094E3,1E0,5.812E3,2.932828E-1,-6.9472305E-2,8E-2,1.6E-1,2.9142E2,-2.8052336E-1,5.9E-1,8.8E-1,7E-1,-1.9934605E-1,3.387E3,5.211E3,-2.8556767E-1,3.686E1,7.1E-1,1.6E1,2.0593873E-1,9.2E-1,7.4E-1,4E-2,2.2E-1,8.3688825E-2,7E-1,7.011E3,-2.5161958E-1,-1.6638562E-2,-3.8305093E-2,5.6647104E-1,-5.424047E-2,-2.7555373E-1,1.6577464E-1,-2.1832384E-1,-1.0981504E-3,-1.6787806E-1,-1.8537377E-1,3.999939E-2,-2.43282E-1,-2.931849E-1,-1.7069891E-1,1.2354575E-1,-2.2854778E-1,2.2070336E-1,-2.1331271E-2,-2.7490717E-1,-1.6539434E-3,-2.3662505E-1,1.1328789E-1,-1.3774572E-1,-1.8017505E-1,1.0281535E-1],"split_indices":[2,0,0,0,2,7,0,2,0,0,1,0,1,1,0,3,0,6,0,0,0,5,7,2,0,7,9,3,0,0,0,0,2,4,1,0,4,4,6,4,0,9,0,0,0,0,0,0,0,0,0,0,0,0,0,0,0,0,0,0,0,0,0,0,0,0,0,0,0],"split_type":[0,0,0,0,0,0,0,0,0,0,0,0,0,0,0,0,0,0,0,0,0,0,0,0,0,0,0,0,0,0,0,0,0,0,0,0,0,0,0,0,0,0,0,0,0,0,0,0,0,0,0,0,0,0,0,0,0,0,0,0,0,0,0,0,0,0,0,0,0],"sum_hessian":[1.2340365E3,1.1687307E3,6.5305786E1,1.1208813E3,4.7849293E1,2.0418175E1,4.488761E1,4.0267392E2,7.1820746E2,2.5719707E0,4.5277325E1,1.0140259E0,1.9404148E1,3.847086E1,6.4167504E0,7.5435715E0,3.9513034E2,3.8926944E2,3.2893802E2,1.0058421E0,1.5661285E0,1.7981205E1,2.729612E1,5.989675E0,1.3414474E1,3.2599285E1,5.8715773E0,5.6901283E0,1.853443E0,2.0154407E2,1.9358629E2,3.8700705E2,2.2623997E0,3.5229553E1,2.9370847E2,1.3608307E0,1.6620373E1,4.433041E0,2.2863077E1,4.655142E0,1.3345333E0,1.9641912E1,1.2957372E1,4.868288E0,1.0032892E0,4.6247883E0,1.0653403E0,2.6164787E0,1.9892758E2,2.841266E0,1.9074503E2,1.0032903E0,1.2591094E0,2.4810488E1,1.0419066E1,1.8066461E2,1.1304386E2,1.4820537E1,1.7998366E0,3.133289E0,1.2997522E0,1.1435126E0,2.1719564E1,1.0036412E0,3.6515005E0,1.3970941E1,5.6709714E0,1.0481052E1,2.4763198E0],"tree_param":{"num_deleted":"0","num_feature":"10","num_nodes":"69","size_leaf_vector":"1"}},{"base_weights":[-7.793657E-1,-8.0437165E-1,-4.284644E-1,-8.1803334E-1,-4.9636132E-1,-7.6605046E-1,-2.6754215E-1,-7.370648E-1,-8.628773E-1,2.991717E-1,-5.622887E-1,-3.4365827E-1,-8.779135E-1,-1.6568987E-1,-2.567532E-1,-1.9157112E-1,-7.752699E-1,-9.310132E-1,-7.820088E-1,2.122553E-1,-6.071886E-2,-3.4178153E-1,-7.84257E-1,2.3466693E-1,-2.2241399E-1,-7.42078E-2,-2.8001735E-1,5.5324304E-1,-2.4168879E-1,9.6704644E-1,-4.2918274E-1,-8.7447566E-1,-6.700606E-1,-2.8017968E-1,-3.4844983E-1,-3.5473076E-1,-8.3947045E-1,1.991569E-1,-5.946793E-1,-1.8346763E-1,-2.8006527E-1,2.4566677E-1,-1.5357353E-1,1.1107062E0,-1.5988849E-1,-3.23071E-1,6.596153E-1,5.478945E-1,-1.666778E-1,2.0906357E-1,-1.6659155E-1,-3.6876097E-2,-2.6577944E-1,1.19535394E-1,-2.0911416E-1,-9.33757E-4,-1.545887E-1,-1.469032E-1,2.006973E-1,-2.2704507E-1,-2.9024902E-1,-2.0880859E-1,2.106306E-1,1.0222195E-1,-2.1204501E-1,-2.1227756E-1,1.8139546E-1,7.68504E-2,4.3095577E-1,-1.15548976E-1,2.3559721E-1,-1.6203451E-1,4.34085E-1],"categories":[],"categories_nodes":[],"categories_segments":[],"categories_sizes":[],"default_left":[0,0,0,0,0,0,0,0,0,0,0,0,0,0,0,0,0,0,0,0,0,0,0,0,0,0,0,0,0,0,0,0,0,0,0,0,0,0,0,0,0,0,0,0,0,0,0,0,0,0,0,0,0,0,0,0,0,0,0,0,0,0,0,0,0,0,0,0,0,0,0,0,0],"id":13,"left_children":[1,3,5,7,9,11,13,15,17,19,21,23,25,27,-1,29,31,33,35,-1,-1,37,39,41,-1,-1,-1,43,45,47,49,51,53,-1,55,57,59,61,63,65,-1,-1,-1,67,-1,69,71,-1,-1,-1,-1,-1,-1,-1,-1,-1,-1,-1,-1,-1,-1,-1,-1,-1,-1,-1,-1,-1,-1,-1,-1,-1,-1],"loss_changes":[8.164185E0,3.3981934E0,3.4156256E0,2.501587E0,2.3153992E0,6.8947506E-1,2.6546066E0,6.413452E0,2.303955E0,9.185846E-1,1.5994186E0,1.5622175E0,3.2678986E-1,2.3750696E0,0E0,6.454349E0,2.4818573E0,1.7346191E-1,6.0334473E0,0E0,0E0,2.9792867E0,1.464879E0,1.8231937E0,0E0,0E0,0E0,3.1508298E0,2.9854407E0,6.301316E0,3.0706837E0,1.1653366E0,4.514374E0,0E0,1.74586E-1,4.7897525E0,1.6652832E0,3.8254685E0,1.7619328E0,2.4417048E0,0E0,0E0,0E0,4.998176E-1,0E0,2.734473E0,4.048735E0,0E0,0E0,0E0,0E0,0E0,0E0,0E0,0E0,0E0,0E0,0E0,0E0,0E0,0E0,0E0,0E0,0E0,0E0,0E0,0E0,0E0,0E0,0E0,0E0,0E0,0E0],"parents":[2147483647,0,0,1,1,2,2,3,3,4,4,5,5,6,6,7,7,8,8,9,9,10,10,11,11,12,12,13,13,15,15,16,16,17,17,18,18,21,21,22,22,23,23,27,27,28,28,29,29,30,30,31,31,32,32,34,34,35,35,36,36,37,37,38,38,39,39,43,43,45,45,46,46],"right_children":[2,4,6,8,10,12,14,16,18,20,22,24,26,28,-1,30,32,34,36,-1,-1,38,40,42,-1,-1,-1,44,46,48,50,52,54,-1,56,58,60,62,64,66,-1,-1,-1,68,-1,70,72,-1,-1,-1,-1,-1,-1,-1,-1,-1,-1,-1,-1,-1,-1,-1,-1,-1,-1,-1,-1,-1,-1,-1,-1,-1,-1],"split_conditions":[1.5391E2,7.832E3,5.094E3,5.411E3,7.02E0,3.64E3,8.011E3,1.536E1,5.651E3,8.011E3,1.4E1,1.3E1,1.1E-1,8E-2,-2.567532E-1,1.4E-1,5.094E3,1E0,5.812E3,2.122553E-1,-6.071886E-2,7.995E3,1.8E-1,5E0,-2.2241399E-1,-7.42078E-2,-2.8001735E-1,5.8E-1,9.6E-1,5.1E-1,8E-2,3.387E3,5.211E3,-2.8017968E-1,3.686E1,9E-1,1.6E1,3.4E-1,8E-2,7.4E-1,-2.8006527E-1,2.4566677E-1,-1.5357353E-1,2.2E-1,-1.5988849E-1,9.9E-1,5.4E-1,5.478945E-1,-1.666778E-1,2.0906357E-1,-1.6659155E-1,-3.6876097E-2,-2.6577944E-1,1.19535394E-1,-2.0911416E-1,-9.33757E-4,-1.545887E-1,-1.469032E-1,2.006973E-1,-2.2704507E-1,-2.9024902E-1,-2.0880859E-1,2.106306E-1,1.0222195E-1,-2.1204501E-1,-2.1227756E-1,1.8139546E-1,7.68504E-2,4.3095577E-1,-1.15548976E-1,2.3559721E-1,-1.6203451E-1,4.34085E-1],"split_indices":[2,0,0,0,2,0,0,2,0,0,1,1,4,6,0,5,0,6,0,0,0,0,3,8,0,0,0,7,9,6,9,0,0,0,2,7,1,3,5,4,0,0,0,7,0,3,7,0,0,0,0,0,0,0,0,0,0,0,0,0,0,0,0,0,0,0,0,0,0,0,0,0,0],"split_type":[0,0,0,0,0,0,0,0,0,0,0,0,0,0,0,0,0,0,0,0,0,0,0,0,0,0,0,0,0,0,0,0,0,0,0,0,0,0,0,0,0,0,0,0,0,0,0,0,0,0,0,0,0,0,0,0,0,0,0,0,0,0,0,0,0,0,0,0,0,0,0,0,0],"sum_hessian":[9.687121E2,9.030656E2,6.564647E1,8.63126E2,3.9939644E1,1.9977299E1,4.5669174E1,3.1386288E2,5.492631E2,2.785818E0,3.7153828E1,5.0354986E0,1.49418E1,4.002186E1,5.6473145E0,2.093711E1,2.9292575E2,2.9239368E2,2.5686942E2,1.3092747E0,1.4765434E0,1.9912338E1,1.7241488E1,2.218932E0,2.8165667E0,1.6497399E0,1.329206E1,3.225904E0,3.6795956E1,3.0406659E0,1.7896444E1,1.4700122E2,1.4592455E2,2.903358E2,2.0578914E0,3.129994E1,2.2556949E2,6.4113064E0,1.3501033E1,3.875316E0,1.3366172E1,1.1904836E0,1.0284482E0,2.1169062E0,1.108998E0,3.433708E1,2.4588754E0,1.8162588E0,1.224407E0,1.346757E0,1.6549688E1,2.3831656E0,1.4461806E2,3.2556298E0,1.4266891E2,1.002198E0,1.0556934E0,2.8115444E1,3.1844962E0,1.412744E2,8.429509E1,2.1682174E0,4.2430887E0,1.2270151E0,1.2274017E1,2.388839E0,1.486477E0,1.0773882E0,1.039518E0,3.3133446E1,1.2036313E0,1.0986946E0,1.3601807E0],"tree_param":{"num_deleted":"0","num_feature":"10","num_nodes":"73","size_leaf_vector":"1"}},{"base_weights":[-7.218735E-1,-7.5117904E-1,-3.5723132E-1,-7.066297E-1,-9.064987E-1,-7.1441036E-1,-2.0612757E-1,-8.6059755E-1,-6.385879E-1,-9.2376983E-1,-1.9256656E-1,-2.9987332E-1,-8.437933E-1,-1.1042187E-2,-4.8067683E-1,-8.794102E-1,-3.356301E-1,-6.688694E-1,-9.0221986E-2,-1.025626E-1,-9.35921E-1,1.8482569E-1,-2.1406998E-1,-5.720295E-1,1.3707575E-1,-4.0170133E-2,-2.7419138E-1,-1.9837311E-1,1.318206E0,-2.600499E-1,-2.2043768E-1,-8.9416116E-1,-3.951343E-1,-6.505457E-1,1.2119729E-1,4.3405038E-1,-6.7742014E-1,3.5740235E-1,-6.172735E-1,-1.7096432E-1,1.4540185E-1,-2.8250903E-1,-3.8573197E-1,-2.1838634E-1,-1.7081703E-3,1.2512185E-1,-6.2621975E-1,6.103222E-1,-2.069374E-2,2.2950415E-1,-2.456728E-1,-2.7720162E-1,-1.8260825E-1,-2.4637224E-1,2.806875E-1,-2.3649111E-1,-2.3703682E-3,-1.535418E-1,3.1216007E-1,-2.1263573E-1,-1.2030335E-1,2.121497E-1,-1.568101E-1,-2.3186238E-1,3.2662835E-2,-1.6672236E-1,-7.743962E-4,1.12910256E-1,-1.1624178E-1,-2.3543052E-1,5.908854E-2,2.0290013E-1,-1.4687058E-1],"categories":[],"categories_nodes":[],"categories_segments":[],"categories_sizes":[],"default_left":[0,0,0,0,0,0,0,0,0,0,0,0,0,0,0,0,0,0,0,0,0,0,0,0,0,0,0,0,0,0,0,0,0,0,0,0,0,0,0,0,0,0,0,0,0,0,0,0,0,0,0,0,0,0,0,0,0,0,0,0,0,0,0,0,0,0,0,0,0,0,0,0,0],"id":14,"left_children":[1,3,5,7,9,11,13,15,17,19,21,23,25,27,29,31,33,35,37,39,41,-1,-1,43,-1,-1,-1,45,47,-1,49,51,53,55,-1,57,59,61,63,-1,-1,-1,65,-1,-1,67,69,-1,-1,71,-1,-1,-1,-1,-1,-1,-1,-1,-1,-1,-1,-1,-1,-1,-1,-1,-1,-1,-1,-1,-1,-1,-1],"loss_changes":[7.98938E0,4.302429E0,3.058186E0,5.3137207E0,1.7418671E0,6.7219067E-1,2.3053613E0,1.3704758E0,6.4493256E0,1.4182739E0,2.521231E0,1.4260566E0,5.0513077E-1,6.7964864E0,1.6074677E0,8.053818E-1,1.998517E0,3.7961578E0,5.3332725E0,1.1916225E0,1.1155701E-1,0E0,0E0,4.023391E-1,0E0,0E0,0E0,3.3823113E0,3.490934E0,0E0,3.4281182E0,7.7184296E-1,4.503166E0,4.9039507E-1,0E0,2.5210109E0,2.9138947E0,4.17187E0,1.2501125E0,0E0,0E0,0E0,2.1000996E-1,0E0,0E0,2.0038328E0,1.5177312E0,0E0,0E0,2.789039E0,0E0,0E0,0E0,0E0,0E0,0E0,0E0,0E0,0E0,0E0,0E0,0E0,0E0,0E0,0E0,0E0,0E0,0E0,0E0,0E0,0E0,0E0,0E0],"parents":[2147483647,0,0,1,1,2,2,3,3,4,4,5,5,6,6,7,7,8,8,9,9,10,10,11,11,12,12,13,13,14,14,15,15,16,16,17,17,18,18,19,19,20,20,23,23,27,27,28,28,30,30,31,31,32,32,33,33,35,35,36,36,37,37,38,38,42,42,45,45,46,46,49,49],"right_children":[2,4,6,8,10,12,14,16,18,20,22,24,26,28,30,32,34,36,38,40,42,-1,-1,44,-1,-1,-1,46,48,-1,50,52,54,56,-1,58,60,62,64,-1,-1,-1,66,-1,-1,68,70,-1,-1,72,-1,-1,-1,-1,-1,-1,-1,-1,-1,-1,-1,-1,-1,-1,-1,-1,-1,-1,-1,-1,-1,-1,-1],"split_conditions":[1.5391E2,1.7E1,5.094E3,9E0,9.8E-1,3.64E3,5.732E3,9.7E-1,7.542E3,2E-2,3.9E-1,3.509E3,1.2E-1,5.651E3,7.011E3,9.7E-1,7.1E-1,3.509E3,8.011E3,5.7E-1,9.9E-1,1.8482569E-1,-2.1406998E-1,7.2E-1,1.3707575E-1,-4.0170133E-2,-2.7419138E-1,5.311E3,3.6E-1,-2.600499E-1,8.011E3,1.0699E2,7.9E-1,7.9E-1,1.2119729E-1,4.2E-1,9E-1,7.5E-1,8.1E-1,-1.7096432E-1,1.4540185E-1,-2.8250903E-1,5.7E-1,-2.1838634E-1,-1.7081703E-3,6.8E-1,8.5E-1,6.103222E-1,-2.069374E-2,5.7E-1,-2.456728E-1,-2.7720162E-1,-1.8260825E-1,-2.4637224E-1,2.806875E-1,-2.3649111E-1,-2.3703682E-3,-1.535418E-1,3.1216007E-1,-2.1263573E-1,-1.2030335E-1,2.121497E-1,-1.568101E-1,-2.3186238E-1,3.2662835E-2,-1.6672236E-1,-7.743962E-4,1.12910256E-1,-1.1624178E-1,-2.3543052E-1,5.908854E-2,2.0290013E-1,-1.4687058E-1],"split_indices":[2,1,0,1,6,0,0,7,0,6,3,0,3,0,0,3,5,0,0,9,4,0,0,9,0,0,0,0,7,0,0,2,7,6,0,6,7,9,5,0,0,0,7,0,0,4,9,0,0,3,0,0,0,0,0,0,0,0,0,0,0,0,0,0,0,0,0,0,0,0,0,0,0],"split_type":[0,0,0,0,0,0,0,0,0,0,0,0,0,0,0,0,0,0,0,0,0,0,0,0,0,0,0,0,0,0,0,0,0,0,0,0,0,0,0,0,0,0,0,0,0,0,0,0,0,0,0,0,0,0,0,0,0,0,0,0,0,0,0,0,0,0,0,0,0,0,0,0,0],"sum_hessian":[7.717606E2,7.133687E2,5.83919E1,5.586766E2,1.5469214E2,1.6250656E1,4.2141243E1,1.6765395E2,3.9102264E2,1.507513E2,3.9408374E0,4.654753E0,1.1595903E1,2.5243961E1,1.6897282E1,1.6120197E2,6.4519835E0,3.703516E2,2.067105E1,2.335751E0,1.4841556E2,1.4726337E0,2.4682038E0,3.6031394E0,1.051614E0,1.3048242E0,1.02910795E1,2.2871452E1,2.3725107E0,5.864431E0,1.1032851E1,1.5561555E2,5.586412E0,4.6097007E0,1.8422829E0,2.466354E0,3.6788525E2,1.1351832E1,9.319217E0,1.3171355E0,1.0186157E0,1.4616951E2,2.246043E0,2.6015089E0,1.0016305E0,1.3426913E1,9.444538E0,1.2569679E0,1.1155428E0,6.649873E0,4.3829784E0,1.3886143E2,1.675412E1,4.521511E0,1.0649006E0,3.609342E0,1.0003585E0,1.024569E0,1.4417847E0,3.289889E2,3.8896362E1,8.264084E0,3.0877485E0,7.6216784E0,1.6975379E0,1.2437313E0,1.0023117E0,9.188818E0,4.238095E0,7.9583807E0,1.4861577E0,4.1379805E0,2.511892E0],"tree_param":{"num_deleted":"0","num_feature":"10","num_nodes":"73","size_leaf_vector":"1"}},{"base_weights":[-6.568848E-1,-6.054855E-1,-9.0093845E-1,-6.4383256E-1,-1.9674404E-1,-9.1697276E-1,-3.0374777E-1,-8.1945175E-1,-5.753387E-1,4.1971827E-1,-2.7009284E-1,-9.32768E-1,-2.9976675E-1,-2.0883231E-1,1.4377618E-1,-8.424861E-1,-2.8488368E-1,-6.033467E-1,-1.1544528E-1,3.5442564E-1,-4.1125175E-1,-3.1526473E-1,1.80073E-1,-9.415939E-1,-8.774085E-2,-2.0229854E-1,1.2462315E-1,-8.608286E-1,-3.2952034E-1,1.4305955E-1,-6.2091327E-1,-4.544E-1,-6.8920475E-1,4.8079994E-1,-3.6382377E-1,-2.2509077E-3,-1.7618498E-1,-1.0562052E-1,-6.142361E-1,-1.0068854E-1,-2.8519186E-1,-2.6958194E-1,-1.6047616E-1,-2.3567353E-1,2.1638966E-1,-2.2965775E-1,-3.0717044E-3,7.640288E-2,-1.6289152E-1,-2.5340346E-1,-1.457008E-1,4.8751855E-1,-6.668378E-2,2.3292817E-1,-1.5463978E-1,-1.1281808E-1,5.306646E-2,2.3451338E-2,-2.106431E-1],"categories":[],"categories_nodes":[],"categories_segments":[],"categories_sizes":[],"default_left":[0,0,0,0,0,0,0,0,0,0,0,0,0,0,0,0,0,0,0,0,0,0,0,0,0,0,0,0,0,0,0,0,0,0,0,0,0,0,0,0,0,0,0,0,0,0,0,0,0,0,0,0,0,0,0,0,0,0,0],"id":15,"left_children":[1,3,5,7,9,11,13,15,17,19,21,23,25,-1,-1,27,29,31,33,-1,35,37,-1,39,-1,-1,-1,41,43,-1,45,47,49,51,53,-1,-1,55,57,-1,-1,-1,-1,-1,-1,-1,-1,-1,-1,-1,-1,-1,-1,-1,-1,-1,-1,-1,-1],"loss_changes":[7.323944E0,8.043442E0,7.4689484E-1,5.2555084E0,2.2000313E0,7.3223877E-1,1.6532395E0,1.3758621E0,4.3854446E0,3.8395813E0,1.8345377E0,2.9385376E-1,1.3686384E0,0E0,0E0,8.9525604E-1,2.0704594E0,3.853012E0,3.2984607E0,0E0,2.2841555E-1,2.4698253E0,0E0,2.2309875E-1,0E0,0E0,0E0,1.0011063E0,3.416108E0,0E0,4.553063E-1,7.8041325E0,6.068062E0,5.6976137E0,3.0731304E0,0E0,0E0,1.974958E0,1.0568471E0,0E0,0E0,0E0,0E0,0E0,0E0,0E0,0E0,0E0,0E0,0E0,0E0,0E0,0E0,0E0,0E0,0E0,0E0,0E0,0E0],"parents":[2147483647,0,0,1,1,2,2,3,3,4,4,5,5,6,6,7,7,8,8,9,9,10,10,11,11,12,12,15,15,16,16,17,17,18,18,20,20,21,21,23,23,27,27,28,28,30,30,31,31,32,32,33,33,34,34,37,37,38,38],"right_children":[2,4,6,8,10,12,14,16,18,20,22,24,26,-1,-1,28,30,32,34,-1,36,38,-1,40,-1,-1,-1,42,44,-1,46,48,50,52,54,-1,-1,56,58,-1,-1,-1,-1,-1,-1,-1,-1,-1,-1,-1,-1,-1,-1,-1,-1,-1,-1,-1,-1],"split_conditions":[1.8E1,1.5391E2,9.8E-1,9E0,8E-2,9.8E-1,6.9E-1,9.7E-1,7.832E3,3.5E-1,9.9E-1,9.9E-1,7.6E-1,-2.0883231E-1,1.4377618E-1,9.7E-1,1.713E1,5.411E3,1.1E1,3.5442564E-1,1.9569E2,5.7E-1,1.80073E-1,2E-2,-8.774085E-2,-2.0229854E-1,1.2462315E-1,1.0699E2,8E-1,1.4305955E-1,9.578E1,1.988E1,5.651E3,2.5E-1,7.02E0,-2.2509077E-3,-1.7618498E-1,2.8E-1,1E-1,-1.0068854E-1,-2.8519186E-1,-2.6958194E-1,-1.6047616E-1,-2.3567353E-1,2.1638966E-1,-2.2965775E-1,-3.0717044E-3,7.640288E-2,-1.6289152E-1,-2.5340346E-1,-1.457008E-1,4.8751855E-1,-6.668378E-2,2.3292817E-1,-1.5463978E-1,-1.1281808E-1,5.306646E-2,2.3451338E-2,-2.106431E-1],"split_indices":[1,2,6,1,6,9,4,7,0,7,3,4,3,0,0,3,2,0,1,0,2,3,0,6,0,0,0,2,7,0,2,2,0,4,2,0,0,3,9,0,0,0,0,0,0,0,0,0,0,0,0,0,0,0,0,0,0,0,0],"split_type":[0,0,0,0,0,0,0,0,0,0,0,0,0,0,0,0,0,0,0,0,0,0,0,0,0,0,0,0,0,0,0,0,0,0,0,0,0,0,0,0,0,0,0,0,0,0,0,0,0,0,0,0,0,0,0,0,0,0,0],"sum_hessian":[6.263382E2,5.2025085E2,1.0608737E2,4.7510275E2,4.514809E1,1.0279197E2,3.2954035E0,1.3022922E2,3.4487354E2,4.2985535E0,4.0849537E1,9.972849E1,3.0634735E0,2.2692595E0,1.026144E0,1.24297295E2,5.931931E0,3.2478204E2,2.0091497E1,2.022716E0,2.2758374E0,3.944029E1,1.4092487E0,9.790837E1,1.8201224E0,2.0479906E0,1.0154827E0,1.1935142E2,4.9458785E0,1.6874707E0,4.2444606E0,1.2105977E2,2.0372227E2,5.6331286E0,1.4458368E1,1.007543E0,1.2682945E0,2.3979033E1,1.5461257E1,2.0004897E0,9.590788E1,1.0537907E2,1.3972345E1,3.625023E0,1.3208556E0,3.2267628E0,1.0176978E0,1.3234365E1,1.0782541E2,1.1371187E2,9.001041E1,1.6448252E0,3.9883037E0,1.2135007E0,1.3244867E1,1.208202E1,1.1897013E1,1.7542876E0,1.3706969E1],"tree_param":{"num_deleted":"0","num_feature":"10","num_nodes":"59","size_leaf_vector":"1"}},{"base_weights":[-5.8481526E-1,-5.296232E-1,-8.7050694E-1,-7.391775E-1,-4.526568E-1,-9.6545017E-1,-6.581394E-1,-7.691393E-1,-2.0897843E-2,-4.958078E-1,1.586632E-2,-2.9485807E-1,-8.6809754E-2,-7.15854E-1,1.066494E-1,-7.9401505E-1,-2.6512694E-1,5.5106634E-1,-2.0705712E-1,-2.8357545E-1,-4.6597677E-1,9.271202E-1,-1.4314266E-1,-2.3761047E-3,-7.6701707E-1,-6.760426E-1,-9.051502E-1,1.0445646E-1,-5.85246E-1,-4.8823085E-2,2.91738E-1,-5.464886E-1,-3.006248E-1,-6.2946468E-3,1.233071E0,4.2119336E-1,-3.449835E-1,-4.661652E-1,-8.8551164E-1,-2.1598054E-1,9.275686E-2,-2.7674136E-1,-4.4890873E-2,-2.2114946E-1,-3.5101208E-3,-1.0211768E-1,-2.3674342E-1,1.3251024E-1,-1.6561826E-1,-4.7388367E-2,5.7525116E-1,-2.0409396E-1,3.0844855E-1,-2.8274276E-3,-2.3501922E-1,-1.8822646E-1,8.80883E-2,-1.602226E-2,-2.818499E-1],"categories":[],"categories_nodes":[],"categories_segments":[],"categories_sizes":[],"default_left":[0,0,0,0,0,0,0,0,0,0,0,0,0,0,0,0,0,0,0,0,0,0,0,0,0,0,0,0,0,0,0,0,0,0,0,0,0,0,0,0,0,0,0,0,0,0,0,0,0,0,0,0,0,0,0,0,0,0,0],"id":16,"left_children":[1,3,5,7,9,11,13,15,17,19,21,-1,-1,23,-1,25,27,29,-1,-1,31,33,35,-1,37,39,41,-1,43,-1,-1,45,47,-1,49,51,53,55,57,-1,-1,-1,-1,-1,-1,-1,-1,-1,-1,-1,-1,-1,-1,-1,-1,-1,-1,-1,-1],"loss_changes":[7.7242126E0,6.723549E0,1.0279274E0,2.4797897E0,6.5307617E0,3.6140823E-1,1.9292822E0,1.1849594E0,2.5515945E0,3.5209045E0,4.2156644E0,0E0,0E0,9.8700047E-1,0E0,7.7214813E-1,1.526337E0,1.2454374E0,0E0,0E0,3.5505676E0,1.2790396E0,2.9767847E0,0E0,4.983797E-1,2.6078873E0,5.346947E-1,0E0,4.095329E-1,0E0,0E0,9.055561E0,1.7714046E1,0E0,3.4284554E0,5.3787537E0,2.7670608E0,1.327838E0,7.2365475E-1,0E0,0E0,0E0,0E0,0E0,0E0,0E0,0E0,0E0,0E0,0E0,0E0,0E0,0E0,0E0,0E0,0E0,0E0,0E0,0E0],"parents":[2147483647,0,0,1,1,2,2,3,3,4,4,5,5,6,6,7,7,8,8,9,9,10,10,13,13,15,15,16,16,17,17,20,20,21,21,22,22,24,24,25,25,26,26,28,28,31,31,32,32,34,34,35,35,36,36,37,37,38,38],"right_children":[2,4,6,8,10,12,14,16,18,20,22,-1,-1,24,-1,26,28,30,-1,-1,32,34,36,-1,38,40,42,-1,44,-1,-1,46,48,-1,50,52,54,56,58,-1,-1,-1,-1,-1,-1,-1,-1,-1,-1,-1,-1,-1,-1,-1,-1,-1,-1,-1,-1],"split_conditions":[1.8E1,9E0,6.8E-1,2.3981E2,1.6023E2,9.8E-1,9.8E-1,9.7E-1,4.9E-1,6E-2,1E1,-2.9485807E-1,-8.6809754E-2,7E-1,1.066494E-1,5.2E-1,1.713E1,4.8E-1,-2.0705712E-1,-2.8357545E-1,5.651E3,2.1063E2,1.8044E2,-2.3761047E-3,3.3E-1,5E-1,9.8E-1,1.0445646E-1,7.5E-1,-4.8823085E-2,2.91738E-1,5.411E3,5.814E3,-6.2946468E-3,4.6E-1,3.6E-1,5.4E-1,5.921E3,6E-2,-2.1598054E-1,9.275686E-2,-2.7674136E-1,-4.4890873E-2,-2.2114946E-1,-3.5101208E-3,-1.0211768E-1,-2.3674342E-1,1.3251024E-1,-1.6561826E-1,-4.7388367E-2,5.7525116E-1,-2.0409396E-1,3.0844855E-1,-2.8274276E-3,-2.3501922E-1,-1.8822646E-1,8.80883E-2,-1.602226E-2,-2.818499E-1],"split_indices":[1,1,4,2,2,9,6,7,5,9,1,0,0,4,0,6,2,7,0,0,0,2,2,0,3,6,9,0,6,0,0,0,0,0,6,5,9,0,6,0,0,0,0,0,0,0,0,0,0,0,0,0,0,0,0,0,0,0,0],"split_type":[0,0,0,0,0,0,0,0,0,0,0,0,0,0,0,0,0,0,0,0,0,0,0,0,0,0,0,0,0,0,0,0,0,0,0,0,0,0,0,0,0,0,0,0,0,0,0,0,0,0,0,0,0,0,0,0,0,0,0],"sum_hessian":[5.181091E2,4.3661444E2,8.149464E1,1.1497403E2,3.216404E2,5.3866425E1,2.7628212E1,1.1030217E2,4.671863E0,2.944622E2,2.7178211E1,5.2071754E1,1.7946687E0,2.641781E1,1.2104025E0,1.0456588E2,5.7362857E0,2.6143415E0,2.0575213E0,1.641791E1,2.7804428E2,3.320183E0,2.3858028E1,1.8583943E0,2.4559416E1,5.41585E1,5.040738E1,1.937175E0,3.799111E0,1.1983021E0,1.4160395E0,1.8544429E2,9.2600006E1,1.0372617E0,2.2829213E0,5.99884E0,1.785919E1,8.3339615E0,1.6225454E1,5.2106415E1,2.052086E0,4.90616E1,1.3457774E0,2.7780054E0,1.0211054E0,1.0157546E2,8.386883E1,2.3237679E1,6.936232E1,1.0065105E0,1.2764107E0,2.0882728E0,3.910567E0,1.0694894E1,7.1642957E0,7.018579E0,1.3153828E0,1.1097881E0,1.5115665E1],"tree_param":{"num_deleted":"0","num_feature":"10","num_nodes":"59","size_leaf_vector":"1"}},{"base_weights":[-5.10394E-1,-4.444443E-1,-7.9536223E-1,-8.2815325E-1,-3.896014E-1,-8.25129E-1,-5.909191E-2,1.0720752E-1,-8.692295E-1,-4.8139533E-1,-2.0383568E-1,-5.1285073E-2,-8.57317E-1,1.7766277E-1,-1.9063208E-1,-8.89919E-1,-4.5099584E-4,-3.0966216E-1,-8.752753E-1,4.0782565E-1,-4.4003937E-1,-2.0189375E-1,2.5769183E-1,-8.779631E-1,-1.0751354E-1,-9.046533E-1,-6.899592E-2,-6.4215654E-1,-1.10345E-1,-6.204355E-2,-2.6649356E-1,-1.7852448E-1,8.980152E-1,-6.388806E-1,3.129326E-2,-3.918858E-1,-8.999366E-1,-1.6124463E-1,1.2231856E-1,-2.7761692E-1,-1.0402251E-1,7.948916E-2,-2.1812703E-1,6.162496E-1,-5.3431E-2,3.704902E-1,-1.5583898E-1,-2.4575086E-2,1.7521696E0,1.6497485E-1,-2.05454E-1,1.4615679E-1,-1.6464093E-1,-2.2354132E-1,1.4583628E-1,-2.7374226E-1,-6.1449904E-2],"categories":[],"categories_nodes":[],"categories_segments":[],"categories_sizes":[],"default_left":[0,0,0,0,0,0,0,0,0,0,0,0,0,0,0,0,0,0,0,0,0,0,0,0,0,0,0,0,0,0,0,0,0,0,0,0,0,0,0,0,0,0,0,0,0,0,0,0,0,0,0,0,0,0,0,0,0],"id":17,"left_children":[1,3,5,7,9,11,13,-1,15,17,19,21,23,-1,-1,25,-1,27,29,31,33,-1,-1,35,37,39,-1,41,43,-1,-1,45,47,49,51,53,55,-1,-1,-1,-1,-1,-1,-1,-1,-1,-1,-1,-1,-1,-1,-1,-1,-1,-1,-1,-1],"loss_changes":[7.9188004E0,7.246994E0,1.7364655E0,2.4578934E0,5.3008575E0,1.9042168E0,1.968797E0,0E0,7.6901627E-1,1.4013027E1,1.5558252E1,2.947506E0,1.0670624E0,0E0,0E0,1.9944382E-1,0E0,9.777268E0,3.7025452E-1,8.832745E0,7.2619276E0,0E0,0E0,4.2570877E-1,9.1700816E-1,1.4944458E-1,0E0,4.467638E0,1.4169109E1,0E0,0E0,7.664513E0,8.087808E1,3.3488083E0,6.5827365E0,1.8892262E0,4.1401672E-1,0E0,0E0,0E0,0E0,0E0,0E0,0E0,0E0,0E0,0E0,0E0,0E0,0E0,0E0,0E0,0E0,0E0,0E0,0E0,0E0],"parents":[2147483647,0,0,1,1,2,2,3,3,4,4,5,5,6,6,8,8,9,9,10,10,11,11,12,12,15,15,17,17,18,18,19,19,20,20,23,23,24,24,25,25,27,27,28,28,31,31,32,32,33,33,34,34,35,35,36,36],"right_children":[2,4,6,8,10,12,14,-1,16,18,20,22,24,-1,-1,26,-1,28,30,32,34,-1,-1,36,38,40,-1,42,44,-1,-1,46,48,50,52,54,56,-1,-1,-1,-1,-1,-1,-1,-1,-1,-1,-1,-1,-1,-1,-1,-1,-1,-1,-1,-1],"split_conditions":[1.7E1,7E0,9.8E-1,3.596E3,5.651E3,7.7E-1,3.9E-1,1.0720752E-1,9.8E-1,5.499E3,5.814E3,-5.6E1,2.3981E2,1.7766277E-1,-1.9063208E-1,2.9142E2,-4.5099584E-4,5.094E3,3E-2,3.434E1,7.542E3,-2.0189375E-1,2.5769183E-1,4.131E3,6.3E-1,9.3E-1,-6.899592E-2,3.64E3,5.211E3,-6.204355E-2,-2.6649356E-1,5.722E3,5.722E3,3.05E0,8.011E3,7.4E-1,9.9E-1,-1.6124463E-1,1.2231856E-1,-2.7761692E-1,-1.0402251E-1,7.948916E-2,-2.1812703E-1,6.162496E-1,-5.3431E-2,3.704902E-1,-1.5583898E-1,-2.4575086E-2,1.7521696E0,1.6497485E-1,-2.05454E-1,1.4615679E-1,-1.6464093E-1,-2.2354132E-1,1.4583628E-1,-2.7374226E-1,-6.1449904E-2],"split_indices":[1,1,6,0,0,2,3,0,5,0,0,2,2,0,0,2,0,0,5,2,0,0,0,0,3,5,0,0,0,0,0,0,0,2,0,3,4,0,0,0,0,0,0,0,0,0,0,0,0,0,0,0,0,0,0,0,0],"split_type":[0,0,0,0,0,0,0,0,0,0,0,0,0,0,0,0,0,0,0,0,0,0,0,0,0,0,0,0,0,0,0,0,0,0,0,0,0,0,0,0,0,0,0,0,0,0,0,0,0,0,0,0,0,0,0,0,0],"sum_hessian":[4.3916678E2,3.587107E2,8.045607E1,4.309509E1,3.1561563E2,7.72137E1,3.2423651E0,1.1853224E0,4.1909767E1,2.1017079E2,1.05444824E2,3.1870077E0,7.4026695E1,1.5092834E0,1.7330818E0,4.0908787E1,1.0009776E0,1.4760196E2,6.2568832E1,2.9173082E1,7.627174E1,2.0485482E0,1.1384593E0,7.187662E1,2.1500769E0,3.9652637E1,1.256152E0,5.4486904E1,9.311506E1,1.5194865E0,6.1049343E1,1.3573123E1,1.5599959E1,5.3391834E1,2.2879908E1,3.923302E0,6.7953316E1,1.1484953E0,1.0015814E0,3.7596584E1,2.0560508E0,4.4833603E0,5.0003544E1,1.9365561E0,9.1178505E1,2.128084E0,1.1445039E1,1.3839503E1,1.760456E0,1.5794623E0,5.1812374E1,1.2901116E1,9.978791E0,2.9056077E0,1.0176942E0,6.6442184E1,1.5111303E0],"tree_param":{"num_deleted":"0","num_feature":"10","num_nodes":"57","size_leaf_vector":"1"}},{"base_weights":[-4.409582E-1,-3.8594744E-1,-7.9071474E-1,-7.809912E-1,-3.3880982E-1,-9.4046915E-1,-4.9695703E-1,8.39787E-2,-8.3079237E-1,-3.9486063E-1,-5.174621E-2,-2.9083148E-1,-4.0103033E-2,-7.195323E-1,8.7035224E-2,-8.796043E-1,-2.4079314E-1,-4.32816E-1,1.5209506E-1,-1.2555659E-1,4.319089E-1,-8.37053E-1,-4.1625365E-3,8.9335936E-1,-5.5794203E-1,-9.0154994E-1,-3.4837626E-2,-1.9812615E-1,1.4817518E-1,-3.8249102E-1,-9.091618E-1,-1.0605759E-1,1.066737E0,7.495557E-1,-2.2917505E-1,-2.671659E-3,-2.7348253E-1,1.4943372E-1,-1.5091972E-1,4.4312415E-1,-2.1143831E-2,-2.0333958E-1,-2.8089315E-2,-6.1036758E-2,-2.795091E-1,-1.23429656E-1,7.235897E-1,-2.854631E-1,-6.403095E-2,-9.014756E-2,2.5126597E-1,5.405827E-1,2.806879E-2,4.6891356E-1,-1.1954937E-1,-4.2977044E-4,-1.5372522E-1],"categories":[],"categories_nodes":[],"categories_segments":[],"categories_sizes":[],"default_left":[0,0,0,0,0,0,0,0,0,0,0,0,0,0,0,0,0,0,0,0,0,0,0,0,0,0,0,0,0,0,0,0,0,0,0,0,0,0,0,0,0,0,0,0,0,0,0,0,0,0,0,0,0,0,0,0,0],"id":18,"left_children":[1,3,5,7,9,11,13,-1,15,17,19,-1,-1,21,23,25,27,29,31,33,-1,35,37,39,41,43,-1,-1,-1,45,47,49,51,53,55,-1,-1,-1,-1,-1,-1,-1,-1,-1,-1,-1,-1,-1,-1,-1,-1,-1,-1,-1,-1,-1,-1],"loss_changes":[7.0973587E0,5.962467E0,1.790947E0,2.0755596E0,4.81501E0,6.389065E-1,2.5913215E0,0E0,7.54982E-1,5.282341E0,5.711793E0,0E0,0E0,1.1897845E0,3.7543051E0,4.084816E-1,1.5415452E0,5.291275E0,4.1379023E0,4.596335E0,0E0,7.4427605E-1,1.0042764E0,1.8857353E0,1.643616E-1,4.3390083E-1,0E0,0E0,0E0,1.8338524E1,4.382534E-1,2.8575346E0,2.5806298E0,5.666105E0,2.862975E0,0E0,0E0,0E0,0E0,0E0,0E0,0E0,0E0,0E0,0E0,0E0,0E0,0E0,0E0,0E0,0E0,0E0,0E0,0E0,0E0,0E0,0E0],"parents":[2147483647,0,0,1,1,2,2,3,3,4,4,5,5,6,6,8,8,9,9,10,10,13,13,14,14,15,15,16,16,17,17,18,18,19,19,21,21,22,22,23,23,24,24,25,25,29,29,30,30,31,31,32,32,33,33,34,34],"right_children":[2,4,6,8,10,12,14,-1,16,18,20,-1,-1,22,24,26,28,30,32,34,-1,36,38,40,42,44,-1,-1,-1,46,48,50,52,54,56,-1,-1,-1,-1,-1,-1,-1,-1,-1,-1,-1,-1,-1,-1,-1,-1,-1,-1,-1,-1,-1,-1],"split_conditions":[1.8E1,7E0,6.8E-1,3.596E3,1.2085E2,9.8E-1,8.604E1,8.39787E-2,9.3E-1,7.832E3,9.8E-1,-2.9083148E-1,-4.0103033E-2,5.921E3,3.9E-1,9.8E-1,8.937E1,5.941E3,8.5E-1,8E-2,4.319089E-1,8E-2,5.4E-1,1.1424E2,7.6E-1,6E-2,-3.4837626E-2,-1.9812615E-1,1.4817518E-1,5.921E3,7.542E3,9.2E-1,3.8E-1,5.2E-1,5.6E-1,-2.671659E-3,-2.7348253E-1,1.4943372E-1,-1.5091972E-1,4.4312415E-1,-2.1143831E-2,-2.0333958E-1,-2.8089315E-2,-6.1036758E-2,-2.795091E-1,-1.23429656E-1,7.235897E-1,-2.854631E-1,-6.403095E-2,-9.014756E-2,2.5126597E-1,5.405827E-1,2.806879E-2,4.6891356E-1,-1.1954937E-1,-4.2977044E-4,-1.5372522E-1],"split_indices":[1,1,4,0,2,9,2,0,5,0,9,0,0,0,3,4,2,0,3,3,0,6,6,2,7,7,0,0,0,0,0,4,6,6,5,0,0,0,0,0,0,0,0,0,0,0,0,0,0,0,0,0,0,0,0,0,0],"split_type":[0,0,0,0,0,0,0,0,0,0,0,0,0,0,0,0,0,0,0,0,0,0,0,0,0,0,0,0,0,0,0,0,0,0,0,0,0,0,0,0,0,0,0,0,0,0,0,0,0,0,0,0,0,0,0,0,0],"sum_hessian":[3.8373935E2,3.3340402E2,5.033532E1,3.3882057E1,2.9952197E2,3.188115E1,1.845417E1,1.3119754E0,3.2570084E1,2.5027823E2,4.924375E1,3.058148E1,1.2996699E0,1.3193628E1,5.260542E0,2.9628033E1,2.94205E0,2.342326E2,1.6045628E1,4.7794262E1,1.449487E0,1.1185913E1,2.0077152E0,2.166709E0,3.0938327E0,2.8624401E1,1.003632E0,1.9369068E0,1.0051433E0,2.1348166E2,2.0750944E1,1.32031555E1,2.842473E0,4.400016E0,4.339425E1,1.0163164E0,1.0169597E1,1.0012668E0,1.0064485E0,1.0178065E0,1.1489024E0,2.0935998E0,1.000233E0,1.505741E0,2.711866E1,2.1213739E2,1.3442606E0,1.9212849E1,1.538096E0,1.1512513E1,1.690642E0,1.1340888E0,1.7083844E0,2.3636813E0,2.0363348E0,2.4610834E1,1.8783413E1],"tree_param":{"num_deleted":"0","num_feature":"10","num_nodes":"57","size_leaf_vector":"1"}},{"base_weights":[-3.661602E-1,-3.245506E-1,-8.8038194E-1,-1.3778485E-1,-4.205237E-1,-9.162535E-1,-3.6199093E-2,-5.18135E-1,2.2867654E-1,-6.435956E-1,-2.4058501E-1,-2.8661537E-1,-7.538135E-2,-3.3233967E-2,-7.138583E-1,5.7022125E-1,-1.227004E-1,-3.950266E-1,-8.278711E-1,3.0676675E-1,-3.540197E-1,5.466653E-1,-5.62786E-1,6.27381E-2,-7.5617313E-1,-2.131311E-2,1.0146515E0,1.1893702E0,-3.4645814E-1,-7.896403E-1,-1.817668E-1,-1.1259017E-1,-8.598525E-1,-1.2054626E-1,1.0258102E0,-5.132782E-1,-4.79201E-3,-1.0725039E-1,3.9287707E-1,-2.5741848E-1,8.107673E-2,-2.4091776E-1,8.417498E-2,2.9526114E-1,-1.2455658E-1,-6.5564327E-3,4.7275618E-1,3.2748405E-2,5.4966956E-1,-1.7155913E-1,7.679498E-2,-2.548595E-1,-1.169951E-3,-8.882729E-2,2.0852242E-1,1.4864533E-1,-1.7373168E-1,-2.6759344E-1,-1.0932035E-1,1.9957544E-1,-1.7739546E-1,6.042362E-1,-2.2479587E-3,3.3721188E-1,-1.69154E-1,-5.4572545E-2,2.1650687E-1],"categories":[],"categories_nodes":[],"categories_segments":[],"categories_sizes":[],"default_left":[0,0,0,0,0,0,0,0,0,0,0,0,0,0,0,0,0,0,0,0,0,0,0,0,0,0,0,0,0,0,0,0,0,0,0,0,0,0,0,0,0,0,0,0,0,0,0,0,0,0,0,0,0,0,0,0,0,0,0,0,0,0,0,0,0,0,0],"id":19,"left_children":[1,3,5,7,9,11,-1,13,15,17,19,-1,-1,21,23,25,27,29,31,33,35,37,39,-1,41,43,45,47,49,51,53,55,57,59,61,63,65,-1,-1,-1,-1,-1,-1,-1,-1,-1,-1,-1,-1,-1,-1,-1,-1,-1,-1,-1,-1,-1,-1,-1,-1,-1,-1,-1,-1,-1,-1],"loss_changes":[6.9739494E0,5.5968094E0,5.657196E-1,1.5251765E1,8.190247E0,3.726139E-1,0E0,5.061652E0,6.789356E0,3.897541E0,7.352759E0,0E0,0E0,5.3615074E0,1.6471691E0,7.5323515E0,8.755953E0,3.321766E0,1.0939064E0,6.4423294E0,5.398529E0,6.2367578E0,2.4690204E0,0E0,2.0078812E0,5.6505933E0,9.5355015E0,2.8320122E0,3.5486102E0,6.624422E-1,3.0156703E0,1.2453038E0,4.6559525E-1,5.4961953E0,7.950864E0,6.1551056E0,4.174699E0,0E0,0E0,0E0,0E0,0E0,0E0,0E0,0E0,0E0,0E0,0E0,0E0,0E0,0E0,0E0,0E0,0E0,0E0,0E0,0E0,0E0,0E0,0E0,0E0,0E0,0E0,0E0,0E0,0E0,0E0],"parents":[2147483647,0,0,1,1,2,2,3,3,4,4,5,5,7,7,8,8,9,9,10,10,13,13,14,14,15,15,16,16,17,17,18,18,19,19,20,20,21,21,22,22,24,24,25,25,26,26,27,27,28,28,29,29,30,30,31,31,32,32,33,33,34,34,35,35,36,36],"right_children":[2,4,6,8,10,12,-1,14,16,18,20,-1,-1,22,24,26,28,30,32,34,36,38,40,-1,42,44,46,48,50,52,54,56,58,60,62,64,66,-1,-1,-1,-1,-1,-1,-1,-1,-1,-1,-1,-1,-1,-1,-1,-1,-1,-1,-1,-1,-1,-1,-1,-1,-1,-1,-1,-1,-1,-1],"split_conditions":[2E1,5.311E3,9.8E-1,5.094E3,5.651E3,7.832E3,-3.6199093E-2,7.8E1,5.1E-1,5.499E3,5.812E3,-2.8661537E-1,-7.538135E-2,4.7E-1,3.256E3,6.68E1,1.1E-1,1E1,5E-2,7.1E-1,7E-1,5.2E-1,7.6E-1,6.27381E-2,2.9142E2,1.913E1,3.8E-1,6E0,1.1721E2,9.3E-1,9.2E-1,4.252E1,9.3E-1,2.5E-1,6.815E1,2E-2,8.4E-1,-1.0725039E-1,3.9287707E-1,-2.5741848E-1,8.107673E-2,-2.4091776E-1,8.417498E-2,2.9526114E-1,-1.2455658E-1,-6.5564327E-3,4.7275618E-1,3.2748405E-2,5.4966956E-1,-1.7155913E-1,7.679498E-2,-2.548595E-1,-1.169951E-3,-8.882729E-2,2.0852242E-1,1.4864533E-1,-1.7373168E-1,-2.6759344E-1,-1.0932035E-1,1.9957544E-1,-1.7739546E-1,6.042362E-1,-2.2479587E-3,3.3721188E-1,-1.69154E-1,-5.4572545E-2,2.1650687E-1],"split_indices":[1,0,6,0,0,0,0,2,3,0,0,0,0,5,0,2,5,1,6,4,7,4,3,0,2,2,5,8,2,6,7,2,3,4,2,3,3,0,0,0,0,0,0,0,0,0,0,0,0,0,0,0,0,0,0,0,0,0,0,0,0,0,0,0,0,0,0],"split_type":[0,0,0,0,0,0,0,0,0,0,0,0,0,0,0,0,0,0,0,0,0,0,0,0,0,0,0,0,0,0,0,0,0,0,0,0,0,0,0,0,0,0,0,0,0,0,0,0,0,0,0,0,0,0,0,0,0,0,0,0,0,0,0,0,0,0,0],"sum_hessian":[3.382918E2,3.144763E2,2.3815533E1,1.0757285E2,2.0690343E2,2.2544985E1,1.2705483E0,5.2583046E1,5.498981E1,9.122906E1,1.1567437E2,2.0879614E1,1.6653703E0,1.5457402E1,3.712564E1,2.7569216E1,2.7420593E1,4.0177433E1,5.105162E1,1.9564798E1,9.6109566E1,7.3625455E0,8.094857E0,1.4546286E0,3.5671013E1,1.22356615E1,1.5333554E1,3.366234E0,2.405436E1,1.3147225E1,2.7030209E1,2.3783798E0,4.867324E1,1.279396E1,6.770839E0,6.568531E1,3.0424257E1,3.6125748E0,3.7499704E0,5.954295E0,2.140562E0,3.4343292E1,1.3277209E0,3.0220246E0,9.213636E0,5.7235546E0,9.61E0,1.6923542E0,1.6738799E0,1.7541792E1,6.512568E0,1.2140646E1,1.0065796E0,2.4498386E1,2.5318222E0,1.0055761E0,1.3728037E0,4.4957794E1,3.7154465E0,4.6384673E0,8.155492E0,2.9756002E0,3.795239E0,1.3319225E0,6.4353386E1,2.5063396E1,5.3608613E0],"tree_param":{"num_deleted":"0","num_feature":"10","num_nodes":"67","size_leaf_vector":"1"}},{"base_weights":[-3.046423E-1,-2.67185E-1,-8.468572E-1,-6.967028E-1,-2.251536E-1,-8.912405E-1,-3.0840702E-2,1.1301171E-1,-7.8517103E-1,-8.3471847E-1,-1.959341E-1,-2.822633E-1,-6.4688995E-2,-1.7295758E-1,2.5787112E-1,-8.5728693E-1,-1.061938E-1,-6.516755E-2,-2.718385E-1,-2.3423548E-1,1.962478E-1,-3.0303169E-2,-8.996267E-1,-1.7196004E-1,1.4715871E-1,1.8193735E-1,-2.699946E-1,-1.3571163E-1,9.97871E-1,-2.8415778E-1,-4.9794354E-2,1.3047668E-1,-1.8192264E-1,-9.3465865E-2,2.8943188E-2,-1.0376676E-1,2.8536463E-1,4.2909294E-1,-1.6600564E-1],"categories":[],"categories_nodes":[],"categories_segments":[],"categories_sizes":[],"default_left":[0,0,0,0,0,0,0,0,0,0,0,0,0,0,0,0,0,0,0,0,0,0,0,0,0,0,0,0,0,0,0,0,0,0,0,0,0,0,0],"id":20,"left_children":[1,3,5,7,9,11,-1,13,15,17,19,-1,-1,-1,-1,21,23,-1,-1,25,27,-1,29,-1,-1,31,33,35,37,-1,-1,-1,-1,-1,-1,-1,-1,-1,-1],"loss_changes":[6.0337315E0,5.0743866E0,5.5088234E-1,1.9047222E0,4.56384E0,4.084797E-1,0E0,2.2309716E0,1.0341654E0,3.2498932E-1,3.8700886E0,0E0,0E0,0E0,0E0,5.697756E-1,1.214107E0,0E0,0E0,3.507512E0,6.3077965E0,0E0,5.201826E-1,0E0,0E0,4.050124E0,3.2954016E0,4.27726E0,5.4282346E0,0E0,0E0,0E0,0E0,0E0,0E0,0E0,0E0,0E0,0E0],"parents":[2147483647,0,0,1,1,2,2,3,3,4,4,5,5,7,7,8,8,9,9,10,10,15,15,16,16,19,19,20,20,22,22,25,25,26,26,27,27,28,28],"right_children":[2,4,6,8,10,12,-1,14,16,18,20,-1,-1,-1,-1,22,24,-1,-1,26,28,-1,30,-1,-1,32,34,36,38,-1,-1,-1,-1,-1,-1,-1,-1,-1,-1],"split_conditions":[2E1,7E0,9.8E-1,8E-2,5E-2,7.832E3,-3.0840702E-2,7.7E-1,9.3E-1,9E0,9.3E-1,-2.822633E-1,-6.4688995E-2,-1.7295758E-1,2.5787112E-1,6E-2,9.122E1,-6.516755E-2,-2.718385E-1,7E-2,9.445E1,-3.0303169E-2,9.3E-1,-1.7196004E-1,1.4715871E-1,7.7E-1,9E0,8.8E-1,7.7E-1,-2.8415778E-1,-4.9794354E-2,1.3047668E-1,-1.8192264E-1,-9.3465865E-2,2.8943188E-2,-1.0376676E-1,2.8536463E-1,4.2909294E-1,-1.6600564E-1],"split_indices":[1,1,6,9,9,0,0,7,5,1,7,0,0,0,0,7,2,0,0,6,2,0,6,0,0,9,8,5,5,0,0,0,0,0,0,0,0,0,0],"split_type":[0,0,0,0,0,0,0,0,0,0,0,0,0,0,0,0,0,0,0,0,0,0,0,0,0,0,0,0,0,0,0,0,0,0,0,0,0,0,0],"sum_hessian":[3.0722394E2,2.8876804E2,1.8455904E1,2.4350912E1,2.644171E2,1.7230293E1,1.2256118E0,2.371165E0,2.1979748E1,1.083407E1,2.5358305E2,1.5685262E1,1.5450312E0,1.351057E0,1.020108E0,1.9631971E1,2.347776E0,1.542007E0,9.292064E0,2.3138792E2,2.2195135E1,1.2203152E0,1.8411657E1,1.3391513E0,1.0086248E0,1.7985107E1,2.1340282E2,1.628293E1,5.9122047E0,1.7017265E1,1.394392E0,1.3955133E1,4.0299735E0,1.9180211E2,2.1600708E1,1.4215812E1,2.0671182E0,4.684297E0,1.2279075E0],"tree_param":{"num_deleted":"0","num_feature":"10","num_nodes":"39","size_leaf_vector":"1"}},{"base_weights":[-2.4510849E-1,-1.8849157E-1,-5.840066E-1,-6.3673645E-1,-1.4581086E-1,-8.5289186E-1,-3.007499E-1,1.04050614E-1,-7.129523E-1,-7.724881E-1,-1.2013366E-1,1.0949983E-1,-2.844125E-1,-4.035895E-1,2.0330454E-1,-8.6168975E-1,-2.7000192E-1,-2.9931543E-2,-2.6058653E-1,-2.1187322E-1,3.6165684E-2,1.878672E-1,-6.560222E-1,-2.774867E-1,-2.6663922E-2,-2.3292883E-1,5.5696225E-1,-5.410161E-2,-7.444904E-1,3.870628E-1,-1.681832E-1,6.8083787E-1,-1.9873856E-1,-8.1496584E-1,-1.0399116E-1,-4.4043448E-2,2.9561543E-1,-1.18699245E-1,2.9073084E-2,-2.3774038E-1,-3.5974372E-2,2.7032731E-2,3.4548718E-1,-1.1858635E-1,6.0281716E-2,-1.6704498E-1,3.858822E-1,-6.557052E-4,-2.6946643E-1,1.24094084E-1,-1.8357365E-1],"categories":[],"categories_nodes":[],"categories_segments":[],"categories_sizes":[],"default_left":[0,0,0,0,0,0,0,0,0,0,0,0,0,0,0,0,0,0,0,0,0,0,0,0,0,0,0,0,0,0,0,0,0,0,0,0,0,0,0,0,0,0,0,0,0,0,0,0,0,0,0],"id":21,"left_children":[1,3,5,7,9,11,13,-1,15,17,19,-1,-1,21,-1,23,25,-1,-1,27,29,31,33,-1,-1,-1,35,37,39,41,43,45,-1,47,49,-1,-1,-1,-1,-1,-1,-1,-1,-1,-1,-1,-1,-1,-1,-1,-1],"loss_changes":[5.340906E0,4.592476E0,2.8045425E0,1.8211117E0,3.5262537E0,2.672202E0,2.398319E0,0E0,1.0726223E0,4.739251E-1,3.1226156E0,0E0,0E0,3.069771E0,0E0,6.2063694E-1,3.1280873E0,0E0,0E0,1.1475185E1,5.887729E0,3.2515247E0,1.1484132E0,0E0,0E0,0E0,1.0573308E0,5.5470247E0,8.4103966E-1,6.7500787E0,4.4397416E0,4.2546544E0,0E0,7.265682E-1,1.380576E0,0E0,0E0,0E0,0E0,0E0,0E0,0E0,0E0,0E0,0E0,0E0,0E0,0E0,0E0,0E0,0E0],"parents":[2147483647,0,0,1,1,2,2,3,3,4,4,5,5,6,6,8,8,9,9,10,10,13,13,15,15,16,16,19,19,20,20,21,21,22,22,26,26,27,27,28,28,29,29,30,30,31,31,33,33,34,34],"right_children":[2,4,6,8,10,12,14,-1,16,18,20,-1,-1,22,-1,24,26,-1,-1,28,30,32,34,-1,-1,-1,36,38,40,42,44,46,-1,48,50,-1,-1,-1,-1,-1,-1,-1,-1,-1,-1,-1,-1,-1,-1,-1,-1],"split_conditions":[1.7E1,7E0,5.5E-1,3.596E3,5E-2,5E-2,9.8E-1,1.04050614E-1,1.0699E2,1.6E-1,5.651E3,1.0949983E-1,-2.844125E-1,5.31E3,2.0330454E-1,9.3E-1,6E0,-2.9931543E-2,-2.6058653E-1,5.499E3,5.814E3,2E1,5.921E3,-2.774867E-1,-2.6663922E-2,-2.3292883E-1,3.9E-1,5.094E3,9.3E-1,8.173E1,7.542E3,3.4E-1,-1.9873856E-1,7E-2,4.4E-1,-4.4043448E-2,2.9561543E-1,-1.18699245E-1,2.9073084E-2,-2.3774038E-1,-3.5974372E-2,2.7032731E-2,3.4548718E-1,-1.1858635E-1,6.0281716E-2,-1.6704498E-1,3.858822E-1,-6.557052E-4,-2.6946643E-1,1.24094084E-1,-1.8357365E-1],"split_indices":[1,1,4,0,9,6,6,0,2,7,0,0,0,0,0,6,1,0,0,0,0,1,0,0,0,0,3,0,9,2,0,6,0,6,6,0,0,0,0,0,0,0,0,0,0,0,0,0,0,0,0],"split_type":[0,0,0,0,0,0,0,0,0,0,0,0,0,0,0,0,0,0,0,0,0,0,0,0,0,0,0,0,0,0,0,0,0,0,0,0,0,0,0,0,0,0,0,0,0,0,0,0,0,0,0],"sum_hessian":[2.8309244E2,2.4390193E2,3.919049E1,1.9994589E1,2.2390735E2,1.90736E1,2.0116892E1,1.1825813E0,1.8812006E1,7.668379E0,2.1623897E2,1.1766568E0,1.7896944E1,1.873521E1,1.3816797E0,1.3375373E1,5.4366336E0,1.2136241E0,6.454755E0,1.3603687E2,8.02021E1,5.6807747E0,1.3054437E1,1.2181282E1,1.1940911E0,3.4096777E0,2.0269556E0,1.05798775E2,3.0238089E1,2.9187958E1,5.101415E1,3.7221913E0,1.9585831E0,9.766198E0,3.288239E0,1.015729E0,1.0112267E0,3.193877E1,7.386E1,2.7831379E1,2.4067094E0,2.1827908E1,7.3600507E0,3.153882E1,1.9475328E1,1.2490804E0,2.473111E0,1.0027848E0,8.763413E0,1.7204659E0,1.567773E0],"tree_param":{"num_deleted":"0","num_feature":"10","num_nodes":"51","size_leaf_vector":"1"}},{"base_weights":[-1.9926812E-1,-1.6961901E-1,-7.689884E-1,-1.7032301E-2,-2.5757584E-1,-1.5545717E-1,-2.7133098E-1,-1.19969256E-1,8.297514E-1,-4.8343956E-1,-1.0991669E-1,-1.8195681E-1,1.4742914E-1,1.198087E0,-1.827528E-1,6.804446E-1,1.8719648E-1,-8.440986E-1,-3.212573E-1,1.1965914E0,-1.5161768E-1,5.3194654E-1,4.4411056E-2,2.649997E-1,-2.6224872E-1,-2.246475E-1,7.765281E-1,-2.4215626E-2,-8.895133E-1,-8.026309E-2,-5.842213E-1,-1.623944E-1,7.3995775E-1,-3.84135E-2,-6.3448113E-1,4.6249977E-1,-2.232254E-2,-2.34615E-1,-4.151028E-2,4.1675374E-1,-1.7755638E-1,-2.8198835E-1,-6.3601494E-2,-1.856691E-1,1.7755322E-2,-2.0723395E-1,6.952228E-2,-6.3695736E-2,8.5525915E-2,-2.1448556E-1,1.0394644E-1],"categories":[],"categories_nodes":[],"categories_segments":[],"categories_sizes":[],"default_left":[0,0,0,0,0,0,0,0,0,0,0,0,0,0,0,0,0,0,0,0,0,0,0,0,0,0,0,0,0,0,0,0,0,0,0,0,0,0,0,0,0,0,0,0,0,0,0,0,0,0,0],"id":22,"left_children":[1,3,5,7,9,11,-1,13,15,17,19,-1,-1,21,23,-1,25,27,29,31,33,-1,-1,35,37,-1,39,-1,41,43,45,-1,-1,47,49,-1,-1,-1,-1,-1,-1,-1,-1,-1,-1,-1,-1,-1,-1,-1,-1],"loss_changes":[4.383003E0,3.4215236E0,9.342823E-1,8.328853E0,5.344822E0,1.3329484E0,0E0,7.2571316E0,9.14983E0,3.4541502E0,5.58419E0,0E0,0E0,2.1525636E0,2.990087E0,0E0,5.1326303E0,5.918093E-1,2.8395782E0,8.352832E0,5.2770443E0,0E0,0E0,5.690884E0,4.4111247E0,0E0,5.4781017E0,0E0,4.1481018E-1,1.9088342E0,2.0400367E0,0E0,0E0,4.5404077E0,1.6966381E0,0E0,0E0,0E0,0E0,0E0,0E0,0E0,0E0,0E0,0E0,0E0,0E0,0E0,0E0,0E0,0E0],"parents":[2147483647,0,0,1,1,2,2,3,3,4,4,5,5,7,7,8,8,9,9,10,10,13,13,14,14,16,16,17,17,18,18,19,19,20,20,23,23,24,24,26,26,28,28,29,29,30,30,33,33,34,34],"right_children":[2,4,6,8,10,12,-1,14,16,18,20,-1,-1,22,24,-1,26,28,30,32,34,-1,-1,36,38,-1,40,-1,42,44,46,-1,-1,48,50,-1,-1,-1,-1,-1,-1,-1,-1,-1,-1,-1,-1,-1,-1,-1,-1],"split_conditions":[2E1,5.311E3,1.8E-1,5.31E3,5.651E3,7.6E-1,-2.7133098E-1,2.47E0,1.9E-1,1E1,2.22E0,-1.8195681E-1,1.4742914E-1,1.4E1,1.4E-1,6.804446E-1,3.5E-1,7E-2,5.499E3,5.4E-1,1.6E1,5.3194654E-1,4.4411056E-2,1.6E-1,3E-1,-2.246475E-1,6.6E-1,-2.4215626E-2,9.3E-1,1.8E-1,9.1E-1,-1.623944E-1,7.3995775E-1,7E-1,2.1063E2,4.6249977E-1,-2.232254E-2,-2.34615E-1,-4.151028E-2,4.1675374E-1,-1.7755638E-1,-2.8198835E-1,-6.3601494E-2,-1.856691E-1,1.7755322E-2,-2.0723395E-1,6.952228E-2,-6.3695736E-2,8.5525915E-2,-2.1448556E-1,1.0394644E-1],"split_indices":[1,0,3,0,0,4,0,2,3,1,2,0,0,1,7,0,5,4,0,9,1,0,0,4,7,0,4,0,6,5,9,0,0,7,2,0,0,0,0,0,0,0,0,0,0,0,0,0,0,0,0],"split_type":[0,0,0,0,0,0,0,0,0,0,0,0,0,0,0,0,0,0,0,0,0,0,0,0,0,0,0,0,0,0,0,0,0,0,0,0,0,0,0,0,0,0,0,0,0,0,0,0,0,0,0],"sum_hessian":[2.6619867E2,2.5426411E2,1.1934566E1,9.341033E1,1.6085378E2,2.5466926E0,9.387874E0,8.40512E1,9.359132E0,6.2688934E1,9.816485E1,1.5372139E0,1.0094788E0,2.9994273E0,8.105177E1,2.1087282E0,7.250404E0,1.8141483E1,4.4547455E1,2.1796918E0,9.598515E1,1.4930876E0,1.5063397E0,1.1868754E1,6.918302E1,2.6966865E0,4.5537176E0,1.1746168E0,1.6966866E1,2.3925798E1,2.0621655E1,1.1625236E0,1.0171683E0,7.863034E1,1.7354815E1,1.7487406E0,1.0120014E1,1.2292245E1,5.6890774E1,3.1349452E0,1.4187722E0,1.5430517E1,1.5363483E0,4.213275E0,1.9712524E1,1.8375383E1,2.2462704E0,5.1362694E1,2.7267647E1,1.6289717E1,1.0650969E0],"tree_param":{"num_deleted":"0","num_feature":"10","num_nodes":"51","size_leaf_vector":"1"}},{"base_weights":[-1.5853068E-1,-8.16991E-2,-3.4040523E-1,-1.11603566E-1,1.3085318E0,-7.158926E-1,-2.530665E-1,-2.1580577E-1,7.8825444E-2,-1.0586834E-2,5.439447E-1,1.500868E-1,-2.7480784E-1,3.667423E-1,-3.1419143E-1,-2.7162912E-1,4.2406434E-1,5.2632016E-1,-2.3839292E-1,-5.818856E-2,1.4656712E-1,8.6793935E-1,-3.7671036E-1,-3.5204244E-1,2.357838E-1,-3.1095064E-1,7.731697E-1,1.0359836E0,-5.851338E-1,-1.7232718E-1,9.4467443E-1,9.688642E-3,-6.086923E-1,3.942004E-1,8.0679654E-4,-1.6038612E-1,-6.505342E-3,-2.670099E-1,-2.450944E-1,1.0601405E-2,-1.1278397E-1,4.762234E-1,-1.7019303E-1,4.7964886E-1,-8.377196E-2,-2.0895344E-1,-3.345461E-2,-2.3922457E-1,8.848414E-2,6.3919723E-1,1.2174244E-1,1.23783775E-1,-1.2586127E-1,-2.1591358E-1,1.21663146E-1,8.958411E-2,-1.3000402E-1],"categories":[],"categories_nodes":[],"categories_segments":[],"categories_sizes":[],"default_left":[0,0,0,0,0,0,0,0,0,0,0,0,0,0,0,0,0,0,0,0,0,0,0,0,0,0,0,0,0,0,0,0,0,0,0,0,0,0,0,0,0,0,0,0,0,0,0,0,0,0,0,0,0,0,0,0,0],"id":23,"left_children":[1,3,5,7,9,11,13,15,17,-1,-1,19,-1,21,23,25,27,29,31,-1,-1,33,35,37,-1,39,41,43,45,47,49,51,53,-1,-1,-1,-1,-1,55,-1,-1,-1,-1,-1,-1,-1,-1,-1,-1,-1,-1,-1,-1,-1,-1,-1,-1],"loss_changes":[3.5167637E0,7.6145344E0,2.2789907E0,3.5249097E0,2.6824684E0,2.49617E0,2.4795918E0,4.20605E0,9.1047125E0,0E0,0E0,4.9232665E-1,0E0,2.58633E0,2.6645718E0,4.5930295E0,6.5224333E0,7.923205E0,3.4695256E0,0E0,0E0,1.5111551E0,1.6438633E-1,3.0112667E0,0E0,2.327423E0,5.407854E0,5.128612E0,1.4679623E-1,3.3868186E0,9.847155E0,4.248063E0,1.99682E0,0E0,0E0,0E0,0E0,0E0,5.062888E0,0E0,0E0,0E0,0E0,0E0,0E0,0E0,0E0,0E0,0E0,0E0,0E0,0E0,0E0,0E0,0E0,0E0,0E0],"parents":[2147483647,0,0,1,1,2,2,3,3,4,4,5,5,6,6,7,7,8,8,11,11,13,13,14,14,15,15,16,16,17,17,18,18,21,21,22,22,23,23,25,25,26,26,27,27,28,28,29,29,30,30,31,31,32,32,38,38],"right_children":[2,4,6,8,10,12,14,16,18,-1,-1,20,-1,22,24,26,28,30,32,-1,-1,34,36,38,-1,40,42,44,46,48,50,52,54,-1,-1,-1,-1,-1,56,-1,-1,-1,-1,-1,-1,-1,-1,-1,-1,-1,-1,-1,-1,-1,-1,-1,-1],"split_conditions":[7.1E-1,7E-1,7.6E-1,4.5E-1,3.6E-1,1.8E-1,7.8E-1,9.5E-1,5.5E-1,-1.0586834E-2,5.439447E-1,5.7E-1,-2.7480784E-1,5.9E-1,9.9E-1,9.8E-1,5.712E3,5.41E1,6.2E-1,-5.818856E-2,1.4656712E-1,5.6E-1,5.9E-1,5.094E3,2.357838E-1,1.27E1,1.3E1,7E-1,8.4E-1,4E0,2.4E-1,1.3E1,1.9E1,3.942004E-1,8.0679654E-4,-1.6038612E-1,-6.505342E-3,-2.670099E-1,5.311E3,1.0601405E-2,-1.1278397E-1,4.762234E-1,-1.7019303E-1,4.7964886E-1,-8.377196E-2,-2.0895344E-1,-3.345461E-2,-2.3922457E-1,8.848414E-2,6.3919723E-1,1.2174244E-1,1.23783775E-1,-1.2586127E-1,-2.1591358E-1,1.21663146E-1,8.958411E-2,-1.3000402E-1],"split_indices":[5,5,5,5,4,4,5,7,5,0,0,9,0,9,4,3,0,2,4,0,0,4,7,0,0,2,1,9,4,8,7,1,1,0,0,0,0,0,0,0,0,0,0,0,0,0,0,0,0,0,0,0,0,0,0,0,0],"split_type":[0,0,0,0,0,0,0,0,0,0,0,0,0,0,0,0,0,0,0,0,0,0,0,0,0,0,0,0,0,0,0,0,0,0,0,0,0,0,0,0,0,0,0,0,0,0,0,0,0,0,0,0,0,0,0,0,0],"sum_hessian":[2.5266022E2,1.7864299E2,7.401723E1,1.7578157E2,2.8614144E0,1.2609525E1,6.1407703E1,1.1352679E2,6.225479E1,1.0350612E0,1.8263533E0,2.414036E0,1.0195489E1,5.0635242E0,5.6344177E1,1.0494656E2,8.580222E0,2.5551102E1,3.670369E1,1.4088807E0,1.0051552E0,2.9245207E0,2.1390035E0,5.512748E1,1.2166978E0,1.0181701E2,3.1295516E0,5.324944E0,3.255278E0,9.789994E0,1.57611065E1,2.2562086E1,1.41416025E1,1.5874866E0,1.3370341E0,1.1303698E0,1.0086337E0,7.927406E0,4.7200073E1,1.6162405E1,8.565461E1,1.8323342E0,1.2972176E0,3.5780811E0,1.7468628E0,2.2544882E0,1.00079E0,3.88559E0,5.9044046E0,4.0011253E0,1.1759981E1,1.1657575E1,1.09045105E1,1.3008109E1,1.1334941E0,1.1988572E1,3.5211502E1],"tree_param":{"num_deleted":"0","num_feature":"10","num_nodes":"57","size_leaf_vector":"1"}},{"base_weights":[-1.2705922E-1,-1.0151413E-1,-7.0560294E-1,-7.074842E-1,-7.552834E-2,-2.6204622E-1,-8.9996286E-2,1.1554777E-1,-2.6524073E-1,-9.835247E-2,5.3880244E-1,1.4939612E-1,-1.6919291E-1,-6.125762E-2,-5.329417E-1,-1.7892003E-1,1.6798506E0,-6.291796E-1,-3.9684474E-2,-2.425306E-2,-8.2611793E-1,2.3596817E-1,-5.8679557E-1,7.0695376E-1,8.3743274E-2,-2.5059494E-1,5.1079746E-2,-8.45164E-2,1.313526E-3,1.8874933E-1,-2.2453259E-1,-2.7030927E-1,-1.465555E-2,-2.2164921E-1,-4.261516E-3],"categories":[],"categories_nodes":[],"categories_segments":[],"categories_sizes":[],"default_left":[0,0,0,0,0,0,0,0,0,0,0,0,0,0,0,0,0,0,0,0,0,0,0,0,0,0,0,0,0,0,0,0,0,0,0],"id":24,"left_children":[1,3,5,7,9,-1,11,-1,-1,13,15,-1,-1,17,19,21,23,25,27,29,31,-1,33,-1,-1,-1,-1,-1,-1,-1,-1,-1,-1,-1,-1],"loss_changes":[3.5378852E0,3.6481762E0,9.714174E-1,2.1831942E0,3.229255E0,0E0,1.1982777E0,0E0,0E0,3.5020146E0,7.072502E0,0E0,0E0,2.4639306E0,2.5321655E0,2.8163917E0,2.4596605E0,1.3562641E0,2.0998363E0,3.919172E0,5.8636E-1,0E0,4.0532768E-1,0E0,0E0,0E0,0E0,0E0,0E0,0E0,0E0,0E0,0E0,0E0,0E0],"parents":[2147483647,0,0,1,1,2,2,3,3,4,4,6,6,9,9,10,10,13,13,14,14,15,15,16,16,17,17,18,18,19,19,20,20,22,22],"right_children":[2,4,6,8,10,-1,12,-1,-1,14,16,-1,-1,18,20,22,24,26,28,30,32,-1,34,-1,-1,-1,-1,-1,-1,-1,-1,-1,-1,-1,-1],"split_conditions":[2E1,6E0,5.816E3,3.64E3,9.8E-1,-2.6204622E-1,2.8E-1,1.1554777E-1,-2.6524073E-1,9.4E-1,7E-1,1.4939612E-1,-1.6919291E-1,5E-2,3.6E-1,1.8E-1,1.3E1,1.3646E2,9E0,1.2E1,1.9569E2,2.3596817E-1,8E-1,7.0695376E-1,8.3743274E-2,-2.5059494E-1,5.1079746E-2,-8.45164E-2,1.313526E-3,1.8874933E-1,-2.2453259E-1,-2.7030927E-1,-1.465555E-2,-2.2164921E-1,-4.261516E-3],"split_indices":[1,1,0,0,9,0,3,0,0,3,3,0,0,9,5,4,1,2,1,1,2,0,4,0,0,0,0,0,0,0,0,0,0,0,0],"split_type":[0,0,0,0,0,0,0,0,0,0,0,0,0,0,0,0,0,0,0,0,0,0,0,0,0,0,0,0,0,0,0,0,0,0,0],"sum_hessian":[2.4323335E2,2.3407352E2,9.159848E0,8.546621E0,2.2552689E2,6.8679566E0,2.291891E0,1.0251882E0,7.5214334E0,2.1825789E2,7.2689977E0,1.0003206E0,1.2915705E0,2.0214456E2,1.6113321E1,4.9798527E0,2.2891448E0,6.366953E0,1.9577762E2,6.2871847E0,9.826138E0,1.2032387E0,3.7766142E0,1.0833964E0,1.2057482E0,5.0261035E0,1.3408495E0,2.9321486E1,1.6645613E2,3.3740652E0,2.9131193E0,8.817113E0,1.0090243E0,2.75482E0,1.0217938E0],"tree_param":{"num_deleted":"0","num_feature":"10","num_nodes":"35","size_leaf_vector":"1"}},{"base_weights":[-9.953799E-2,-1.6605338E-2,-2.3866278E-1,-2.5137237E-1,1.19953066E-1,3.4083495E-1,-3.573511E-1,6.108217E-2,-4.6544662E-1,3.3169368E-1,-1.7874831E-1,6.9161487E-1,-4.4608757E-1,6.978696E-2,-4.8291367E-1,9.9981385E-1,-2.1302997E-1,-5.5895084E-1,2.1343791E-1,6.81114E-1,6.628563E-2,-3.695673E-1,7.1749616E-1,-4.4329554E-1,1.0601948E0,1.4844498E-1,-2.322313E-1,-3.1762406E-1,7.050944E-1,-5.6213653E-1,6.566957E-2,-7.780167E-2,5.3248745E-1,-6.213316E-1,2.6573E-1,-8.477484E-1,-6.911731E-2,1.0152751E0,-2.1226365E-2,-1.5269192E-1,8.44497E-1,-5.8511907E-1,9.116652E-3,1.4668952E0,-4.534812E-1,-1.0798188E-2,-1.7958458E-1,1.3936465E0,-1.6445142E-1,1.7082046E-1,-6.049747E-1,-4.9339813E-1,1.6496147E0,-6.908855E-1,8.402223E-2,6.336117E-1,-5.846662E-1,-1.6563003E-1,1.4455971E-1,-2.2971638E-1,-3.961913E-3,-2.131647E-1,2.1099745E-1,-2.6786247E-1,-1.6700776E-2,2.3077594E-1,-9.808046E-2,-6.8858854E-2,3.895371E-1,1.7345393E-1,-2.3471284E-1,2.4523354E-1,-1.0698642E-1,4.5868215E-1,-1.2603089E-1,6.42937E-3,-2.0804879E-1,3.343241E-1,-6.327012E-2,-3.737185E-2,6.2783253E-1,-1.312008E-3,-1.8698911E-1,2.7533019E-2,5.2851033E-1,-1.9179825E-1,2.3724334E-1,8.638944E-2,-2.5244525E-1,-1.9870721E-1,-4.2575565E-3,6.165582E-1,1.7386544E-1,4.870208E-2,-2.1851471E-1,5.108017E-1,-1.4316306E-1,-1.6572803E-1,3.5274017E-1,-2.1073753E-1,-2.9610569E-2],"categories":[],"categories_nodes":[],"categories_segments":[],"categories_sizes":[],"default_left":[0,0,0,0,0,0,0,0,0,0,0,0,0,0,0,0,0,0,0,0,0,0,0,0,0,0,0,0,0,0,0,0,0,0,0,0,0,0,0,0,0,0,0,0,0,0,0,0,0,0,0,0,0,0,0,0,0,0,0,0,0,0,0,0,0,0,0,0,0,0,0,0,0,0,0,0,0,0,0,0,0,0,0,0,0,0,0,0,0,0,0,0,0,0,0,0,0,0,0,0,0],"id":25,"left_children":[1,3,5,7,9,11,13,15,17,19,21,23,25,27,29,31,33,35,-1,37,39,41,43,45,47,-1,-1,49,51,53,55,57,-1,59,61,63,65,67,69,71,73,75,77,79,81,-1,-1,83,-1,85,87,89,91,93,95,97,99,-1,-1,-1,-1,-1,-1,-1,-1,-1,-1,-1,-1,-1,-1,-1,-1,-1,-1,-1,-1,-1,-1,-1,-1,-1,-1,-1,-1,-1,-1,-1,-1,-1,-1,-1,-1,-1,-1,-1,-1,-1,-1,-1,-1],"loss_changes":[2.7262084E0,4.817464E0,6.19492E0,3.723295E0,6.0732827E0,4.593195E0,3.9905062E0,6.2195435E0,4.0177584E0,5.147624E0,7.122001E0,5.1250434E0,2.0477204E0,4.564178E0,2.5203257E0,4.691632E0,3.8580098E0,4.331706E0,0E0,5.6690893E0,5.7405915E0,2.7574215E0,7.139497E0,1.9564909E-1,5.4272547E0,0E0,0E0,1.7375939E0,8.727169E0,4.220643E0,3.3644807E0,1.1257478E0,0E0,9.1147757E-1,4.5138445E0,6.4498425E-1,2.9748983E0,6.05303E0,4.438675E0,5.5433054E0,7.033859E0,1.4282618E0,3.4486263E0,4.976983E0,2.7510685E-1,0E0,0E0,3.4244738E0,0E0,3.0635126E0,1.8370309E0,3.0238372E-1,6.05525E-1,1.4565563E0,9.174623E0,3.7407813E0,1.7675555E-1,0E0,0E0,0E0,0E0,0E0,0E0,0E0,0E0,0E0,0E0,0E0,0E0,0E0,0E0,0E0,0E0,0E0,0E0,0E0,0E0,0E0,0E0,0E0,0E0,0E0,0E0,0E0,0E0,0E0,0E0,0E0,0E0,0E0,0E0,0E0,0E0,0E0,0E0,0E0,0E0,0E0,0E0,0E0,0E0],"parents":[2147483647,0,0,1,1,2,2,3,3,4,4,5,5,6,6,7,7,8,8,9,9,10,10,11,11,12,12,13,13,14,14,15,15,16,16,17,17,19,19,20,20,21,21,22,22,23,23,24,24,27,27,28,28,29,29,30,30,31,31,33,33,34,34,35,35,36,36,37,37,38,38,39,39,40,40,41,41,42,42,43,43,44,44,47,47,49,49,50,50,51,51,52,52,53,53,54,54,55,55,56,56],"right_children":[2,4,6,8,10,12,14,16,18,20,22,24,26,28,30,32,34,36,-1,38,40,42,44,46,48,-1,-1,50,52,54,56,58,-1,60,62,64,66,68,70,72,74,76,78,80,82,-1,-1,84,-1,86,88,90,92,94,96,98,100,-1,-1,-1,-1,-1,-1,-1,-1,-1,-1,-1,-1,-1,-1,-1,-1,-1,-1,-1,-1,-1,-1,-1,-1,-1,-1,-1,-1,-1,-1,-1,-1,-1,-1,-1,-1,-1,-1,-1,-1,-1,-1,-1,-1],"split_conditions":[1.4E1,4.756E1,1.988E1,3.9E-1,5.8E-1,6.7E-1,2E-1,5.31E3,7.922E3,4.2E-1,1.3E1,2.2E-1,2.3E-1,6.8E-1,1.6023E2,5.8E-1,1.1E1,6.4E-1,2.1343791E-1,1.2954E2,9.1E-1,5.651E3,5.2E-1,4.4E-1,1.8E1,1.4844498E-1,-2.322313E-1,2.4E-1,4.7E-1,8.6E-1,5E-1,5.9E-1,5.3248745E-1,8E0,2.7E-1,9.7E-1,2.22E0,1E-1,5.1E-1,1.4E-1,5.533E3,1.4E-1,5.655E3,7.6E-1,7.6E-1,-1.0798188E-2,-1.7958458E-1,5.31E3,-1.6445142E-1,7.54E1,4.505E1,6E-1,1.6E1,4.131E3,8.9E-1,1.6E-1,7.5E-1,-1.6563003E-1,1.4455971E-1,-2.2971638E-1,-3.961913E-3,-2.131647E-1,2.1099745E-1,-2.6786247E-1,-1.6700776E-2,2.3077594E-1,-9.808046E-2,-6.8858854E-2,3.895371E-1,1.7345393E-1,-2.3471284E-1,2.4523354E-1,-1.0698642E-1,4.5868215E-1,-1.2603089E-1,6.42937E-3,-2.0804879E-1,3.343241E-1,-6.327012E-2,-3.737185E-2,6.2783253E-1,-1.312008E-3,-1.8698911E-1,2.7533019E-2,5.2851033E-1,-1.9179825E-1,2.3724334E-1,8.638944E-2,-2.5244525E-1,-1.9870721E-1,-4.2575565E-3,6.165582E-1,1.7386544E-1,4.870208E-2,-2.1851471E-1,5.108017E-1,-1.4316306E-1,-1.6572803E-1,3.5274017E-1,-2.1073753E-1,-2.9610569E-2],"split_indices":[1,2,2,6,4,5,3,0,0,9,1,2,9,7,2,4,1,3,0,2,9,0,5,9,1,0,0,7,5,4,4,9,0,8,5,7,2,9,5,7,0,3,0,4,4,0,0,0,0,2,2,9,1,0,4,4,9,0,0,0,0,0,0,0,0,0,0,0,0,0,0,0,0,0,0,0,0,0,0,0,0,0,0,0,0,0,0,0,0,0,0,0,0,0,0,0,0,0,0,0,0],"split_type":[0,0,0,0,0,0,0,0,0,0,0,0,0,0,0,0,0,0,0,0,0,0,0,0,0,0,0,0,0,0,0,0,0,0,0,0,0,0,0,0,0,0,0,0,0,0,0,0,0,0,0,0,0,0,0,0,0,0,0,0,0,0,0,0,0,0,0,0,0,0,0,0,0,0,0,0,0,0,0,0,0,0,0,0,0,0,0,0,0,0,0,0,0,0,0,0,0,0,0,0,0],"sum_hessian":[2.3562457E2,1.4832625E2,8.729832E1,5.423917E1,9.408709E1,1.4522122E1,7.27762E1,2.2342941E1,3.1896227E1,5.4993416E1,3.909367E1,1.0128389E1,4.393734E0,1.6634218E1,5.614198E1,4.451331E0,1.7891611E1,3.0035036E1,1.8611903E0,2.306333E1,3.1930088E1,3.271581E1,6.3778586E0,2.4332752E0,7.6951137E0,1.0043324E0,3.3894014E0,1.0643717E1,5.990501E0,4.9035835E1,7.1061444E0,2.2386963E0,2.212635E0,9.495637E0,8.395973E0,1.8435242E1,1.1599794E1,1.53259535E1,7.7373757E0,2.5545689E1,6.3844E0,2.050115E1,1.2214659E1,3.7348983E0,2.6429605E0,1.0117804E0,1.4214948E0,6.484275E0,1.2108388E0,4.0925865E0,6.5511303E0,2.8507864E0,3.1397145E0,4.0830933E1,8.204902E0,3.8070984E0,3.2990458E0,1.2190855E0,1.019611E0,7.4642253E0,2.031412E0,2.4055047E0,5.9904685E0,1.7321161E1,1.1140801E0,2.2616515E0,9.338142E0,2.8754733E0,1.24504795E1,4.4630814E0,3.274294E0,3.914602E0,2.1631086E1,4.0067716E0,2.3776286E0,3.2294133E0,1.7271738E1,1.3529145E0,1.0861744E1,1.2803156E0,2.4545827E0,1.0065956E0,1.6363649E0,1.7045075E0,4.7797675E0,1.7606884E0,2.331898E0,1.3262653E0,5.224865E0,1.8250954E0,1.0256912E0,1.6091719E0,1.5305426E0,1.5787052E0,3.9252228E1,1.588809E0,6.616092E0,1.1884596E0,2.6186388E0,2.2968273E0,1.0022185E0],"tree_param":{"num_deleted":"0","num_feature":"10","num_nodes":"101","size_leaf_vector":"1"}},{"base_weights":[-9.216913E-2,-7.3102593E-1,-7.3707454E-2,-3.885495E-2,-2.4550325E-1,-5.4454397E-2,-6.142666E-1,-2.1005189E-2,-3.00063E-1,-2.067869E-3,-2.4800941E-1,2.7475499E-2,-2.8070676E-1,2.8139131E-2,-6.881602E-1,1.4959829E-1,-1.504919E-1,-8.6648185E-3,1.9920549E0,-6.9749963E-1,-4.4834246E-3,-5.2804196E-1,5.2755547E-1,-7.486687E-1,-3.1438614E-3,-1.2792261E-2,1.6549626E-1,1.488434E-1,7.4822384E-1,-2.7264503E-1,1.5768653E-1,9.2085436E-2,-1.503787E-1,3.3095223E-3,-2.4432646E-1,-1.7002258E-1,3.8657394E-1,-7.439117E-2,-2.6919076E-1],"categories":[],"categories_nodes":[],"categories_segments":[],"categories_sizes":[],"default_left":[0,0,0,0,0,0,0,0,0,0,0,0,0,0,0,0,0,0,0,0,0,0,0,0,0,0,0,0,0,0,0,0,0,0,0,0,0,0,0],"id":26,"left_children":[1,3,5,-1,-1,7,9,11,13,15,-1,17,19,21,23,-1,-1,25,27,29,31,33,35,37,-1,-1,-1,-1,-1,-1,-1,-1,-1,-1,-1,-1,-1,-1,-1],"loss_changes":[2.7040734E0,2.3307037E-1,2.343409E0,0E0,0E0,1.8144302E0,1.007118E0,2.4771445E0,3.393465E0,1.0008054E0,0E0,1.1816909E1,3.5593212E0,4.532011E0,4.9146128E-1,0E0,0E0,3.1491761E0,1.0202932E0,3.663807E0,3.1888003E0,1.2045867E0,7.866007E0,6.083503E-1,0E0,0E0,0E0,0E0,0E0,0E0,0E0,0E0,0E0,0E0,0E0,0E0,0E0,0E0,0E0],"parents":[2147483647,0,0,1,1,2,2,5,5,6,6,7,7,8,8,9,9,11,11,12,12,13,13,14,14,17,17,18,18,19,19,20,20,21,21,22,22,23,23],"right_children":[2,4,6,-1,-1,8,10,12,14,16,-1,18,20,22,24,-1,-1,26,28,30,32,34,36,38,-1,-1,-1,-1,-1,-1,-1,-1,-1,-1,-1,-1,-1,-1,-1],"split_conditions":[5E0,2.471E1,2E1,-3.885495E-2,-2.4550325E-1,9E-1,1.8E-1,5.941E3,5.4E-1,5.2E-1,-2.4800941E-1,5.921E3,7.542E3,4.6E-1,9.5E-1,1.4959829E-1,-1.504919E-1,8.6E-1,5.8E-1,2.3981E2,8.011E3,1.5E-1,4.3E-1,3E0,-3.1438614E-3,-1.2792261E-2,1.6549626E-1,1.488434E-1,7.4822384E-1,-2.7264503E-1,1.5768653E-1,9.2085436E-2,-1.503787E-1,3.3095223E-3,-2.4432646E-1,-1.7002258E-1,3.8657394E-1,-7.439117E-2,-2.6919076E-1],"split_indices":[1,2,1,0,0,4,3,0,3,5,0,0,0,6,7,0,0,4,7,2,0,6,5,8,0,0,0,0,0,0,0,0,0,0,0,0,0,0,0],"split_type":[0,0,0,0,0,0,0,0,0,0,0,0,0,0,0,0,0,0,0,0,0,0,0,0,0,0,0,0,0,0,0,0,0,0,0,0,0,0,0],"sum_hessian":[2.3283673E2,5.4554844E0,2.2738124E2,1.0063442E0,4.4491405E0,2.2062402E2,6.7572136E0,1.9513438E2,2.5489645E1,2.0008292E0,4.7563844E0,1.6519098E2,2.9943394E1,1.4313035E1,1.117661E1,1.0001678E0,1.0006613E0,1.6318463E2,2.006348E0,1.1326991E1,1.8616404E1,6.7445583E0,7.568477E0,1.0164311E1,1.0122987E0,1.547264E2,8.458242E0,1.0037389E0,1.0026091E0,9.877447E0,1.4495438E0,1.1677683E1,6.938721E0,2.6735024E0,4.071056E0,3.2091885E0,4.3592887E0,2.9374259E0,7.226886E0],"tree_param":{"num_deleted":"0","num_feature":"10","num_nodes":"39","size_leaf_vector":"1"}},{"base_weights":[-7.4595354E-2,-6.795662E-1,-5.9563283E-2,-3.7529748E-2,-2.3306768E-1,1.54172275E-2,-1.8878801E-1,-2.6615238E-1,1.0923848E-1,4.023407E-1,-2.5855127E-1,1.6401553E-1,-5.025502E-1,-1.1336265E-2,4.3120527E-1,-8.423096E-2,4.8601958E-1,-1.8136045E-3,-4.9598062E-1,-3.9600402E-1,6.063716E-1,-5.9748226E-1,1.4125612E-1,1.228441E-1,-5.45146E-1,2.9042692E0,6.113746E-4,2.8712586E-1,-4.0164968E-1,-2.2876552E-1,8.121996E-1,-4.7040563E-2,-6.16712E-1,8.981021E-2,-1.873076E-1,-6.1794728E-2,4.2920983E-1,-2.6731393E-1,-1.10519834E-1,-1.0871059E-1,8.417918E-2,-4.902782E-3,-2.3580281E-1,9.537745E-2,1.1851618E0,2.6664197E-1,-4.1519873E-2,-2.3836078E-1,1.2077359E-1,9.9550486E-2,-1.3550666E-1,3.367018E-1,-1.64357E-1,-1.15662105E-1,1.5458497E-1,-2.4716221E-1,-1.03897564E-1],"categories":[],"categories_nodes":[],"categories_segments":[],"categories_sizes":[],"default_left":[0,0,0,0,0,0,0,0,0,0,0,0,0,0,0,0,0,0,0,0,0,0,0,0,0,0,0,0,0,0,0,0,0,0,0,0,0,0,0,0,0,0,0,0,0,0,0,0,0,0,0,0,0,0,0,0,0],"id":27,"left_children":[1,3,5,-1,-1,7,9,11,13,15,17,19,21,23,25,27,-1,29,31,33,35,37,-1,39,41,43,45,-1,47,49,51,53,55,-1,-1,-1,-1,-1,-1,-1,-1,-1,-1,-1,-1,-1,-1,-1,-1,-1,-1,-1,-1,-1,-1,-1,-1],"loss_changes":[2.0441475E0,1.9754696E-1,2.180782E0,0E0,0E0,3.8110404E0,3.5106618E0,3.7505789E0,4.2011085E0,5.5349083E0,4.540148E0,3.5960388E0,2.4551969E0,5.769546E0,3.1386967E1,2.8503652E0,0E0,6.983607E0,2.068553E0,1.2322712E0,5.627451E0,1.1428561E0,0E0,5.034074E0,2.047524E0,1.0571774E1,3.3461928E0,0E0,2.3490353E0,3.8432932E0,4.0914617E0,1.9658861E0,1.418354E0,0E0,0E0,0E0,0E0,0E0,0E0,0E0,0E0,0E0,0E0,0E0,0E0,0E0,0E0,0E0,0E0,0E0,0E0,0E0,0E0,0E0,0E0,0E0,0E0],"parents":[2147483647,0,0,1,1,2,2,5,5,6,6,7,7,8,8,9,9,10,10,11,11,12,12,13,13,14,14,15,15,17,17,18,18,19,19,20,20,21,21,23,23,24,24,25,25,26,26,28,28,29,29,30,30,31,31,32,32],"right_children":[2,4,6,-1,-1,8,10,12,14,16,18,20,22,24,26,28,-1,30,32,34,36,38,-1,40,42,44,46,-1,48,50,52,54,56,-1,-1,-1,-1,-1,-1,-1,-1,-1,-1,-1,-1,-1,-1,-1,-1,-1,-1,-1,-1,-1,-1,-1,-1],"split_conditions":[5E0,2.776E1,1.4E1,-3.7529748E-2,-2.3306768E-1,2.628E1,6.48E0,3.1E-1,5.722E3,5.712E3,4.3E-1,4.9E-1,9.7E-1,8E-1,5.912E3,1.8E-1,4.8601958E-1,8.6E-1,2.2E-1,2.3E-1,5.7E-1,4.2E-1,1.4125612E-1,2.4E-1,6.906E1,5.733E3,7E-2,2.8712586E-1,1.7E1,3E-1,8.3E-1,6.6E-1,5.3E-1,8.981021E-2,-1.873076E-1,-6.1794728E-2,4.2920983E-1,-2.6731393E-1,-1.10519834E-1,-1.0871059E-1,8.417918E-2,-4.902782E-3,-2.3580281E-1,9.537745E-2,1.1851618E0,2.6664197E-1,-4.1519873E-2,-2.3836078E-1,1.2077359E-1,9.9550486E-2,-1.3550666E-1,3.367018E-1,-1.64357E-1,-1.15662105E-1,1.5458497E-1,-2.4716221E-1,-1.03897564E-1],"split_indices":[1,2,1,0,0,2,2,6,0,0,3,9,7,4,0,7,0,4,4,3,3,9,0,6,2,0,6,0,1,9,9,6,9,0,0,0,0,0,0,0,0,0,0,0,0,0,0,0,0,0,0,0,0,0,0,0,0],"split_type":[0,0,0,0,0,0,0,0,0,0,0,0,0,0,0,0,0,0,0,0,0,0,0,0,0,0,0,0,0,0,0,0,0,0,0,0,0,0,0,0,0,0,0,0,0,0,0,0,0,0,0,0,0,0,0,0,0],"sum_hessian":[2.2823164E2,4.46169E0,2.2376994E2,1.007473E0,3.454217E0,1.4216295E2,8.1607E1,3.5071644E1,1.070913E2,8.111148E0,7.349585E1,1.2546763E1,2.2524881E1,7.861516E1,2.8476143E1,6.460519E0,1.6506294E0,3.579623E1,3.7699623E1,5.5832253E0,6.963538E0,2.0875202E1,1.6496795E0,6.343882E1,1.5176341E1,3.3709133E0,2.510523E1,1.0384816E0,5.422037E0,2.8554129E1,7.242101E0,8.284246E0,2.9415377E1,1.3033546E0,4.2798705E0,3.8850455E0,3.0784926E0,7.883309E0,1.2991893E1,1.5246623E1,4.8192196E1,5.083538E0,1.0092803E1,1.3464352E0,2.0244782E0,2.667533E0,2.2437696E1,3.6506517E0,1.7713853E0,7.9850416E0,2.0569086E1,6.03964E0,1.2024614E0,5.3675466E0,2.9167004E0,1.5495887E1,1.391949E1],"tree_param":{"num_deleted":"0","num_feature":"10","num_nodes":"57","size_leaf_vector":"1"}},{"base_weights":[-6.8340525E-2,-1.4276435E-2,-2.1109857E-1,-3.857235E-2,7.9993504E-1,-6.2646794E-1,-1.2650448E-1,-5.5468655E-1,-5.673796E-3,4.3973038E-1,1.1418106E-1,1.3123806E-1,-2.6322287E-1,-3.7309232E-1,4.9465034E-2,1.561615E-1,-7.8756446E-1,3.5332042E-1,-6.530787E-2,-1.6417307E-1,2.0795932E-1,-5.907244E-2,1.3901368E-1,2.2874056E-1,-4.7205654E-1,2.849892E-1,-6.476083E-1,-1.6573787E-1,2.597893E-1,-2.5863954E-1,-4.6433832E-2,7.177533E-1,-1.0493037E-1,6.054126E-1,-1.0709973E-1,-6.589456E-1,2.6219636E-2,-2.5848534E-2,1.0372348E0,-2.6067612E-1,1.312091E-1,4.2188612E-1,5.129056E-2,8.679572E-2,-2.0096946E-1,-3.8677752E-2,7.172049E-1,-1.7063358E-1,-1.5194638E-2,-2.4916045E-1,-3.6067404E-2,2.697773E-1,-1.2913933E-1,1.7725222E-1,-1.09917164E-1,7.895202E-1,-2.851874E-2],"categories":[],"categories_nodes":[],"categories_segments":[],"categories_sizes":[],"default_left":[0,0,0,0,0,0,0,0,0,0,0,0,0,0,0,0,0,0,0,0,0,0,0,0,0,0,0,0,0,0,0,0,0,0,0,0,0,0,0,0,0,0,0,0,0,0,0,0,0,0,0,0,0,0,0,0,0],"id":28,"left_children":[1,3,5,7,9,11,13,15,17,-1,19,21,-1,23,25,27,29,31,33,-1,-1,-1,-1,-1,35,37,39,-1,-1,-1,-1,41,43,45,47,49,51,53,55,-1,-1,-1,-1,-1,-1,-1,-1,-1,-1,-1,-1,-1,-1,-1,-1,-1,-1],"loss_changes":[1.7520572E0,3.3148115E0,2.1129992E0,2.7500827E0,2.0499158E0,2.0742388E0,2.321989E0,1.72977E0,3.3080652E0,0E0,1.7108546E0,4.654382E-1,0E0,2.8575082E0,5.4156265E0,2.102882E0,2.1934271E-1,3.7517538E0,3.7769508E0,0E0,0E0,0E0,0E0,0E0,1.978478E0,5.7578826E0,2.3855617E0,0E0,0E0,0E0,0E0,4.4241505E0,2.5602746E0,1.0688551E1,3.2423248E0,1.3194699E0,3.0609133E0,4.063648E0,1.3232868E1,0E0,0E0,0E0,0E0,0E0,0E0,0E0,0E0,0E0,0E0,0E0,0E0,0E0,0E0,0E0,0E0,0E0,0E0],"parents":[2147483647,0,0,1,1,2,2,3,3,4,4,5,5,6,6,7,7,8,8,10,10,11,11,13,13,14,14,15,15,16,16,17,17,18,18,24,24,25,25,26,26,31,31,32,32,33,33,34,34,35,35,36,36,37,37,38,38],"right_children":[2,4,6,8,10,12,14,16,18,-1,20,22,-1,24,26,28,30,32,34,-1,-1,-1,-1,-1,36,38,40,-1,-1,-1,-1,42,44,46,48,50,52,54,56,-1,-1,-1,-1,-1,-1,-1,-1,-1,-1,-1,-1,-1,-1,-1,-1,-1,-1],"split_conditions":[7.1E-1,7E-1,7.6E-1,5E-2,3E0,1.8E-1,4E0,2.9E-1,1.7E-1,4.3973038E-1,7.1E1,5.651E3,-2.6322287E-1,1.06E0,7.7E-1,4.7E-1,8.8E-1,5.2E-1,4.131E3,-1.6417307E-1,2.0795932E-1,-5.907244E-2,1.3901368E-1,2.2874056E-1,7.8E-1,5.8E-1,9.8E-1,-1.6573787E-1,2.597893E-1,-2.5863954E-1,-4.6433832E-2,3.5E-1,8.937E1,4.112E3,8E0,7.5E-1,8.5E-1,2.2E-1,6E0,-2.6067612E-1,1.312091E-1,4.2188612E-1,5.129056E-2,8.679572E-2,-2.0096946E-1,-3.8677752E-2,7.172049E-1,-1.7063358E-1,-1.5194638E-2,-2.4916045E-1,-3.6067404E-2,2.697773E-1,-1.2913933E-1,1.7725222E-1,-1.09917164E-1,7.895202E-1,-2.851874E-2],"split_indices":[5,5,5,7,8,4,8,9,7,0,2,0,0,2,9,5,6,6,0,0,0,0,0,0,7,9,9,0,0,0,0,4,2,0,1,4,7,9,8,0,0,0,0,0,0,0,0,0,0,0,0,0,0,0,0,0,0],"split_type":[0,0,0,0,0,0,0,0,0,0,0,0,0,0,0,0,0,0,0,0,0,0,0,0,0,0,0,0,0,0,0,0,0,0,0,0,0,0,0,0,0,0,0,0,0,0,0,0,0,0,0,0,0,0,0,0,0],"sum_hessian":[2.2639726E2,1.6500717E2,6.1390083E1,1.6115108E2,3.8560913E0,9.30341E0,5.2086674E1,8.706263E0,1.5244482E2,1.3793535E0,2.4767377E0,2.4332743E0,6.8701353E0,2.122444E1,3.0862234E1,2.2296863E0,6.476577E0,2.1014393E1,1.3143042E2,1.181713E0,1.2950248E0,1.4288067E0,1.0044676E0,1.1639746E0,2.0060467E1,2.3509953E1,7.35228E0,1.2267003E0,1.0029861E0,5.4695997E0,1.006977E0,1.1389991E1,9.624401E0,6.9179163E0,1.2451251E2,1.43541765E1,5.70629E0,1.7319109E1,6.190845E0,6.2720428E0,1.0802373E0,4.3457384E0,7.0442524E0,5.956029E0,3.6683726E0,5.559076E0,1.3588407E0,1.2577003E1,1.1193551E2,1.0475821E1,3.878356E0,1.6269552E0,4.0793343E0,5.899917E0,1.1419191E1,2.0208476E0,4.169997E0],"tree_param":{"num_deleted":"0","num_feature":"10","num_nodes":"57","size_leaf_vector":"1"}},{"base_weights":[-5.5697225E-2,-2.9563156E-1,-1.6442958E-2,-5.142907E-1,1.7188582E-1,5.238536E-1,-6.9837674E-2,-8.842434E-2,-8.4475315E-1,-5.928651E-1,1.3136864E0,1.2563488E0,-3.4487227E-1,3.6612917E-2,-3.1277585E-1,-3.850374E-1,5.973406E-1,-2.7617764E-1,-1.812404E-3,-2.4941297E-1,7.391062E-2,-7.2473705E-2,