{"learner":{"attributes":{"scikit_learn":"{\"_estimator_type\": \"classifier\"}"},"feature_names":["inline_script_count","inline_mean_entropy","pattern_eval","pattern_keylog","pattern_xhr_fetch","pattern_img_exfil","allowlist_miss","suspicious_tld_refs","baseline_hash_miss","har_exfil_posts","har_cross_domain_posts","rum_exfil_posts","risk_score"],"feature_types":["int","float","int","int","int","int","int","int","int","int","int","int","int"],"gradient_booster":{"model":{"gbtree_model_param":{"num_parallel_tree":"1","num_trees":"200"},"iteration_indptr":[0,1,2,3,4,5,6,7,8,9,10,11,12,13,14,15,16,17,18,19,20,21,22,23,24,25,26,27,28,29,30,31,32,33,34,35,36,37,38,39,40,41,42,43,44,45,46,47,48,49,50,51,52,53,54,55,56,57,58,59,60,61,62,63,64,65,66,67,68,69,70,71,72,73,74,75,76,77,78,79,80,81,82,83,84,85,86,87,88,89,90,91,92,93,94,95,96,97,98,99,100,101,102,103,104,105,106,107,108,109,110,111,112,113,114,115,116,117,118,119,120,121,122,123,124,125,126,127,128,129,130,131,132,133,134,135,136,137,138,139,140,141,142,143,144,145,146,147,148,149,150,151,152,153,154,155,156,157,158,159,160,161,162,163,164,165,166,167,168,169,170,171,172,173,174,175,176,177,178,179,180,181,182,183,184,185,186,187,188,189,190,191,192,193,194,195,196,197,198,199,200],"tree_info":[0,0,0,0,0,0,0,0,0,0,0,0,0,0,0,0,0,0,0,0,0,0,0,0,0,0,0,0,0,0,0,0,0,0,0,0,0,0,0,0,0,0,0,0,0,0,0,0,0,0,0,0,0,0,0,0,0,0,0,0,0,0,0,0,0,0,0,0,0,0,0,0,0,0,0,0,0,0,0,0,0,0,0,0,0,0,0,0,0,0,0,0,0,0,0,0,0,0,0,0,0,0,0,0,0,0,0,0,0,0,0,0,0,0,0,0,0,0,0,0,0,0,0,0,0,0,0,0,0,0,0,0,0,0,0,0,0,0,0,0,0,0,0,0,0,0,0,0,0,0,0,0,0,0,0,0,0,0,0,0,0,0,0,0,0,0,0,0,0,0,0,0,0,0,0,0,0,0,0,0,0,0,0,0,0,0,0,0,0,0,0,0,0,0,0,0,0,0,0,0],"trees":[{"base_weights":[6.036967E-9,-3.7744185E-1,1.9999023E-1,-8.1535E-1,2.6714796E-1,-1.2962902E-1,-4.5884427E-2,-4.2565517E-2,6.5005444E-2],"categories":[],"categories_nodes":[],"categories_segments":[],"categories_sizes":[],"default_left":[0,0,0,0,0,0,0,0,0],"id":0,"left_children":[1,3,-1,5,7,-1,-1,-1,-1],"loss_changes":[9.7304664E4,3.0609842E4,0E0,1.1070922E4,1.1637717E4,0E0,0E0,0E0,0E0],"parents":[2147483647,0,0,1,1,3,3,4,4],"right_children":[2,4,-1,6,8,-1,-1,-1,-1],"split_conditions":[8E0,3.8767455E0,1.9999023E-1,5E0,5E0,-1.2962902E-1,-4.5884427E-2,-4.2565517E-2,6.5005444E-2],"split_indices":[12,1,0,12,12,0,0,0,0],"split_type":[0,0,0,0,0,0,0,0,0],"sum_hessian":[1.289045E5,1.0843951E5,2.0464994E4,6.457179E4,4.386772E4,2.7487479E4,3.708431E4,1.5614987E4,2.8252732E4],"tree_param":{"num_deleted":"0","num_feature":"13","num_nodes":"9","size_leaf_vector":"1"}},{"base_weights":[6.924891E-5,-5.167231E-1,4.6490577E-1,-7.7644604E-1,2.5486946E-4,1.7225842E-1,9.30175E-1,-1.02548994E-1,-2.5976587E-2,-3.273961E-2,5.6242675E-2,-1.1149534E-2,6.9231026E-2,6.431331E-2,1.3113381E-1],"categories":[],"categories_nodes":[],"categories_segments":[],"categories_sizes":[],"default_left":[0,0,0,0,0,0,0,0,0,0,0,0,0,0,0],"id":1,"left_children":[1,3,5,7,9,11,13,-1,-1,-1,-1,-1,-1,-1,-1],"loss_changes":[3.0876387E4,8.172323E3,9.21341E3,5.212631E3,3.749236E3,6.1301113E3,2.8577637E3,0E0,0E0,0E0,0E0,0E0,0E0,0E0,0E0],"parents":[2147483647,0,0,1,1,2,2,3,3,4,4,5,5,6,6],"right_children":[2,4,6,8,10,12,14,-1,-1,-1,-1,-1,-1,-1,-1],"split_conditions":[3.6911776E0,2E0,2E0,2E0,2E0,4.4149437E0,2E0,-1.02548994E-1,-2.5976587E-2,-3.273961E-2,5.6242675E-2,-1.1149534E-2,6.9231026E-2,6.431331E-2,1.3113381E-1],"split_indices":[1,11,11,3,10,1,10,0,0,0,0,0,0,0,0],"split_type":[0,0,0,0,0,0,0,0,0,0,0,0,0,0,0],"sum_hessian":[1.2852967E5,6.0863363E4,6.766631E4,4.0510777E4,2.0352584E4,4.153978E4,2.6126527E4,2.7334396E4,1.317638E4,1.285861E4,7.493974E3,2.687621E4,1.4663571E4,1.4904844E4,1.1221684E4],"tree_param":{"num_deleted":"0","num_feature":"13","num_nodes":"15","size_leaf_vector":"1"}},{"base_weights":[6.719626E-5,-3.363816E-1,1.8000227E0,-6.251485E-1,3.6607045E-1,1.8479636E0,1.7753036E0,-1.0543435E-1,-3.1192178E-2,-3.2616276E-2,7.165929E-2,1.8768E-1,1.8095325E-1,1.8000449E-1,1.7445628E-1],"categories":[],"categories_nodes":[],"categories_segments":[],"categories_sizes":[],"default_left":[0,0,0,0,0,0,0,0,0,0,0,0,0,0,0],"id":2,"left_children":[1,3,5,7,9,11,13,-1,-1,-1,-1,-1,-1,-1,-1],"loss_changes":[7.76189E4,2.1904514E4,2.0640625E1,1.0287592E4,7.6336646E3,4.1875E0,7.0117188E0,0E0,0E0,0E0,0E0,0E0,0E0,0E0,0E0],"parents":[2147483647,0,0,1,1,2,2,3,3,4,4,5,5,6,6],"right_children":[2,4,6,8,10,12,14,-1,-1,-1,-1,-1,-1,-1,-1],"split_conditions":[8E0,4.116497E0,3.6841245E0,5E0,5E0,2E0,2E0,-1.0543435E-1,-3.1192178E-2,-3.2616276E-2,7.165929E-2,1.8768E-1,1.8095325E-1,1.8000449E-1,1.7445628E-1],"split_indices":[12,1,1,12,12,11,11,0,0,0,0,0,0,0,0],"split_type":[0,0,0,0,0,0,0,0,0,0,0,0,0,0,0],"sum_hessian":[1.2816809E5,1.079844E5,2.0183697E4,7.652592E4,3.145848E4,6.841461E3,1.3342236E4,3.2285184E4,4.424074E4,1.0574795E4,2.0883686E4,3.8813193E3,2.9601416E3,7.360626E3,5.98161E3],"tree_param":{"num_deleted":"0","num_feature":"13","num_nodes":"15","size_leaf_vector":"1"}},{"base_weights":[3.1822736E-4,-3.0430996E-1,1.6683053E0,-5.65759E-1,3.3085033E-1,1.7049716E0,1.6492506E0,-8.043563E-2,-8.592976E-3,-2.9356731E-2,6.488276E-2,1.7268054E-1,1.6755806E-1,1.6683146E-1,1.6253908E-1],"categories":[],"categories_nodes":[],"categories_segments":[],"categories_sizes":[],"default_left":[0,0,0,0,0,0,0,0,0,0,0,0,0,0,0],"id":3,"left_children":[1,3,5,7,9,11,13,-1,-1,-1,-1,-1,-1,-1,-1],"loss_changes":[6.4582465E4,1.784749E4,1.08984375E1,8.716316E3,6.2227046E3,1.3945312E0,3.1796875E0,0E0,0E0,0E0,0E0,0E0,0E0,0E0,0E0],"parents":[2147483647,0,0,1,1,2,2,3,3,4,4,5,5,6,6],"right_children":[2,4,6,8,10,12,14,-1,-1,-1,-1,-1,-1,-1,-1],"split_conditions":[8E0,4.116497E0,3.6841245E0,2E0,5E0,2E0,2E0,-8.043563E-2,-8.592976E-3,-2.9356731E-2,6.488276E-2,1.7268054E-1,1.6755806E-1,1.6683146E-1,1.6253908E-1],"split_indices":[12,1,1,11,12,11,11,0,0,0,0,0,0,0,0],"split_type":[0,0,0,0,0,0,0,0,0,0,0,0,0,0,0],"sum_hessian":[1.2709984E5,1.0747269E5,1.9627158E4,7.613399E4,3.133869E4,6.68156E3,1.2945599E4,5.084861E4,2.5285385E4,1.057414E4,2.0764549E4,3.8005037E3,2.8810564E3,7.1576875E3,5.787911E3],"tree_param":{"num_deleted":"0","num_feature":"13","num_nodes":"15","size_leaf_vector":"1"}},{"base_weights":[6.741056E-4,-2.7561852E-1,1.5656718E0,-6.333956E-1,1.494757E-1,1.5943329E0,1.5504735E0,-7.867674E-2,3.9240103E-2,-2.358385E-2,5.89436E-2,1.6114168E-1,1.5711789E-1,1.5655419E-1,1.5314694E-1],"categories":[],"categories_nodes":[],"categories_segments":[],"categories_sizes":[],"default_left":[0,0,0,0,0,0,0,0,0,0,0,0,0,0,0],"id":4,"left_children":[1,3,5,7,9,11,13,-1,-1,-1,-1,-1,-1,-1,-1],"loss_changes":[5.435452E4,1.6249666E4,5.75E0,9.127705E3,8.277694E3,3.90625E-2,1.1445312E0,0E0,0E0,0E0,0E0,0E0,0E0,0E0,0E0],"parents":[2147483647,0,0,1,1,2,2,3,3,4,4,5,5,6,6],"right_children":[2,4,6,8,10,12,14,-1,-1,-1,-1,-1,-1,-1,-1],"split_conditions":[8E0,5E0,3.6911776E0,3E0,3.8306553E0,2E0,2E0,-7.867674E-2,3.9240103E-2,-2.358385E-2,5.89436E-2,1.6114168E-1,1.5711789E-1,1.5655419E-1,1.5314694E-1],"split_indices":[12,0,1,5,1,11,11,0,0,0,0,0,0,0,0],"split_type":[0,0,0,0,0,0,0,0,0,0,0,0,0,0,0],"sum_hessian":[1.2570306E5,1.0684154E5,1.8861523E4,5.801402E4,4.8827516E4,6.499956E3,1.2361566E4,5.0468473E4,7.5455483E3,2.6030578E4,2.2796938E4,3.70078E3,2.7991763E3,6.849328E3,5.5122383E3],"tree_param":{"num_deleted":"0","num_feature":"13","num_nodes":"15","size_leaf_vector":"1"}},{"base_weights":[1.0805366E-3,-2.4928744E-1,1.4837344E0,-7.2059655E-1,5.7738576E-2,1.5069379E-1,1.4715238E-1,-9.530195E-2,-2.3134893E-2,-2.3560768E-2,5.7061847E-2],"categories":[],"categories_nodes":[],"categories_segments":[],"categories_sizes":[],"default_left":[0,0,0,0,0,0,0,0,0,0,0],"id":5,"left_children":[1,3,5,7,9,-1,-1,-1,-1,-1,-1],"loss_changes":[4.6148582E4,1.5390678E4,2.8671875E0,4.7705957E3,9.689987E3,0E0,0E0,0E0,0E0,0E0,0E0],"parents":[2147483647,0,0,1,1,2,2,3,3,4,4],"right_children":[2,4,6,8,10,-1,-1,-1,-1,-1,-1],"split_conditions":[8E0,5E0,3.6841245E0,2E0,2E0,1.5069379E-1,1.4715238E-1,-9.530195E-2,-2.3134893E-2,-2.3560768E-2,5.7061847E-2],"split_indices":[12,12,1,10,5,0,0,0,0,0,0],"split_type":[0,0,0,0,0,0,0,0,0,0,0],"sum_hessian":[1.2431766E5,1.0635832E5,1.795934E4,4.195411E4,6.4404207E4,6.150083E3,1.1809257E4,2.8441627E4,1.3512482E4,4.097101E4,2.3433197E4],"tree_param":{"num_deleted":"0","num_feature":"13","num_nodes":"11","size_leaf_vector":"1"}},{"base_weights":[1.3974677E-3,-2.2573885E-1,1.417083E0,-3.829298E-1,6.1352116E-1,1.4359398E-1,1.4069681E-1,-6.184891E-2,1.0302169E-2,3.2933366E-2,1.02787964E-1],"categories":[],"categories_nodes":[],"categories_segments":[],"categories_sizes":[],"default_left":[0,0,0,0,0,0,0,0,0,0,0],"id":6,"left_children":[1,3,5,7,9,-1,-1,-1,-1,-1,-1],"loss_changes":[3.9479984E4,1.395826E4,1.21875E0,1.020092E4,1.9651138E3,0E0,0E0,0E0,0E0,0E0,0E0],"parents":[2147483647,0,0,1,1,2,2,3,3,4,4],"right_children":[2,4,6,8,10,-1,-1,-1,-1,-1,-1],"split_conditions":[8E0,4.482911E0,3.6911776E0,2E0,2E0,1.4359398E-1,1.4069681E-1,-6.184891E-2,1.0302169E-2,3.2933366E-2,1.02787964E-1],"split_indices":[12,1,1,6,11,0,0,0,0,0,0],"split_type":[0,0,0,0,0,0,0,0,0,0,0],"sum_hessian":[1.2277687E5,1.0580248E5,1.6974389E4,8.911251E4,1.6689969E4,5.8770605E3,1.1097327E4,6.001882E4,2.909369E4,9.9011E3,6.7888687E3],"tree_param":{"num_deleted":"0","num_feature":"13","num_nodes":"11","size_leaf_vector":"1"}},{"base_weights":[1.7899468E-3,-2.0433974E-1,1.3620129E0,-3.6493173E-1,5.6188947E-1,1.3777556E-1,1.3536356E-1,-6.1184913E-2,1.3151941E-2,8.922333E-3,8.432399E-2],"categories":[],"categories_nodes":[],"categories_segments":[],"categories_sizes":[],"default_left":[0,0,0,0,0,0,0,0,0,0,0],"id":7,"left_children":[1,3,5,7,9,-1,-1,-1,-1,-1,-1],"loss_changes":[3.397989E4,1.2950346E4,2.3828125E-1,1.0665692E4,2.4250342E3,0E0,0E0,0E0,0E0,0E0,0E0],"parents":[2147483647,0,0,1,1,2,2,3,3,4,4],"right_children":[2,4,6,8,10,-1,-1,-1,-1,-1,-1],"split_conditions":[8E0,7E0,3.6841245E0,2E0,3.5922694E0,1.3777556E-1,1.3536356E-1,-6.1184913E-2,1.3151941E-2,8.922333E-3,8.432399E-2],"split_indices":[12,0,1,8,1,0,0,0,0,0,0],"split_type":[0,0,0,0,0,0,0,0,0,0,0],"sum_hessian":[1.21189266E5,1.0524168E5,1.594759E4,8.7006695E4,1.8234984E4,5.4820894E3,1.0465501E4,5.8106387E4,2.8900309E4,6.804613E3,1.1430371E4],"tree_param":{"num_deleted":"0","num_feature":"13","num_nodes":"11","size_leaf_vector":"1"}},{"base_weights":[2.1303827E-3,-1.8478417E-1,1.315943E-1,-6.133779E-1,8.958439E-2,-8.395957E-2,-1.5437896E-2,-1.8586917E-2,5.8004767E-2],"categories":[],"categories_nodes":[],"categories_segments":[],"categories_sizes":[],"default_left":[0,0,0,0,0,0,0,0,0],"id":8,"left_children":[1,3,-1,5,7,-1,-1,-1,-1],"loss_changes":[2.93974E4,1.2323846E4,0E0,4.2471025E3,8.63265E3,0E0,0E0,0E0,0E0],"parents":[2147483647,0,0,1,1,3,3,4,4],"right_children":[2,4,-1,6,8,-1,-1,-1,-1],"split_conditions":[8E0,5E0,1.315943E-1,2E0,2E0,-8.395957E-2,-1.5437896E-2,-1.8586917E-2,5.8004767E-2],"split_indices":[12,12,0,11,3,0,0,0,0],"split_type":[0,0,0,0,0,0,0,0,0],"sum_hessian":[1.1970855E5,1.0479968E5,1.4908866E4,4.0903184E4,6.3896492E4,2.7398832E4,1.3504354E4,4.091722E4,2.2979273E4],"tree_param":{"num_deleted":"0","num_feature":"13","num_nodes":"9","size_leaf_vector":"1"}},{"base_weights":[2.319509E-3,-3.852905E-1,3.003737E-1,-6.191239E-1,7.780486E-2,1.5868644E-1,1.0221604E0,-8.306839E-2,-1.646024E-2,-2.1718783E-2,5.9676506E-2,-9.154799E-3,5.8735747E-2,6.496764E-2,1.1474532E-1],"categories":[],"categories_nodes":[],"categories_segments":[],"categories_sizes":[],"default_left":[0,0,0,0,0,0,0,0,0,0,0,0,0,0,0],"id":9,"left_children":[1,3,5,7,9,11,13,-1,-1,-1,-1,-1,-1,-1,-1],"loss_changes":[1.3638809E4,5.5571304E3,6.8249443E3,3.2788643E3,2.6361924E3,5.984303E3,5.103213E2,0E0,0E0,0E0,0E0,0E0,0E0,0E0,0E0],"parents":[2147483647,0,0,1,1,2,2,3,3,4,4,5,5,6,6],"right_children":[2,4,6,8,10,12,14,-1,-1,-1,-1,-1,-1,-1,-1],"split_conditions":[3.6136699E0,2E0,3E0,2E0,2E0,2E0,1E0,-8.306839E-2,-1.646024E-2,-2.1718783E-2,5.9676506E-2,-9.154799E-3,5.8735747E-2,6.496764E-2,1.1474532E-1],"split_indices":[1,8,5,9,10,10,2,0,0,0,0,0,0,0,0],"split_type":[0,0,0,0,0,0,0,0,0,0,0,0,0,0,0],"sum_hessian":[1.1805349E5,5.1317027E4,6.673646E4,3.409893E4,1.7218102E4,5.5786707E4,1.0949752E4,2.3267902E4,1.0831025E4,1.097829E4,6.239811E3,3.5225055E4,2.0561654E4,2.757663E3,8.192089E3],"tree_param":{"num_deleted":"0","num_feature":"13","num_nodes":"15","size_leaf_vector":"1"}},{"base_weights":[2.0699312E-3,-1.6623452E-1,1.2729716E0,-4.7212428E-1,1.9344254E-1,1.2933005E-1,1.2618174E-1,-6.965825E-2,-2.2951274E-3,-7.1000108E-3,6.628606E-2],"categories":[],"categories_nodes":[],"categories_segments":[],"categories_sizes":[],"default_left":[0,0,0,0,0,0,0,0,0,0,0],"id":10,"left_children":[1,3,5,7,9,-1,-1,-1,-1,-1,-1],"loss_changes":[2.5095438E4,1.1398754E4,1.4804688E0,5.644785E3,5.9108604E3,0E0,0E0,0E0,0E0,0E0,0E0],"parents":[2147483647,0,0,1,1,2,2,3,3,4,4],"right_children":[2,4,6,8,10,-1,-1,-1,-1,-1,-1],"split_conditions":[8E0,5E0,3.6841245E0,2E0,2E0,1.2933005E-1,1.2618174E-1,-6.965825E-2,-2.2951274E-3,-7.1000108E-3,6.628606E-2],"split_indices":[12,0,1,10,9,0,0,0,0,0,0],"split_type":[0,0,0,0,0,0,0,0,0,0,0],"sum_hessian":[1.173221E5,1.0360292E5,1.371918E4,5.598759E4,4.7615332E4,4.819874E3,8.899306E3,3.73318E4,1.8655787E4,3.0457955E4,1.7157379E4],"tree_param":{"num_deleted":"0","num_feature":"13","num_nodes":"11","size_leaf_vector":"1"}},{"base_weights":[2.2864677E-3,-1.5047134E-1,1.2403835E0,-3.8325998E-1,2.9452342E-1,1.2577426E-1,1.2308037E-1,-6.174294E-2,7.005068E-3,-4.1572567E-2,4.7134776E-2],"categories":[],"categories_nodes":[],"categories_segments":[],"categories_sizes":[],"default_left":[0,0,0,0,0,0,0,0,0,0,0],"id":11,"left_children":[1,3,5,7,9,-1,-1,-1,-1,-1,-1],"loss_changes":[2.1910799E4,1.0683027E4,5.683594E-1,7.187343E3,4.448592E3,0E0,0E0,0E0,0E0,0E0,0E0],"parents":[2147483647,0,0,1,1,2,2,3,3,4,4],"right_children":[2,4,6,8,10,-1,-1,-1,-1,-1,-1],"split_conditions":[8E0,2E0,3.6841245E0,2E0,4E0,1.2577426E-1,1.2308037E-1,-6.174294E-2,7.005068E-3,-4.1572567E-2,4.7134776E-2],"split_indices":[12,5,1,10,12,0,0,0,0,0,0],"split_type":[0,0,0,0,0,0,0,0,0,0,0],"sum_hessian":[1.15849086E5,1.0312614E5,1.2722941E4,6.770696E4,3.541918E4,4.478114E3,8.244827E3,4.4644387E4,2.3062578E4,7.0599956E3,2.8359186E4],"tree_param":{"num_deleted":"0","num_feature":"13","num_nodes":"11","size_leaf_vector":"1"}},{"base_weights":[2.458498E-3,-1.3632639E-1,1.2123694E-1,-3.5976282E-1,2.984155E-1,-4.7647752E-2,4.4831954E-2,-3.0286487E-3,6.338634E-2],"categories":[],"categories_nodes":[],"categories_segments":[],"categories_sizes":[],"default_left":[0,0,0,0,0,0,0,0,0],"id":12,"left_children":[1,3,-1,5,7,-1,-1,-1,-1],"loss_changes":[1.9199021E4,9.96353E3,0E0,6.390124E3,3.8394573E3,0E0,0E0,0E0,0E0],"parents":[2147483647,0,0,1,1,3,3,4,4],"right_children":[2,4,-1,6,8,-1,-1,-1,-1],"split_conditions":[8E0,2E0,1.2123694E-1,3E0,5E0,-4.7647752E-2,4.4831954E-2,-3.0286487E-3,6.338634E-2],"split_indices":[12,3,0,8,0,0,0,0,0],"split_type":[0,0,0,0,0,0,0,0,0],"sum_hessian":[1.1433416E5,1.02569625E5,1.1764535E4,6.77497E4,3.4819918E4,5.9199664E4,8.550041E3,1.7587254E4,1.7232664E4],"tree_param":{"num_deleted":"0","num_feature":"13","num_nodes":"9","size_leaf_vector":"1"}},{"base_weights":[2.6327393E-3,-2.3050454E-1,6.6174006E-1,-4.7174713E-1,2.1216503E-1,3.55727E-1,1.1881562E-1,-5.9048947E-2,4.090925E-2,-1.3781288E-3,6.9049664E-2,6.06464E-3,8.302428E-2],"categories":[],"categories_nodes":[],"categories_segments":[],"categories_sizes":[],"default_left":[0,0,0,0,0,0,0,0,0,0,0,0,0],"id":13,"left_children":[1,3,5,7,9,11,-1,-1,-1,-1,-1,-1,-1],"loss_changes":[1.7360557E4,8.912645E3,4.75504E3,5.650292E3,3.1817612E3,2.614097E3,0E0,0E0,0E0,0E0,0E0,0E0,0E0],"parents":[2147483647,0,0,1,1,2,2,3,3,4,4,5,5],"right_children":[2,4,6,8,10,12,-1,-1,-1,-1,-1,-1,-1],"split_conditions":[7E0,2E0,8E0,3E0,6E0,2E0,1.1881562E-1,-5.9048947E-2,4.090925E-2,-1.3781288E-3,6.9049664E-2,6.06464E-3,8.302428E-2],"split_indices":[12,11,12,2,0,6,0,0,0,0,0,0,0],"split_type":[0,0,0,0,0,0,0,0,0,0,0,0,0],"sum_hessian":[1.1297651E5,8.3457016E4,2.9519492E4,5.4018418E4,2.9438598E4,1.8668758E4,1.0850733E4,4.760175E4,6.416666E3,1.9994771E4,9.443826E3,1.1511431E4,7.157327E3],"tree_param":{"num_deleted":"0","num_feature":"13","num_nodes":"13","size_leaf_vector":"1"}},{"base_weights":[2.7179297E-3,-4.1468892E-1,2.1838674E-1,-5.239988E-1,3.719278E-1,-1.0077766E-3,6.212342E-1,-7.45615E-2,-8.807612E-3,8.293091E-3,1.2720864E-1,-2.2168977E-2,4.025006E-2,3.8534343E-2,9.6921906E-2],"categories":[],"categories_nodes":[],"categories_segments":[],"categories_sizes":[],"default_left":[0,0,0,0,0,0,0,0,0,0,0,0,0,0,0],"id":14,"left_children":[1,3,5,7,9,11,13,-1,-1,-1,-1,-1,-1,-1,-1],"loss_changes":[1.0042413E4,3.267921E3,6.5007217E3,3.2234531E3,1.2062544E3,4.240471E3,2.128416E3,0E0,0E0,0E0,0E0,0E0,0E0,0E0,0E0],"parents":[2147483647,0,0,1,1,2,2,3,3,4,4,5,5,6,6],"right_children":[2,4,6,8,10,12,14,-1,-1,-1,-1,-1,-1,-1,-1],"split_conditions":[3.4200034E0,3E0,2E0,2E0,7E0,2E0,2E0,-7.45615E-2,-8.807612E-3,8.293091E-3,1.2720864E-1,-2.2168977E-2,4.025006E-2,3.8534343E-2,9.6921906E-2],"split_indices":[1,6,7,8,0,3,10,0,0,0,0,0,0,0,0],"split_type":[0,0,0,0,0,0,0,0,0,0,0,0,0,0,0],"sum_hessian":[1.11553555E5,3.8002445E4,7.355111E4,3.336615E4,4.6362954E3,4.761858E4,2.593253E4,2.2119986E4,1.1246162E4,3.5103772E3,1.1259183E3,3.0783357E4,1.6835219E4,1.5456821E4,1.0475708E4],"tree_param":{"num_deleted":"0","num_feature":"13","num_nodes":"15","size_leaf_vector":"1"}},{"base_weights":[2.3887479E-3,-1.1104883E-1,1.1650583E0,-2.3974943E-1,5.621744E-1,1.18416965E-1,1.1572335E-1,-3.7298758E-2,4.0561404E-2,3.310182E-2,9.81105E-2],"categories":[],"categories_nodes":[],"categories_segments":[],"categories_sizes":[],"default_left":[0,0,0,0,0,0,0,0,0,0,0],"id":15,"left_children":[1,3,5,7,9,-1,-1,-1,-1,-1,-1],"loss_changes":[1.4622181E4,8.752145E3,1.03515625E-1,7.2918813E3,1.5695723E3,0E0,0E0,0E0,0E0,0E0,0E0],"parents":[2147483647,0,0,1,1,2,2,3,3,4,4],"right_children":[2,4,6,8,10,-1,-1,-1,-1,-1,-1],"split_conditions":[8E0,4.482911E0,3.502713E0,7E0,4.954023E0,1.18416965E-1,1.1572335E-1,-3.7298758E-2,4.0561404E-2,3.310182E-2,9.81105E-2],"split_indices":[12,1,1,0,1,0,0,0,0,0,0],"split_type":[0,0,0,0,0,0,0,0,0,0,0],"sum_hessian":[1.1086416E5,1.0100988E5,9.854274E3,8.479936E4,1.6210516E4,2.818939E3,7.035336E3,7.028843E4,1.4510934E4,1.0447576E4,5.7629404E3],"tree_param":{"num_deleted":"0","num_feature":"13","num_nodes":"11","size_leaf_vector":"1"}},{"base_weights":[2.5580712E-3,-3.2251543E-1,3.8425305E-1,-4.4246864E-1,4.7672564E-1,2.170129E-1,1.1469215E-1,-5.535155E-2,3.2471813E-2,1.665475E-2,1.0283833E-1,-6.4462996E-3,6.8052456E-2],"categories":[],"categories_nodes":[],"categories_segments":[],"categories_sizes":[],"default_left":[0,0,0,0,0,0,0,0,0,0,0,0,0],"id":16,"left_children":[1,3,5,7,9,11,-1,-1,-1,-1,-1,-1,-1],"loss_changes":[1.3577458E4,5.665858E3,6.41925E3,4.377841E3,1.3195197E3,5.3856577E3,0E0,0E0,0E0,0E0,0E0,0E0,0E0],"parents":[2147483647,0,0,1,1,2,2,3,3,4,4,5,5],"right_children":[2,4,6,8,10,12,-1,-1,-1,-1,-1,-1,-1],"split_conditions":[6E0,3E0,8E0,3E0,4E0,2E0,1.1469215E-1,-5.535155E-2,3.2471813E-2,1.665475E-2,1.0283833E-1,-6.4462996E-3,6.8052456E-2],"split_indices":[12,5,12,11,5,6,0,0,0,0,0,0,0],"split_type":[0,0,0,0,0,0,0,0,0,0,0,0,0],"sum_hessian":[1.09423984E5,5.909523E4,5.0328754E4,5.1383793E4,7.7114346E3,4.1278395E4,9.050361E3,4.4886895E4,6.4969004E3,4.9368916E3,2.774543E3,2.5682865E4,1.5595528E4],"tree_param":{"num_deleted":"0","num_feature":"13","num_nodes":"13","size_leaf_vector":"1"}},{"base_weights":[2.5859715E-3,-4.4125375E-1,2.4224511E-1,-5.537661E-1,3.3712325E-1,1.2303436E-1,1.13102436E-1,-6.1734118E-2,7.153679E-2,-2.8145997E-2,6.1461557E-2,-1.0921537E-2,5.590677E-2],"categories":[],"categories_nodes":[],"categories_segments":[],"categories_sizes":[],"default_left":[0,0,0,0,0,0,0,0,0,0,0,0,0],"id":17,"left_children":[1,3,5,7,9,11,-1,-1,-1,-1,-1,-1,-1],"loss_changes":[1.1495309E4,3.3187256E3,7.435153E3,2.6717373E3,8.2173157E2,6.2663325E3,0E0,0E0,0E0,0E0,0E0,0E0,0E0],"parents":[2147483647,0,0,1,1,2,2,3,3,4,4,5,5],"right_children":[2,4,6,8,10,12,-1,-1,-1,-1,-1,-1,-1],"split_conditions":[5E0,3E0,8E0,4.954023E0,3.4268656E0,2E0,1.13102436E-1,-6.1734118E-2,7.153679E-2,-2.8145997E-2,6.1461557E-2,-1.0921537E-2,5.590677E-2],"split_indices":[12,5,12,1,1,2,0,0,0,0,0,0,0],"split_type":[0,0,0,0,0,0,0,0,0,0,0,0,0],"sum_hessian":[1.0806683E5,3.78918E4,7.017503E4,3.3106613E4,4.785185E3,6.187673E4,8.298303E3,3.1527799E4,1.5788163E3,1.4818484E3,3.3033367E3,4.0373074E4,2.1503654E4],"tree_param":{"num_deleted":"0","num_feature":"13","num_nodes":"13","size_leaf_vector":"1"}},{"base_weights":[2.5433563E-3,-8.288729E-2,1.11702465E-1,-2.8015387E-1,3.159696E-1,-4.8883136E-2,1.4774844E-2,-4.0422365E-2,4.5702394E-2],"categories":[],"categories_nodes":[],"categories_segments":[],"categories_sizes":[],"default_left":[0,0,0,0,0,0,0,0,0],"id":18,"left_children":[1,3,-1,5,7,-1,-1,-1,-1],"loss_changes":[1.0161854E4,7.799836E3,0E0,5.9227007E3,3.3326763E3,0E0,0E0,0E0,0E0],"parents":[2147483647,0,0,1,1,3,3,4,4],"right_children":[2,4,-1,6,8,-1,-1,-1,-1],"split_conditions":[8E0,2E0,1.11702465E-1,2E0,3.0553927E0,-4.8883136E-2,1.4774844E-2,-4.0422365E-2,4.5702394E-2],"split_indices":[12,7,0,2,1,0,0,0,0],"split_type":[0,0,0,0,0,0,0,0,0],"sum_hessian":[1.06728E5,9.91301E4,7.5979E3,6.63266E4,3.2803504E4,4.4583957E4,2.1742645E4,5.372223E3,2.743128E4],"tree_param":{"num_deleted":"0","num_feature":"13","num_nodes":"9","size_leaf_vector":"1"}},{"base_weights":[2.5368575E-3,-2.645846E-1,3.2300344E-1,-5.7220703E-1,-1.0280892E-2,1.908439E-1,1.1046594E-1,-6.6201024E-2,4.1280627E-2,-2.7028386E-2,4.184134E-2,-3.6767665E-3,5.815638E-2],"categories":[],"categories_nodes":[],"categories_segments":[],"categories_sizes":[],"default_left":[0,0,0,0,0,0,0,0,0,0,0,0,0],"id":19,"left_children":[1,3,5,7,9,11,-1,-1,-1,-1,-1,-1,-1],"loss_changes":[9.047816E3,4.5095405E3,4.9634507E3,2.307918E3,3.5176677E3,3.6552769E3,0E0,0E0,0E0,0E0,0E0,0E0,0E0],"parents":[2147483647,0,0,1,1,2,2,3,3,4,4,5,5],"right_children":[2,4,6,8,10,12,-1,-1,-1,-1,-1,-1,-1],"split_conditions":[6E0,3.6207428E0,8E0,8E0,2E0,2E0,1.1046594E-1,-6.6201024E-2,4.1280627E-2,-2.7028386E-2,4.184134E-2,-3.6767665E-3,5.815638E-2],"split_indices":[12,1,12,0,11,8,0,0,0,0,0,0,0],"split_type":[0,0,0,0,0,0,0,0,0,0,0,0,0],"sum_hessian":[1.0569248E5,5.7644066E4,4.804841E4,2.6086668E4,3.1557396E4,4.1100527E4,6.947884E3,2.3907373E4,2.1792947E3,1.9643805E4,1.1913593E4,2.5971746E4,1.5128782E4],"tree_param":{"num_deleted":"0","num_feature":"13","num_nodes":"13","size_leaf_vector":"1"}},{"base_weights":[2.4444568E-3,-1.9683866E-1,3.7733832E-1,-3.0089486E-1,5.0182086E-1,1.4149982E-1,7.7640253E-1,-4.0687587E-2,3.295238E-2,1.483727E-2,8.194456E-2,2.3106567E-3,7.894226E-2,-1.0574092E-1,8.322981E-2],"categories":[],"categories_nodes":[],"categories_segments":[],"categories_sizes":[],"default_left":[0,0,0,0,0,0,0,0,0,0,0,0,0,0,0],"id":20,"left_children":[1,3,5,7,9,11,13,-1,-1,-1,-1,-1,-1,-1,-1],"loss_changes":[7.7980703E3,4.954704E3,3.4093887E3,3.963245E3,9.9170483E2,1.7467771E3,1.3802007E3,0E0,0E0,0E0,0E0,0E0,0E0,0E0,0E0],"parents":[2147483647,0,0,1,1,2,2,3,3,4,4,5,5,6,6],"right_children":[2,4,6,8,10,12,14,-1,-1,-1,-1,-1,-1,-1,-1],"split_conditions":[2E0,3E0,2E0,4.521062E0,5E0,3E0,2.5460453E0,-4.0687587E-2,3.295238E-2,1.483727E-2,8.194456E-2,2.3106567E-3,7.894226E-2,-1.0574092E-1,8.322981E-2],"split_indices":[6,3,9,1,0,5,1,0,0,0,0,0,0,0,0],"split_type":[0,0,0,0,0,0,0,0,0,0,0,0,0,0,0],"sum_hessian":[1.0437584E5,6.814979E4,3.622605E4,5.931601E4,8.833777E3,2.2770514E4,1.3455537E4,5.077969E4,8.536324E3,4.1817993E3,4.6519775E3,1.925342E4,3.5170923E3,3.9747043E2,1.3058066E4],"tree_param":{"num_deleted":"0","num_feature":"13","num_nodes":"15","size_leaf_vector":"1"}},{"base_weights":[2.1982917E-3,-6.7950085E-2,1.0927768E-1,-1.693857E-1,6.368437E-1,-3.5605717E-2,1.9180547E-2,4.9301445E-2,1.3221964E-1],"categories":[],"categories_nodes":[],"categories_segments":[],"categories_sizes":[],"default_left":[0,0,0,0,0,0,0,0,0],"id":21,"left_children":[1,3,-1,5,7,-1,-1,-1,-1],"loss_changes":[7.936187E3,6.9682485E3,0E0,5.7450264E3,1.2081772E3,0E0,0E0,0E0,0E0],"parents":[2147483647,0,0,1,1,3,3,4,4],"right_children":[2,4,-1,6,8,-1,-1,-1,-1],"split_conditions":[8E0,3E0,1.0927768E-1,2E0,3E0,-3.5605717E-2,1.9180547E-2,4.9301445E-2,1.3221964E-1],"split_indices":[12,9,0,8,8,0,0,0,0],"split_type":[0,0,0,0,0,0,0,0,0],"sum_hessian":[1.0373591E5,9.746752E4,6.268385E3,8.520533E4,1.2262196E4,5.61736E4,2.9031727E4,1.0136627E4,2.1255693E3],"tree_param":{"num_deleted":"0","num_feature":"13","num_nodes":"9","size_leaf_vector":"1"}},{"base_weights":[2.2203885E-3,-3.6281145E-1,2.0040119E-1,-4.668056E-1,3.3365443E-1,1.175254E-1,1.08316615E-1,-5.716079E-2,2.4546567E-2,5.019779E-3,8.572884E-2,-8.767408E-3,4.7480498E-2],"categories":[],"categories_nodes":[],"categories_segments":[],"categories_sizes":[],"default_left":[0,0,0,0,0,0,0,0,0,0,0,0,0],"id":22,"left_children":[1,3,5,7,9,11,-1,-1,-1,-1,-1,-1,-1],"loss_changes":[7.4400293E3,2.6212363E3,4.8764316E3,2.350604E3,6.978826E2,4.467521E3,0E0,0E0,0E0,0E0,0E0,0E0,0E0],"parents":[2147483647,0,0,1,1,2,2,3,3,4,4,5,5],"right_children":[2,4,6,8,10,12,-1,-1,-1,-1,-1,-1,-1],"split_conditions":[5E0,3E0,8E0,3E0,4E0,2E0,1.08316615E-1,-5.716079E-2,2.4546567E-2,5.019779E-3,8.572884E-2,-8.767408E-3,4.7480498E-2],"split_indices":[12,5,12,11,5,5,0,0,0,0,0,0,0],"split_type":[0,0,0,0,0,0,0,0,0,0,0,0,0],"sum_hessian":[1.028428E5,3.6187582E4,6.665522E4,3.148645E4,4.701131E3,6.093559E4,5.7196255E3,2.7448E4,4.0384497E3,3.0507673E3,1.6503636E3,3.8705996E4,2.2229596E4],"tree_param":{"num_deleted":"0","num_feature":"13","num_nodes":"13","size_leaf_vector":"1"}},{"base_weights":[2.1428044E-3,-1.911348E-1,3.5560277E-1,-2.5166163E-1,1.0775187E-1,1.2296709E-1,6.870712E-1,-3.793419E-2,3.4323446E-2,-4.8313853E-3,6.372451E-2,4.1096594E-2,9.4107315E-2],"categories":[],"categories_nodes":[],"categories_segments":[],"categories_sizes":[],"default_left":[0,0,0,0,0,0,0,0,0,0,0,0,0],"id":23,"left_children":[1,3,5,7,-1,9,11,-1,-1,-1,-1,-1,-1],"loss_changes":[6.9471055E3,5.0484463E3,2.7719795E3,4.7663394E3,0E0,1.8608307E3,1.0393105E3,0E0,0E0,0E0,0E0,0E0,0E0],"parents":[2147483647,0,0,1,1,2,2,3,3,5,5,6,6],"right_children":[2,4,6,8,-1,10,12,-1,-1,-1,-1,-1,-1],"split_conditions":[2E0,8E0,3E0,7E0,1.0775187E-1,7E0,5E0,-3.793419E-2,3.4323446E-2,-4.8313853E-3,6.372451E-2,4.1096594E-2,9.4107315E-2],"split_indices":[10,12,4,0,0,12,0,0,0,0,0,0,0],"split_type":[0,0,0,0,0,0,0,0,0,0,0,0,0],"sum_hessian":[1.0168892E5,6.574109E4,3.594783E4,6.2748207E4,2.9928838E3,2.1123805E4,1.4824024E4,5.166081E4,1.1087399E4,1.5846885E4,5.276919E3,7.1042163E3,7.7198086E3],"tree_param":{"num_deleted":"0","num_feature":"13","num_nodes":"13","size_leaf_vector":"1"}},{"base_weights":[2.068785E-3,-1.904769E-1,3.403625E-1,-2.4688716E-1,1.070107E-1,-2.200608E-1,4.7512487E-1,-4.372566E-2,1.3576386E-2,-3.723622E-2,8.301841E-2,2.821183E-2,8.057315E-2],"categories":[],"categories_nodes":[],"categories_segments":[],"categories_sizes":[],"default_left":[0,0,0,0,0,0,0,0,0,0,0,0,0],"id":24,"left_children":[1,3,5,7,-1,9,11,-1,-1,-1,-1,-1,-1],"loss_changes":[6.5664175E3,4.5686377E3,2.7616763E3,4.4795156E3,0E0,1.1342115E3,1.8807134E3,0E0,0E0,0E0,0E0,0E0,0E0],"parents":[2147483647,0,0,1,1,2,2,3,3,5,5,6,6],"right_children":[2,4,6,8,-1,10,12,-1,-1,-1,-1,-1,-1],"split_conditions":[2E0,8E0,4E0,2E0,1.070107E-1,4E0,2E0,-4.372566E-2,1.3576386E-2,-3.723622E-2,8.301841E-2,2.821183E-2,8.057315E-2],"split_indices":[11,12,12,9,0,11,2,0,0,0,0,0,0],"split_type":[0,0,0,0,0,0,0,0,0,0,0,0,0],"sum_hessian":[1.0080736E5,6.4242863E4,3.6564496E4,6.1491945E4,2.7509187E3,7.0879395E3,2.9476555E4,4.1062938E4,2.0429008E4,6.190822E3,8.9711743E2,1.8612512E4,1.0864044E4],"tree_param":{"num_deleted":"0","num_feature":"13","num_nodes":"13","size_leaf_vector":"1"}},{"base_weights":[1.9523423E-3,-1.759075E-1,3.5089836E-1,-3.6209825E-1,1.9394109E-1,-2.0639157E-1,4.768006E-1,-4.1061677E-2,1.0636868E-1,-2.6107509E-2,3.7045673E-2,-3.2543194E-2,1.3937761E-1,2.7415533E-2,7.978389E-2],"categories":[],"categories_nodes":[],"categories_segments":[],"categories_sizes":[],"default_left":[0,0,0,0,0,0,0,0,0,0,0,0,0,0,0],"id":25,"left_children":[1,3,5,7,9,11,13,-1,-1,-1,-1,-1,-1,-1,-1],"loss_changes":[6.2049243E3,4.5603354E3,2.3684282E3,3.0475703E3,1.7811763E3,1.1854758E3,1.7910635E3,0E0,0E0,0E0,0E0,0E0,0E0,0E0,0E0],"parents":[2147483647,0,0,1,1,2,2,3,3,4,4,5,5,6,6],"right_children":[2,4,6,8,10,12,14,-1,-1,-1,-1,-1,-1,-1,-1],"split_conditions":[2E0,2E0,4E0,8E0,1E0,9E0,2E0,-4.1061677E-2,1.0636868E-1,-2.6107509E-2,3.7045673E-2,-3.2543194E-2,1.3937761E-1,2.7415533E-2,7.978389E-2],"split_indices":[7,2,12,12,8,0,6,0,0,0,0,0,0,0,0],"split_type":[0,0,0,0,0,0,0,0,0,0,0,0,0,0,0],"sum_hessian":[9.997506E4,6.6221875E4,3.3753184E4,4.404738E4,2.2174496E4,6.220095E3,2.7533088E4,4.2598492E4,1.4488862E3,6.1977256E3,1.5976771E4,5.790149E3,4.2994656E2,1.6879984E4,1.0653104E4],"tree_param":{"num_deleted":"0","num_feature":"13","num_nodes":"15","size_leaf_vector":"1"}},{"base_weights":[1.7907114E-3,-1.7750585E-1,3.3944324E-1,-3.1809306E-1,3.133991E-1,2.3312287E-1,9.3376225E-1,-4.1017868E-2,3.596183E-2,1.5604759E-2,1.0602088E-1,3.8071612E-5,5.7078212E-2,7.44491E-2,1.2077341E-1],"categories":[],"categories_nodes":[],"categories_segments":[],"categories_sizes":[],"default_left":[0,0,0,0,0,0,0,0,0,0,0,0,0,0,0],"id":26,"left_children":[1,3,5,7,9,11,13,-1,-1,-1,-1,-1,-1,-1,-1],"loss_changes":[6.010428E3,4.4754707E3,2.1756067E3,3.146127E3,1.6963574E3,2.295547E3,2.7004053E2,0E0,0E0,0E0,0E0,0E0,0E0,0E0,0E0],"parents":[2147483647,0,0,1,1,2,2,3,3,4,4,5,5,6,6],"right_children":[2,4,6,8,10,12,14,-1,-1,-1,-1,-1,-1,-1,-1],"split_conditions":[2E0,7E0,3E0,3E0,8E0,3E0,2E0,-4.1017868E-2,3.596183E-2,1.5604759E-2,1.0602088E-1,3.8071612E-5,5.7078212E-2,7.44491E-2,1.2077341E-1],"split_indices":[3,12,6,2,12,4,8,0,0,0,0,0,0,0,0],"split_type":[0,0,0,0,0,0,0,0,0,0,0,0,0,0,0],"sum_hessian":[9.92784E4,6.4845383E4,3.4433016E4,5.040932E4,1.443606E4,2.9209066E4,5.2239473E3,4.4379543E4,6.029778E3,1.1924745E4,2.5113142E3,1.729142E4,1.1917647E4,3.0917522E3,2.1321948E3],"tree_param":{"num_deleted":"0","num_feature":"13","num_nodes":"15","size_leaf_vector":"1"}},{"base_weights":[1.692335E-3,-2.2346228E-1,2.5415543E-1,-2.8421435E-1,9.6272624E-1,6.1768226E-2,5.878522E-1,-3.8484655E-2,3.795314E-2,8.500165E-2,2.3301494E-1,-5.1453155E-2,2.021104E-2,1.1985852E-2,7.5292945E-2],"categories":[],"categories_nodes":[],"categories_segments":[],"categories_sizes":[],"default_left":[0,0,0,0,0,0,0,0,0,0,0,0,0,0,0],"id":27,"left_children":[1,3,5,7,9,11,13,-1,-1,-1,-1,-1,-1,-1,-1],"loss_changes":[5.601802E3,3.7541614E3,2.982444E3,3.310084E3,3.8920703E2,2.3835178E3,1.312396E3,0E0,0E0,0E0,0E0,0E0,0E0,0E0,0E0],"parents":[2147483647,0,0,1,1,2,2,3,3,4,4,5,5,6,6],"right_children":[2,4,6,8,10,12,14,-1,-1,-1,-1,-1,-1,-1,-1],"split_conditions":[5E0,4E0,2E0,3E0,6E0,4E0,1E0,-3.8484655E-2,3.795314E-2,8.500165E-2,2.3301494E-1,-5.1453155E-2,2.021104E-2,1.1985852E-2,7.5292945E-2],"split_indices":[0,10,9,8,10,12,2,0,0,0,0,0,0,0,0],"split_type":[0,0,0,0,0,0,0,0,0,0,0,0,0,0,0],"sum_hessian":[9.8546266E4,5.2090457E4,4.6455812E4,4.9553285E4,2.5371704E3,2.9467824E4,1.6987988E4,4.3029844E4,6.523444E3,2.345467E3,1.9170337E2,5.770251E3,2.3697572E4,4.430176E3,1.25578125E4],"tree_param":{"num_deleted":"0","num_feature":"13","num_nodes":"15","size_leaf_vector":"1"}},{"base_weights":[1.4704712E-3,-3.8471702E-1,1.4849518E-1,-4.8324952E-1,3.131949E-1,-2.2902794E-1,3.0302298E-1,-6.658332E-2,-1.1745262E-2,-1.1275432E-3,8.6544275E-2,-4.559987E-2,1.8307766E-2,-2.406449E-3,4.6501573E-2],"categories":[],"categories_nodes":[],"categories_segments":[],"categories_sizes":[],"default_left":[0,0,0,0,0,0,0,0,0,0,0,0,0,0,0],"id":28,"left_children":[1,3,5,7,9,11,13,-1,-1,-1,-1,-1,-1,-1,-1],"loss_changes":[5.562164E3,1.8576375E3,4.139146E3,1.5808052E3,5.989139E2,1.9275958E3,2.6675269E3,0E0,0E0,0E0,0E0,0E0,0E0,0E0,0E0],"parents":[2147483647,0,0,1,1,2,2,3,3,4,4,5,5,6,6],"right_children":[2,4,6,8,10,12,14,-1,-1,-1,-1,-1,-1,-1,-1],"split_conditions":[3.2866092E0,3E0,1E0,2E0,2E0,2E0,5E0,-6.658332E-2,-1.1745262E-2,-1.1275432E-3,8.6544275E-2,-4.559987E-2,1.8307766E-2,-2.406449E-3,4.6501573E-2],"split_indices":[1,2,10,5,7,5,12,0,0,0,0,0,0,0,0],"split_type":[0,0,0,0,0,0,0,0,0,0,0,0,0,0,0],"sum_hessian":[9.795946E4,2.7010303E4,7.094916E4,2.366898E4,3.3413223E3,2.060619E4,5.034297E4,1.5787831E4,7.8811494E3,2.1053276E3,1.2359946E3,1.3287743E4,7.318447E3,1.6674838E4,3.366813E4],"tree_param":{"num_deleted":"0","num_feature":"13","num_nodes":"15","size_leaf_vector":"1"}},{"base_weights":[1.2181164E-3,-1.7454319E-1,3.080091E-1,-2.6759207E-1,4.512685E-1,1.7502786E-1,7.335586E-1,-3.1153357E-2,1.05378225E-1,1.4472592E-2,7.74067E-2,6.6472455E-3,8.433536E-2,4.03063E-2,8.52591E-2],"categories":[],"categories_nodes":[],"categories_segments":[],"categories_sizes":[],"default_left":[0,0,0,0,0,0,0,0,0,0,0,0,0,0,0],"id":29,"left_children":[1,3,5,7,9,11,13,-1,-1,-1,-1,-1,-1,-1,-1],"loss_changes":[5.244501E3,3.600858E3,2.0046099E3,3.1259858E3,7.919249E2,1.9582526E3,3.3145557E2,0E0,0E0,0E0,0E0,0E0,0E0,0E0,0E0],"parents":[2147483647,0,0,1,1,2,2,3,3,4,4,5,5,6,6],"right_children":[2,4,6,8,10,12,14,-1,-1,-1,-1,-1,-1,-1,-1],"split_conditions":[2E0,3E0,4.3255086E0,8E0,3.8767455E0,3E0,1E0,-3.1153357E-2,1.05378225E-1,1.4472592E-2,7.74067E-2,6.6472455E-3,8.433536E-2,4.03063E-2,8.52591E-2],"split_indices":[11,9,1,12,1,7,9,0,0,0,0,0,0,0,0],"split_type":[0,0,0,0,0,0,0,0,0,0,0,0,0,0,0],"sum_hessian":[9.725893E4,6.183432E4,3.5424605E4,5.3831023E4,8.0032993E3,2.6991395E4,8.433209E3,5.2099258E4,1.7317649E3,4.105755E3,3.8975444E3,2.322077E4,3.7706245E3,2.2342258E3,6.198983E3],"tree_param":{"num_deleted":"0","num_feature":"13","num_nodes":"15","size_leaf_vector":"1"}},{"base_weights":[1.2315E-3,-9.142625E-2,5.976065E-1,-2.52651E-1,2.2862846E-1,3.999601E-1,9.7781676E-1,-3.4264226E-2,3.452206E-2,1.3876167E-3,5.8361735E-2,1.8896809E-2,8.026068E-2,-1.5585363E-2,1.03245914E-1],"categories":[],"categories_nodes":[],"categories_segments":[],"categories_sizes":[],"default_left":[0,0,0,0,0,0,0,0,0,0,0,0,0,0,0],"id":30,"left_children":[1,3,5,7,9,11,13,-1,-1,-1,-1,-1,-1,-1,-1],"loss_changes":[5.3327E3,4.3101E3,9.748247E2,2.9886953E3,2.1331387E3,7.253989E2,2.7508008E2,0E0,0E0,0E0,0E0,0E0,0E0,0E0,0E0],"parents":[2147483647,0,0,1,1,2,2,3,3,4,4,5,5,6,6],"right_children":[2,4,6,8,10,12,14,-1,-1,-1,-1,-1,-1,-1,-1],"split_conditions":[3E0,2E0,4E0,3E0,2E0,4.1478605E0,2.6966856E0,-3.4264226E-2,3.452206E-2,1.3876167E-3,5.8361735E-2,1.8896809E-2,8.026068E-2,-1.5585363E-2,1.03245914E-1],"split_indices":[6,7,6,8,10,1,1,0,0,0,0,0,0,0,0],"split_type":[0,0,0,0,0,0,0,0,0,0,0,0,0,0,0],"sum_hessian":[9.6502164E4,8.352576E4,1.2976406E4,5.554544E4,2.7980318E4,8.539389E3,4.437017E3,4.8278953E4,7.2664893E3,1.7434355E4,1.0545961E4,5.6041904E3,2.9351985E3,2.0394267E2,4.233074E3],"tree_param":{"num_deleted":"0","num_feature":"13","num_nodes":"15","size_leaf_vector":"1"}},{"base_weights":[1.1210351E-3,-3.4561995E-1,1.5170512E-1,-4.548142E-1,3.945542E-1,-3.2383367E-1,2.6620772E-1,-5.0013274E-2,1.0473799E-1,-2.231213E-3,9.350134E-2,-5.8835763E-2,9.723394E-4,-2.7599398E-2,3.7422314E-2],"categories":[],"categories_nodes":[],"categories_segments":[],"categories_sizes":[],"default_left":[0,0,0,0,0,0,0,0,0,0,0,0,0,0,0],"id":31,"left_children":[1,3,5,7,9,11,13,-1,-1,-1,-1,-1,-1,-1,-1],"loss_changes":[5.013281E3,2.3498677E3,3.6451409E3,1.7252666E3,8.421955E2,1.1462725E3,3.159885E3,0E0,0E0,0E0,0E0,0E0,0E0,0E0,0E0],"parents":[2147483647,0,0,1,1,2,2,3,3,4,4,5,5,6,6],"right_children":[2,4,6,8,10,12,14,-1,-1,-1,-1,-1,-1,-1,-1],"split_conditions":[1E0,3E0,4E0,8E0,2E0,3.8306553E0,3.0553927E0,-5.0013274E-2,1.0473799E-1,-2.231213E-3,9.350134E-2,-5.8835763E-2,9.723394E-4,-2.7599398E-2,3.7422314E-2],"split_indices":[3,2,12,12,6,1,1,0,0,0,0,0,0,0,0],"split_type":[0,0,0,0,0,0,0,0,0,0,0,0,0,0,0],"sum_hessian":[9.601272E4,2.9071111E4,6.694161E4,2.5334084E4,3.7370269E3,1.2990242E4,5.3951367E4,2.4592828E4,7.412552E2,2.110284E3,1.6267429E3,7.2443906E3,5.745852E3,8.962255E3,4.4989113E4],"tree_param":{"num_deleted":"0","num_feature":"13","num_nodes":"15","size_leaf_vector":"1"}},{"base_weights":[9.255346E-4,-1.6364221E-1,3.0227518E-1,-3.380644E-1,1.5364397E-1,-1.0077318E-1,4.587684E-1,-4.4302978E-2,1.2278621E-2,-5.7698344E-3,4.6394147E-2,-5.0633587E-2,2.7921243E-2,2.853565E-2,7.237327E-2],"categories":[],"categories_nodes":[],"categories_segments":[],"categories_sizes":[],"default_left":[0,0,0,0,0,0,0,0,0,0,0,0,0,0,0],"id":32,"left_children":[1,3,5,7,9,11,13,-1,-1,-1,-1,-1,-1,-1,-1],"loss_changes":[4.7264976E3,3.4115002E3,2.123352E3,1.9242051E3,1.4340574E3,1.4512031E3,1.1139697E3,0E0,0E0,0E0,0E0,0E0,0E0,0E0,0E0],"parents":[2147483647,0,0,1,1,2,2,3,3,4,4,5,5,6,6],"right_children":[2,4,6,8,10,12,14,-1,-1,-1,-1,-1,-1,-1,-1],"split_conditions":[2E0,2E0,1E0,4.384266E0,3E0,3.8078392E0,2E0,-4.4302978E-2,1.2278621E-2,-5.7698344E-3,4.6394147E-2,-5.0633587E-2,2.7921243E-2,2.853565E-2,7.237327E-2],"split_indices":[5,10,8,1,4,1,11,0,0,0,0,0,0,0,0],"split_type":[0,0,0,0,0,0,0,0,0,0,0,0,0,0,0],"sum_hessian":[9.5304836E4,6.1642297E4,3.3662543E4,3.977607E4,2.1866225E4,9.414876E3,2.4247666E4,3.2397184E4,7.3788867E3,1.300761E4,8.858614E3,4.5540054E3,4.860871E3,1.4657082E4,9.590584E3],"tree_param":{"num_deleted":"0","num_feature":"13","num_nodes":"15","size_leaf_vector":"1"}},{"base_weights":[7.6746976E-4,-8.42349E-2,5.598182E-1,-4.099171E-1,6.0959734E-2,3.9147702E-1,9.057762E-1,-4.6506595E-2,7.110417E-2,-7.568837E-2,1.2877004E-2,2.738429E-2,9.913936E-2,6.87902E-2,1.16402686E-1],"categories":[],"categories_nodes":[],"categories_segments":[],"categories_sizes":[],"default_left":[0,0,0,0,0,0,0,0,0,0,0,0,0,0,0],"id":33,"left_children":[1,3,5,7,9,11,13,-1,-1,-1,-1,-1,-1,-1,-1],"loss_changes":[4.49855E3,3.8856814E3,7.272803E2,1.5666895E3,3.152045E3,5.929574E2,2.2925903E2,0E0,0E0,0E0,0E0,0E0,0E0,0E0,0E0],"parents":[2147483647,0,0,1,1,2,2,3,3,4,4,5,5,6,6],"right_children":[2,4,6,8,10,12,14,-1,-1,-1,-1,-1,-1,-1,-1],"split_conditions":[3E0,1E0,4E0,4E0,2.7092783E0,3E0,2E0,-4.6506595E-2,7.110417E-2,-7.568837E-2,1.2877004E-2,2.738429E-2,9.913936E-2,6.87902E-2,1.16402686E-1],"split_indices":[3,9,3,5,1,11,5,0,0,0,0,0,0,0,0],"split_type":[0,0,0,0,0,0,0,0,0,0,0,0,0,0,0],"sum_hessian":[9.466318E4,8.2170234E4,1.2492945E4,2.533659E4,5.683365E4,8.40517E3,4.0877756E3,2.414909E4,1.1874999E3,4.3507046E3,5.248294E4,7.028457E3,1.3767125E3,2.2192012E3,1.8685743E3],"tree_param":{"num_deleted":"0","num_feature":"13","num_nodes":"15","size_leaf_vector":"1"}},{"base_weights":[6.29966E-4,-2.0235792E-1,2.2721179E-1,-2.5496715E-1,8.1977063E-1,-1.37271E-1,3.7412646E-1,-2.9816493E-2,1.04940094E-1,5.4914117E-2,1.3784997E-1,-4.348683E-2,2.1611592E-2,1.9908017E-2,6.668224E-2],"categories":[],"categories_nodes":[],"categories_segments":[],"categories_sizes":[],"default_left":[0,0,0,0,0,0,0,0,0,0,0,0,0,0,0],"id":34,"left_children":[1,3,5,7,9,11,13,-1,-1,-1,-1,-1,-1,-1,-1],"loss_changes":[4.335705E3,2.673975E3,2.3853525E3,2.664887E3,3.6731628E2,1.3459912E3,1.6265122E3,0E0,0E0,0E0,0E0,0E0,0E0,0E0,0E0],"parents":[2147483647,0,0,1,1,2,2,3,3,4,4,5,5,6,6],"right_children":[2,4,6,8,10,12,14,-1,-1,-1,-1,-1,-1,-1,-1],"split_conditions":[5E0,4E0,1E0,8E0,5E0,3.8767455E0,2E0,-2.9816493E-2,1.04940094E-1,5.4914117E-2,1.3784997E-1,-4.348683E-2,2.1611592E-2,1.9908017E-2,6.668224E-2],"split_indices":[0,10,2,12,10,1,8,0,0,0,0,0,0,0,0],"split_type":[0,0,0,0,0,0,0,0,0,0,0,0,0,0,0],"sum_hessian":[9.4266055E4,4.9721848E4,4.454421E4,4.728864E4,2.4332085E3,1.2796716E4,3.1747494E4,4.5773496E4,1.515146E3,1.6405596E3,7.926488E2,6.9465747E3,5.850141E3,1.9867467E4,1.1880027E4],"tree_param":{"num_deleted":"0","num_feature":"13","num_nodes":"15","size_leaf_vector":"1"}},{"base_weights":[6.287909E-4,-1.5523462E-1,2.954341E-1,-4.649385E-1,1.4822343E-2,-8.36303E-2,4.4285008E-1,-8.8531636E-2,-2.8038576E-2,-3.7462212E-2,1.7475396E-2,-3.8213782E-2,2.1761421E-2,3.5103567E-2,1.00993454E-1],"categories":[],"categories_nodes":[],"categories_segments":[],"categories_sizes":[],"default_left":[0,0,0,0,0,0,0,0,0,0,0,0,0,0,0],"id":35,"left_children":[1,3,5,7,9,11,13,-1,-1,-1,-1,-1,-1,-1,-1],"loss_changes":[4.3000767E3,3.2241606E3,1.8086313E3,1.6832207E3,2.4614927E3,8.1508905E2,1.2129678E3,0E0,0E0,0E0,0E0,0E0,0E0,0E0,0E0],"parents":[2147483647,0,0,1,1,2,2,3,3,4,4,5,5,6,6],"right_children":[2,4,6,8,10,12,14,-1,-1,-1,-1,-1,-1,-1,-1],"split_conditions":[2E0,2E0,1E0,1E0,1E0,5E0,4E0,-8.8531636E-2,-2.8038576E-2,-3.7462212E-2,1.7475396E-2,-3.8213782E-2,2.1761421E-2,3.5103567E-2,1.00993454E-1],"split_indices":[6,4,5,2,10,0,6,0,0,0,0,0,0,0,0],"split_type":[0,0,0,0,0,0,0,0,0,0,0,0,0,0,0],"sum_hessian":[9.358096E4,6.1216367E4,3.2364592E4,2.169826E4,3.951811E4,9.0623E3,2.3302293E4,6.6185654E3,1.5079694E4,1.1503924E4,2.8014184E4,4.551693E3,4.5106064E3,2.0056621E4,3.2456707E3],"tree_param":{"num_deleted":"0","num_feature":"13","num_nodes":"15","size_leaf_vector":"1"}},{"base_weights":[4.7651964E-4,-8.217111E-2,4.980372E-1,-1.7072096E-1,5.0766516E-1,3.7316105E-1,1.0577497E0,-2.7658153E-2,3.0673647E-2,3.416684E-2,8.550494E-2,-9.31048E-3,5.3635687E-2,3.7094798E-2,1.1393436E-1],"categories":[],"categories_nodes":[],"categories_segments":[],"categories_sizes":[],"default_left":[0,0,0,0,0,0,0,0,0,0,0,0,0,0,0],"id":36,"left_children":[1,3,5,7,9,11,13,-1,-1,-1,-1,-1,-1,-1,-1],"loss_changes":[3.831431E3,4.173256E3,9.2723706E2,3.5114395E3,6.011272E2,8.2584204E2,1.3521216E2,0E0,0E0,0E0,0E0,0E0,0E0,0E0,0E0],"parents":[2147483647,0,0,1,1,2,2,3,3,4,4,5,5,6,6],"right_children":[2,4,6,8,10,12,14,-1,-1,-1,-1,-1,-1,-1,-1],"split_conditions":[3E0,3E0,3E0,7E0,4E0,1E0,4E0,-2.7658153E-2,3.0673647E-2,3.416684E-2,8.550494E-2,-9.31048E-3,5.3635687E-2,3.7094798E-2,1.1393436E-1],"split_indices":[5,2,7,0,2,8,12,0,0,0,0,0,0,0,0],"split_type":[0,0,0,0,0,0,0,0,0,0,0,0,0,0,0],"sum_hessian":[9.316981E4,7.989898E4,1.3270836E4,6.947037E4,1.0428608E4,1.0851459E4,2.4193765E3,5.686323E4,1.2607141E4,7.057961E3,3.3706472E3,2.8134883E3,8.037971E3,2.574959E2,2.1618806E3],"tree_param":{"num_deleted":"0","num_feature":"13","num_nodes":"15","size_leaf_vector":"1"}},{"base_weights":[4.5232035E-4,-3.080747E-1,1.3329455E-1,-3.6203983E-1,7.974204E-1,-2.876557E-1,2.3365128E-1,-4.009442E-2,1.0398487E-1,6.9303654E-2,2.062193E-1,-6.780147E-2,-1.2175777E-2,-1.1129491E-2,3.7046283E-2],"categories":[],"categories_nodes":[],"categories_segments":[],"categories_sizes":[],"default_left":[0,0,0,0,0,0,0,0,0,0,0,0,0,0,0],"id":37,"left_children":[1,3,5,7,9,11,13,-1,-1,-1,-1,-1,-1,-1,-1],"loss_changes":[3.7989126E3,1.6645969E3,2.7372158E3,1.4511523E3,1.7003406E2,8.0770056E2,2.469131E3,0E0,0E0,0E0,0E0,0E0,0E0,0E0,0E0],"parents":[2147483647,0,0,1,1,2,2,3,3,4,4,5,5,6,6],"right_children":[2,4,6,8,10,12,14,-1,-1,-1,-1,-1,-1,-1,-1],"split_conditions":[1E0,4E0,4E0,8E0,4E0,1E0,1E0,-4.009442E-2,1.0398487E-1,6.9303654E-2,2.062193E-1,-6.780147E-2,-1.2175777E-2,-1.1129491E-2,3.7046283E-2],"split_indices":[3,11,12,12,2,10,2,0,0,0,0,0,0,0,0],"split_type":[0,0,0,0,0,0,0,0,0,0,0,0,0,0,0],"sum_hessian":[9.268737E4,2.7896416E4,6.479095E4,2.6598666E4,1.29775E3,1.2472536E4,5.231841E4,2.5881143E4,7.175242E2,1.2002401E3,9.75099E1,3.718886E3,8.75365E3,1.4857651E4,3.746076E4],"tree_param":{"num_deleted":"0","num_feature":"13","num_nodes":"15","size_leaf_vector":"1"}},{"base_weights":[3.6326313E-4,-7.7402726E-2,5.184366E-1,-3.9393708E-1,5.562925E-2,9.3572E-2,6.598522E-1,-5.1306468E-2,1.3281521E-2,-2.3243984E-3,5.5323E-2,-8.1978105E-2,2.675358E-2,5.733786E-2,1.2885146E-1],"categories":[],"categories_nodes":[],"categories_segments":[],"categories_sizes":[],"default_left":[0,0,0,0,0,0,0,0,0,0,0,0,0,0,0],"id":38,"left_children":[1,3,5,7,9,11,13,-1,-1,-1,-1,-1,-1,-1,-1],"loss_changes":[3.7119758E3,3.3733857E3,7.224287E2,1.4876108E3,2.213774E3,4.7754706E2,4.8971362E2,0E0,0E0,0E0,0E0,0E0,0E0,0E0,0E0],"parents":[2147483647,0,0,1,1,2,2,3,3,4,4,5,5,6,6],"right_children":[2,4,6,8,10,12,14,-1,-1,-1,-1,-1,-1,-1,-1],"split_conditions":[3E0,1E0,1E0,7E0,3E0,3.0887802E0,5E0,-5.1306468E-2,1.3281521E-2,-2.3243984E-3,5.5323E-2,-8.1978105E-2,2.675358E-2,5.733786E-2,1.2885146E-1],"split_indices":[9,10,5,0,6,1,9,0,0,0,0,0,0,0,0],"split_type":[0,0,0,0,0,0,0,0,0,0,0,0,0,0,0],"sum_hessian":[9.213291E4,8.0108914E4,1.2023989E4,2.3704592E4,5.6404324E4,3.0031326E3,9.020857E3,1.9332484E4,4.3721084E3,4.8687902E4,7.716423E3,4.7988824E2,2.5232444E3,7.9317446E3,1.0891125E3],"tree_param":{"num_deleted":"0","num_feature":"13","num_nodes":"15","size_leaf_vector":"1"}},{"base_weights":[2.9443242E-4,-1.5009357E-1,2.6173016E-1,-2.1152826E-1,5.425896E-1,-3.9707623E-2,4.127577E-1,-2.4727184E-2,1.041639E-1,2.6372964E-2,9.094217E-2,-2.9156474E-2,3.759021E-2,9.075125E-4,5.6048967E-2],"categories":[],"categories_nodes":[],"categories_segments":[],"categories_sizes":[],"default_left":[0,0,0,0,0,0,0,0,0,0,0,0,0,0,0],"id":39,"left_children":[1,3,5,7,9,11,13,-1,-1,-1,-1,-1,-1,-1,-1],"loss_changes":[3.6054465E3,2.477438E3,1.5245483E3,2.3954634E3,4.8492358E2,1.1702256E3,1.3304836E3,0E0,0E0,0E0,0E0,0E0,0E0,0E0,0E0],"parents":[2147483647,0,0,1,1,2,2,3,3,4,4,5,5,6,6],"right_children":[2,4,6,8,10,12,14,-1,-1,-1,-1,-1,-1,-1,-1],"split_conditions":[2E0,5E0,2E0,8E0,4.116497E0,2E0,1E0,-2.4727184E-2,1.041639E-1,2.6372964E-2,9.094217E-2,-2.9156474E-2,3.759021E-2,9.075125E-4,5.6048967E-2],"split_indices":[11,4,4,12,1,2,8,0,0,0,0,0,0,0,0],"split_type":[0,0,0,0,0,0,0,0,0,0,0,0,0,0,0],"sum_hessian":[9.1700445E4,5.8213945E4,3.3486504E4,5.347215E4,4.7417974E3,1.1177642E4,2.2308861E4,5.199006E4,1.4820887E3,2.6948975E3,2.0468998E3,6.9601367E3,4.2175044E3,5.9771523E3,1.6331709E4],"tree_param":{"num_deleted":"0","num_feature":"13","num_nodes":"15","size_leaf_vector":"1"}},{"base_weights":[3.534742E-4,-7.75057E-2,4.89575E-1,-1.7063749E-1,3.3543813E-1,-6.93722E-2,6.4115274E-1,-2.0530056E-2,1.04084134E-1,2.4425885E-2,9.409606E-2,-2.8625086E-2,1.0139584E-1,2.5277302E-2,7.706531E-2],"categories":[],"categories_nodes":[],"categories_segments":[],"categories_sizes":[],"default_left":[0,0,0,0,0,0,0,0,0,0,0,0,0,0,0],"id":40,"left_children":[1,3,5,7,9,11,13,-1,-1,-1,-1,-1,-1,-1,-1],"loss_changes":[3.4708335E3,3.023266E3,1.0600051E3,2.6938687E3,7.9849695E2,6.275741E2,4.9480615E2,0E0,0E0,0E0,0E0,0E0,0E0,0E0,0E0],"parents":[2147483647,0,0,1,1,2,2,3,3,4,4,5,5,6,6],"right_children":[2,4,6,8,10,12,14,-1,-1,-1,-1,-1,-1,-1,-1],"split_conditions":[3E0,7E0,3.2653584E0,8E0,1E1,3E0,1E0,-2.0530056E-2,1.04084134E-1,2.4425885E-2,9.409606E-2,-2.8625086E-2,1.0139584E-1,2.5277302E-2,7.706531E-2],"split_indices":[8,0,1,12,0,9,10,0,0,0,0,0,0,0,0],"split_type":[0,0,0,0,0,0,0,0,0,0,0,0,0,0,0],"sum_hessian":[9.1119E4,7.860925E4,1.2509751E4,6.4143473E4,1.4465779E4,2.6688467E3,9.840904E3,6.2360047E4,1.783427E3,1.2573822E4,1.891957E3,2.2242883E3,4.4455832E2,2.46154E3,7.3793643E3],"tree_param":{"num_deleted":"0","num_feature":"13","num_nodes":"15","size_leaf_vector":"1"}},{"base_weights":[4.4880743E-4,-7.45044E-2,4.9466723E-1,-1.5661809E-1,4.0992272E-1,3.3818322E-1,8.182347E-1,-2.3320785E-2,3.6266968E-2,1.9698137E-2,7.260766E-2,2.3430614E-2,8.7601535E-2,2.6183665E-2,9.322267E-2],"categories":[],"categories_nodes":[],"categories_segments":[],"categories_sizes":[],"default_left":[0,0,0,0,0,0,0,0,0,0,0,0,0,0,0],"id":41,"left_children":[1,3,5,7,9,11,13,-1,-1,-1,-1,-1,-1,-1,-1],"loss_changes":[3.3525996E3,3.1260881E3,6.0319165E2,2.6726538E3,7.666913E2,4.4870056E2,2.4612305E2,0E0,0E0,0E0,0E0,0E0,0E0,0E0,0E0],"parents":[2147483647,0,0,1,1,2,2,3,3,4,4,5,5,6,6],"right_children":[2,4,6,8,10,12,14,-1,-1,-1,-1,-1,-1,-1,-1],"split_conditions":[3E0,4.540655E0,4E0,3E0,4.954023E0,3E0,3.137377E0,-2.3320785E-2,3.6266968E-2,1.9698137E-2,7.260766E-2,2.3430614E-2,8.7601535E-2,2.6183665E-2,9.322267E-2],"split_indices":[3,1,3,2,1,11,1,0,0,0,0,0,0,0,0],"split_type":[0,0,0,0,0,0,0,0,0,0,0,0,0,0,0],"sum_hessian":[9.0503E4,7.8585555E4,1.1917443E4,6.719605E4,1.1389511E4,8.034052E3,3.8833909E3,5.8559637E4,8.636411E3,6.806622E3,4.582889E3,6.734738E3,1.2993142E3,6.608859E2,3.2225051E3],"tree_param":{"num_deleted":"0","num_feature":"13","num_nodes":"15","size_leaf_vector":"1"}},{"base_weights":[4.4508046E-4,-1.3975413E-1,2.7430287E-1,-1.8349591E-1,7.729729E-1,1.0109975E-1,5.649534E-1,-2.5833417E-2,3.201353E-2,-3.5261803E-3,9.822228E-2,-8.279503E-3,3.9212085E-2,3.840427E-2,8.399031E-2],"categories":[],"categories_nodes":[],"categories_segments":[],"categories_sizes":[],"default_left":[0,0,0,0,0,0,0,0,0,0,0,0,0,0,0],"id":42,"left_children":[1,3,5,7,9,11,13,-1,-1,-1,-1,-1,-1,-1,-1],"loss_changes":[3.4564294E3,2.3773066E3,1.5344514E3,2.1416646E3,4.6058875E2,1.0222756E3,5.658208E2,0E0,0E0,0E0,0E0,0E0,0E0,0E0,0E0],"parents":[2147483647,0,0,1,1,2,2,3,3,4,4,5,5,6,6],"right_children":[2,4,6,8,10,12,14,-1,-1,-1,-1,-1,-1,-1,-1],"split_conditions":[2E0,4E0,2E0,3E0,1E0,2E0,3E0,-2.5833417E-2,3.201353E-2,-3.5261803E-3,9.822228E-2,-8.279503E-3,3.9212085E-2,3.840427E-2,8.399031E-2],"split_indices":[7,11,8,6,5,11,7,0,0,0,0,0,0,0,0],"split_type":[0,0,0,0,0,0,0,0,0,0,0,0,0,0,0],"sum_hessian":[9.0021734E4,5.9540805E4,3.0480932E4,5.6818613E4,2.7221914E3,1.9100186E4,1.1380746E4,4.946825E4,7.3503647E3,5.6000073E2,2.1621907E3,1.1704736E4,7.3954487E3,6.865681E3,4.515065E3],"tree_param":{"num_deleted":"0","num_feature":"13","num_nodes":"15","size_leaf_vector":"1"}},{"base_weights":[4.1773135E-4,-1.4743282E-1,2.3997363E-1,-2.2977965E-1,3.9194587E-1,-3.927484E-1,3.0279016E-1,-2.6200874E-2,1.0376137E-1,-7.6983958E-3,5.4400384E-2,-5.1651407E-2,1.3642205E-1,-3.645732E-4,4.2501446E-2],"categories":[],"categories_nodes":[],"categories_segments":[],"categories_sizes":[],"default_left":[0,0,0,0,0,0,0,0,0,0,0,0,0,0,0],"id":43,"left_children":[1,3,5,7,9,11,13,-1,-1,-1,-1,-1,-1,-1,-1],"loss_changes":[3.1737334E3,2.461145E3,1.3593198E3,1.9638171E3,5.233624E2,6.724038E2,1.1651829E3,0E0,0E0,0E0,0E0,0E0,0E0,0E0,0E0],"parents":[2147483647,0,0,1,1,2,2,3,3,4,4,5,5,6,6],"right_children":[2,4,6,8,10,12,14,-1,-1,-1,-1,-1,-1,-1,-1],"split_conditions":[3E0,3E0,2.7836187E0,8E0,1E0,4E0,1E0,-2.6200874E-2,1.0376137E-1,-7.6983958E-3,5.4400384E-2,-5.1651407E-2,1.3642205E-1,-3.645732E-4,4.2501446E-2],"split_indices":[4,9,1,12,5,2,3,0,0,0,0,0,0,0,0],"split_type":[0,0,0,0,0,0,0,0,0,0,0,0,0,0,0],"sum_hessian":[8.960473E4,5.5408043E4,3.4196684E4,4.806981E4,7.338233E3,3.0879487E3,3.1108734E4,4.6878508E4,1.1913008E3,1.7969949E3,5.541238E3,2.8853994E3,2.0254932E2,8.870339E3,2.2238396E4],"tree_param":{"num_deleted":"0","num_feature":"13","num_nodes":"15","size_leaf_vector":"1"}},{"base_weights":[4.062917E-4,-2.7834192E-1,1.2289301E-1,-4.6438462E-1,-6.280913E-2,-6.849613E-1,1.6886541E-1,-5.2660532E-2,4.1421644E-2,-1.2651242E-2,9.7284004E-2,-9.091289E-2,4.4241857E-2,2.5585163E-3,4.2338792E-2],"categories":[],"categories_nodes":[],"categories_segments":[],"categories_sizes":[],"default_left":[0,0,0,0,0,0,0,0,0,0,0,0,0,0,0],"id":44,"left_children":[1,3,5,7,9,11,13,-1,-1,-1,-1,-1,-1,-1,-1],"loss_changes":[3.043753E3,1.0912217E3,2.300243E3,7.987024E2,8.319987E2,8.4318933E2,2.136984E3,0E0,0E0,0E0,0E0,0E0,0E0,0E0,0E0],"parents":[2147483647,0,0,1,1,2,2,3,3,4,4,5,5,6,6],"right_children":[2,4,6,8,10,12,14,-1,-1,-1,-1,-1,-1,-1,-1],"split_conditions":[1E0,5E0,2.5958428E0,4.8561134E0,4E0,3E0,2E0,-5.2660532E-2,4.1421644E-2,-1.2651242E-2,9.7284004E-2,-9.091289E-2,4.4241857E-2,2.5585163E-3,4.2338792E-2],"split_indices":[9,0,1,1,6,10,3,0,0,0,0,0,0,0,0],"split_type":[0,0,0,0,0,0,0,0,0,0,0,0,0,0,0],"sum_hessian":[8.914532E4,2.7213389E4,6.193193E4,1.4605295E4,1.2608093E4,3.3338386E3,5.859809E4,1.3639757E4,9.65538E2,1.1878329E4,7.297641E2,2.7810498E3,5.5278876E2,3.7492984E4,2.1105105E4],"tree_param":{"num_deleted":"0","num_feature":"13","num_nodes":"15","size_leaf_vector":"1"}},{"base_weights":[2.6711202E-4,-7.358491E-2,4.4805187E-1,-1.4719886E-1,4.1071296E-1,3.3898714E-1,9.5300925E-1,-2.2243183E-2,3.3235904E-2,6.9920593E-3,5.6772795E-2,1.5351745E-2,6.9505915E-2,5.5962283E-2,1.081444E-1],"categories":[],"categories_nodes":[],"categories_segments":[],"categories_sizes":[],"default_left":[0,0,0,0,0,0,0,0,0,0,0,0,0,0,0],"id":45,"left_children":[1,3,5,7,9,11,13,-1,-1,-1,-1,-1,-1,-1,-1],"loss_changes":[2.934329E3,2.7155671E3,6.915242E2,2.3855735E3,5.377529E2,6.8226013E2,1.12105835E2,0E0,0E0,0E0,0E0,0E0,0E0,0E0,0E0],"parents":[2147483647,0,0,1,1,2,2,3,3,4,4,5,5,6,6],"right_children":[2,4,6,8,10,12,14,-1,-1,-1,-1,-1,-1,-1,-1],"split_conditions":[3E0,3E0,3E0,3E0,4E0,4E0,1E0,-2.2243183E-2,3.3235904E-2,6.9920593E-3,5.6772795E-2,1.5351745E-2,6.9505915E-2,5.5962283E-2,1.081444E-1],"split_indices":[5,2,7,8,0,5,2,0,0,0,0,0,0,0,0],"split_type":[0,0,0,0,0,0,0,0,0,0,0,0,0,0,0],"sum_hessian":[8.872936E4,7.616799E4,1.256136E4,6.611858E4,1.004942E4,1.0331542E4,2.229818E3,5.7152965E4,8.965613E3,3.1701748E3,6.879245E3,6.7940894E3,3.5374531E3,5.5013904E2,1.6796791E3],"tree_param":{"num_deleted":"0","num_feature":"13","num_nodes":"15","size_leaf_vector":"1"}},{"base_weights":[2.7640045E-4,-1.3291334E-1,2.4079378E-1,-2.055078E-1,3.5256246E-1,-7.650705E-2,3.724722E-1,-2.9723754E-2,1.971747E-2,2.6345292E-2,1.1035111E-1,-2.3904895E-2,3.5216887E-2,2.8620034E-2,9.2302784E-2],"categories":[],"categories_nodes":[],"categories_segments":[],"categories_sizes":[],"default_left":[0,0,0,0,0,0,0,0,0,0,0,0,0,0,0],"id":46,"left_children":[1,3,5,7,9,11,13,-1,-1,-1,-1,-1,-1,-1,-1],"loss_changes":[2.8288184E3,2.0030413E3,1.31499E3,1.8263081E3,4.9444537E2,6.4328864E2,1.0561785E3,0E0,0E0,0E0,0E0,0E0,0E0,0E0,0E0],"parents":[2147483647,0,0,1,1,2,2,3,3,4,4,5,5,6,6],"right_children":[2,4,6,8,10,12,14,-1,-1,-1,-1,-1,-1,-1,-1],"split_conditions":[2E0,3E0,1E0,7E0,5E0,4.2366333E0,4E0,-2.9723754E-2,1.971747E-2,2.6345292E-2,1.1035111E-1,-2.3904895E-2,3.5216887E-2,2.8620034E-2,9.2302784E-2],"split_indices":[10,9,6,0,9,1,10,0,0,0,0,0,0,0,0],"split_type":[0,0,0,0,0,0,0,0,0,0,0,0,0,0,0],"sum_hessian":[8.830352E4,5.6832312E4,3.1471209E4,4.9439996E4,7.392317E3,9.230125E3,2.2241086E4,4.0267465E4,9.172532E3,6.6093813E3,7.829356E2,6.692832E3,2.5372922E3,1.922937E4,3.0117153E3],"tree_param":{"num_deleted":"0","num_feature":"13","num_nodes":"15","size_leaf_vector":"1"}},{"base_weights":[2.4147822E-4,-2.6885122E-1,1.15250476E-1,-6.0944486E-1,-1.2746552E-1,-1.7119418E-1,2.3360029E-1,-7.2674E-2,1.1570695E-2,-4.5953684E-2,2.0209223E-3,-3.59344E-2,1.4383624E-2,-3.6559792E-3,3.4449384E-2],"categories":[],"categories_nodes":[],"categories_segments":[],"categories_sizes":[],"default_left":[0,0,0,0,0,0,0,0,0,0,0,0,0,0,0],"id":47,"left_children":[1,3,5,7,9,11,13,-1,-1,-1,-1,-1,-1,-1,-1],"loss_changes":[2.7187246E3,1.2665793E3,2.08643E3,6.563628E2,9.1158417E2,1.066624E3,1.3047556E3,0E0,0E0,0E0,0E0,0E0,0E0,0E0,0E0],"parents":[2147483647,0,0,1,1,2,2,3,3,4,4,5,5,6,6],"right_children":[2,4,6,8,10,12,14,-1,-1,-1,-1,-1,-1,-1,-1],"split_conditions":[1E0,1E0,1E0,3E0,1E0,2E0,1E0,-7.2674E-2,1.1570695E-2,-4.5953684E-2,2.0209223E-3,-3.59344E-2,1.4383624E-2,-3.6559792E-3,3.4449384E-2],"split_indices":[8,10,5,11,6,10,2,0,0,0,0,0,0,0,0],"split_type":[0,0,0,0,0,0,0,0,0,0,0,0,0,0,0],"sum_hessian":[8.784592E4,2.6302715E4,6.1543203E4,7.71477E3,1.8587945E4,1.7993264E4,4.354994E4,6.640629E3,1.0741412E3,5.7210645E3,1.286688E4,1.1265112E4,6.728152E3,1.2674021E4,3.087592E4],"tree_param":{"num_deleted":"0","num_feature":"13","num_nodes":"15","size_leaf_vector":"1"}},{"base_weights":[1.12403E-4,-1.2482649E-1,2.441245E-1,-1.6396555E-1,6.948981E-1,-2.3976964E-1,3.2651347E-1,-4.3547448E-2,-4.630257E-3,2.8710255E-2,8.715793E-2,-4.0940225E-2,6.0571846E-2,6.7258338E-3,4.585511E-2],"categories":[],"categories_nodes":[],"categories_segments":[],"categories_sizes":[],"default_left":[0,0,0,0,0,0,0,0,0,0,0,0,0,0,0],"id":48,"left_children":[1,3,5,7,9,11,13,-1,-1,-1,-1,-1,-1,-1,-1],"loss_changes":[2.6670388E3,1.8563845E3,1.1811294E3,1.7641357E3,1.8973218E2,6.184915E2,8.665283E2,0E0,0E0,0E0,0E0,0E0,0E0,0E0,0E0],"parents":[2147483647,0,0,1,1,2,2,3,3,4,4,5,5,6,6],"right_children":[2,4,6,8,10,12,14,-1,-1,-1,-1,-1,-1,-1,-1],"split_conditions":[2E0,4E0,3.0123355E0,1E0,4E0,3E0,2E0,-4.3547448E-2,-4.630257E-3,2.8710255E-2,8.715793E-2,-4.0940225E-2,6.0571846E-2,6.7258338E-3,4.585511E-2],"split_indices":[7,11,1,2,0,2,4,0,0,0,0,0,0,0,0],"split_type":[0,0,0,0,0,0,0,0,0,0,0,0,0,0,0],"sum_hessian":[8.748033E4,5.7856945E4,2.962338E4,5.5221125E4,2.6358203E3,4.3096504E3,2.531373E4,1.6694846E4,3.8526277E4,7.9757416E2,1.8382462E3,3.5899124E3,7.197383E2,8.54236E3,1.6771371E4],"tree_param":{"num_deleted":"0","num_feature":"13","num_nodes":"15","size_leaf_vector":"1"}},{"base_weights":[6.7177374E-5,-2.855565E-2,1.0338479E-1,-1.523621E-1,2.0693222E-1,-2.0822752E-2,4.87342E-2,-7.256415E-2,2.4870563E-2],"categories":[],"categories_nodes":[],"categories_segments":[],"categories_sizes":[],"default_left":[0,0,0,0,0,0,0,0,0],"id":49,"left_children":[1,3,-1,5,7,-1,-1,-1,-1],"loss_changes":[2.578057E3,2.471768E3,0E0,1.9859011E3,1.1382603E3,0E0,0E0,0E0,0E0],"parents":[2147483647,0,0,1,1,3,3,4,4],"right_children":[2,4,-1,6,8,-1,-1,-1,-1],"split_conditions":[8E0,2E0,1.0338479E-1,5E0,2.5460453E0,-2.0822752E-2,4.87342E-2,-7.256415E-2,2.4870563E-2],"split_indices":[12,6,0,4,1,0,0,0,0],"split_type":[0,0,0,0,0,0,0,0,0],"sum_hessian":[8.712476E4,8.477842E4,2.346332E3,5.5565516E4,2.9212908E4,5.110333E4,4.4621846E3,1.2517501E3,2.7961158E4],"tree_param":{"num_deleted":"0","num_feature":"13","num_nodes":"9","size_leaf_vector":"1"}},{"base_weights":[1.4906704E-4,-2.558982E-1,1.09251216E-1,-3.0861017E-1,6.6416687E-1,-2.536706E-1,1.959809E-1,-3.967568E-2,2.4422048E-2,3.5893057E-2,1.0681722E-1,-4.8405033E-2,1.0174018E-3,1.3872555E-2,7.686854E-2],"categories":[],"categories_nodes":[],"categories_segments":[],"categories_sizes":[],"default_left":[0,0,0,0,0,0,0,0,0,0,0,0,0,0,0],"id":50,"left_children":[1,3,5,7,9,11,13,-1,-1,-1,-1,-1,-1,-1,-1],"loss_changes":[2.4207544E3,1.2559098E3,1.9126654E3,1.193467E3,1.7266882E2,7.124431E2,1.6080768E3,0E0,0E0,0E0,0E0,0E0,0E0,0E0,0E0],"parents":[2147483647,0,0,1,1,2,2,3,3,4,4,5,5,6,6],"right_children":[2,4,6,8,10,12,14,-1,-1,-1,-1,-1,-1,-1,-1],"split_conditions":[1E0,9E0,4E0,3E0,2E0,3.8151834E0,5E0,-3.967568E-2,2.4422048E-2,3.5893057E-2,1.0681722E-1,-4.8405033E-2,1.0174018E-3,1.3872555E-2,7.686854E-2],"split_indices":[3,0,12,2,8,1,4,0,0,0,0,0,0,0,0],"split_type":[0,0,0,0,0,0,0,0,0,0,0,0,0,0,0],"sum_hessian":[8.665373E4,2.5890662E4,6.0763062E4,2.4488352E4,1.402311E3,1.1719731E4,4.904333E4,2.1120979E4,3.3673735E3,7.9987427E2,6.024368E2,6.2562036E3,5.463528E3,4.4587043E4,4.4562876E3],"tree_param":{"num_deleted":"0","num_feature":"13","num_nodes":"15","size_leaf_vector":"1"}},{"base_weights":[7.094166E-5,-1.2496461E-1,2.1657348E-1,-1.9711186E-1,3.1906956E-1,-7.581176E-2,3.393819E-1,-3.3721354E-2,6.879331E-3,-1.3288318E-2,4.7889195E-2,-1.4317706E-2,1.0134306E-1,1.7178599E-3,4.5548122E-2],"categories":[],"categories_nodes":[],"categories_segments":[],"categories_sizes":[],"default_left":[0,0,0,0,0,0,0,0,0,0,0,0,0,0,0],"id":51,"left_children":[1,3,5,7,9,11,13,-1,-1,-1,-1,-1,-1,-1,-1],"loss_changes":[2.3339326E3,1.750925E3,1.1333909E3,1.7515046E3,5.518683E2,6.8525854E2,8.314768E2,0E0,0E0,0E0,0E0,0E0,0E0,0E0,0E0],"parents":[2147483647,0,0,1,1,2,2,3,3,4,4,5,5,6,6],"right_children":[2,4,6,8,10,12,14,-1,-1,-1,-1,-1,-1,-1,-1],"split_conditions":[2E0,3E0,1E0,2E0,1E0,4E0,1E0,-3.3721354E-2,6.879331E-3,-1.3288318E-2,4.7889195E-2,-1.4317706E-2,1.0134306E-1,1.7178599E-3,4.5548122E-2],"split_indices":[11,5,9,9,2,2,10,0,0,0,0,0,0,0,0],"split_type":[0,0,0,0,0,0,0,0,0,0,0,0,0,0,0],"sum_hessian":[8.621479E4,5.465221E4,3.1562576E4,4.701389E4,7.6383228E3,9.335878E3,2.22267E4,3.079053E4,1.622336E4,1.9955074E3,5.6428154E3,8.7929375E3,5.4293964E2,5.8878E3,1.6338898E4],"tree_param":{"num_deleted":"0","num_feature":"13","num_nodes":"15","size_leaf_vector":"1"}},{"base_weights":[4.155557E-5,-2.5792522E-2,1.0301141E-1,-8.689972E-2,4.1106004E-1,-1.578584E-2,3.369827E-2,2.1654623E-2,7.061561E-2],"categories":[],"categories_nodes":[],"categories_segments":[],"categories_sizes":[],"default_left":[0,0,0,0,0,0,0,0,0],"id":52,"left_children":[1,3,-1,5,7,-1,-1,-1,-1],"loss_changes":[2.2827808E3,2.2339834E3,0E0,2.2082717E3,5.893214E2,0E0,0E0,0E0,0E0],"parents":[2147483647,0,0,1,1,3,3,4,4],"right_children":[2,4,-1,6,8,-1,-1,-1,-1],"split_conditions":[8E0,3E0,1.0301141E-1,4.540655E0,2E0,-1.578584E-2,3.369827E-2,2.1654623E-2,7.061561E-2],"split_indices":[12,7,0,1,8,0,0,0,0],"split_type":[0,0,0,0,0,0,0,0,0],"sum_hessian":[8.578144E4,8.368364E4,2.0977993E3,7.341509E4,1.0268545E4,6.2888133E4,1.0526958E4,6.190069E3,4.0784766E3],"tree_param":{"num_deleted":"0","num_feature":"13","num_nodes":"9","size_leaf_vector":"1"}},{"base_weights":[1.6904021E-4,-6.312665E-2,4.195882E-1,-2.8835526E-1,5.7937816E-2,2.7543485E-1,7.186336E-1,-3.371966E-2,4.407204E-2,-1.7994143E-3,5.1894445E-2,-2.2836232E-3,4.1731067E-2,5.2675713E-2,1.00223E-1],"categories":[],"categories_nodes":[],"categories_segments":[],"categories_sizes":[],"default_left":[0,0,0,0,0,0,0,0,0,0,0,0,0,0,0],"id":53,"left_children":[1,3,5,7,9,11,13,-1,-1,-1,-1,-1,-1,-1,-1],"loss_changes":[2.263575E3,2.0201049E3,4.8176965E2,9.224353E2,1.6867528E3,3.1931573E2,1.9731946E2,0E0,0E0,0E0,0E0,0E0,0E0,0E0,0E0],"parents":[2147483647,0,0,1,1,2,2,3,3,4,4,5,5,6,6],"right_children":[2,4,6,8,10,12,14,-1,-1,-1,-1,-1,-1,-1,-1],"split_conditions":[3E0,4E0,4E0,4.902968E0,3E0,2E0,2E0,-3.371966E-2,4.407204E-2,-1.7994143E-3,5.1894445E-2,-2.2836232E-3,4.1731067E-2,5.2675713E-2,1.00223E-1],"split_indices":[3,0,3,1,9,4,9,0,0,0,0,0,0,0,0],"split_type":[0,0,0,0,0,0,0,0,0,0,0,0,0,0,0],"sum_hessian":[8.526333E4,7.408396E4,1.1179364E4,2.589936E4,4.81846E4,7.5444976E3,3.6348667E3,2.4273777E4,1.6255815E3,4.1371332E4,6.8132715E3,2.432144E3,5.1123535E3,2.169725E3,1.4651415E3],"tree_param":{"num_deleted":"0","num_feature":"13","num_nodes":"15","size_leaf_vector":"1"}},{"base_weights":[1.5401082E-4,-2.4753594E-1,1.0222693E-1,-4.309203E-1,-3.648801E-2,-1.3053249E-1,2.251772E-1,-5.045568E-2,4.168527E-2,-1.2032256E-2,5.693541E-2,-3.0198446E-2,1.7408205E-2,-4.532756E-3,3.4005776E-2],"categories":[],"categories_nodes":[],"categories_segments":[],"categories_sizes":[],"default_left":[0,0,0,0,0,0,0,0,0,0,0,0,0,0,0],"id":54,"left_children":[1,3,5,7,9,11,13,-1,-1,-1,-1,-1,-1,-1,-1],"loss_changes":[2.146163E3,9.587755E2,1.7203733E3,8.276926E2,5.8512006E2,1.0852747E3,1.2224218E3,0E0,0E0,0E0,0E0,0E0,0E0,0E0,0E0],"parents":[2147483647,0,0,1,1,2,2,3,3,4,4,5,5,6,6],"right_children":[2,4,6,8,10,12,14,-1,-1,-1,-1,-1,-1,-1,-1],"split_conditions":[1E0,3.8078392E0,2E0,5E0,8E0,2E0,1E0,-5.045568E-2,4.168527E-2,-1.2032256E-2,5.693541E-2,-3.0198446E-2,1.7408205E-2,-4.532756E-3,3.4005776E-2],"split_indices":[10,1,4,4,0,6,7,0,0,0,0,0,0,0,0],"split_type":[0,0,0,0,0,0,0,0,0,0,0,0,0,0,0],"sum_hessian":[8.488551E4,2.4772113E4,6.0113395E4,1.3254198E4,1.1517916E4,2.0778041E4,3.933535E4,1.2195332E4,1.0588662E3,1.0118544E4,1.3993713E3,1.3294983E4,7.4830586E3,1.1725764E4,2.760959E4],"tree_param":{"num_deleted":"0","num_feature":"13","num_nodes":"15","size_leaf_vector":"1"}},{"base_weights":[6.070517E-5,-8.133736E-2,3.0694997E-1,-3.463281E-1,3.23362E-2,2.2096644E-1,1.02725185E-1,-4.3354195E-2,2.510851E-2,-1.10243205E-2,2.8154064E-2,-9.04715E-3,3.7427787E-2],"categories":[],"categories_nodes":[],"categories_segments":[],"categories_sizes":[],"default_left":[0,0,0,0,0,0,0,0,0,0,0,0,0],"id":55,"left_children":[1,3,5,7,9,11,-1,-1,-1,-1,-1,-1,-1],"loss_changes":[2.1116196E3,2.0125234E3,1.0972883E3,1.0451067E3,1.6613221E3,7.559741E2,0E0,0E0,0E0,0E0,0E0,0E0,0E0],"parents":[2147483647,0,0,1,1,2,2,3,3,4,4,5,5],"right_children":[2,4,6,8,10,12,-1,-1,-1,-1,-1,-1,-1],"split_conditions":[7E0,1E0,8E0,3E0,2E0,4E0,1.02725185E-1,-4.3354195E-2,2.510851E-2,-1.10243205E-2,2.8154064E-2,-9.04715E-3,3.7427787E-2],"split_indices":[12,8,12,7,5,0,0,0,0,0,0,0,0],"split_type":[0,0,0,0,0,0,0,0,0,0,0,0,0],"sum_hessian":[8.452976E4,6.681006E4,1.7719695E4,2.0055508E4,4.6754555E4,1.5831207E4,1.8884884E3,1.75009E4,2.5546077E3,2.973982E4,1.7014732E4,5.2225303E3,1.0608677E4],"tree_param":{"num_deleted":"0","num_feature":"13","num_nodes":"13","size_leaf_vector":"1"}},{"base_weights":[1.07952605E-4,-6.1516285E-2,3.899397E-1,-1.9085462E-1,1.4622398E-1,2.5290695E-1,6.724773E-1,-3.5596E-2,1.8117465E-3,-1.6689086E-2,2.7762035E-2,-1.3768338E-2,4.290285E-2,5.675545E-2,1.18670695E-1],"categories":[],"categories_nodes":[],"categories_segments":[],"categories_sizes":[],"default_left":[0,0,0,0,0,0,0,0,0,0,0,0,0,0,0],"id":56,"left_children":[1,3,5,7,9,11,13,-1,-1,-1,-1,-1,-1,-1,-1],"loss_changes":[2.0182452E3,1.9492212E3,4.4382898E2,1.5425951E3,1.1452925E3,5.314043E2,2.0137598E2,0E0,0E0,0E0,0E0,0E0,0E0,0E0,0E0],"parents":[2147483647,0,0,1,1,2,2,3,3,4,4,5,5,6,6],"right_children":[2,4,6,8,10,12,14,-1,-1,-1,-1,-1,-1,-1,-1],"split_conditions":[3E0,3E0,4E0,6E0,1E0,2E0,3E0,-3.5596E-2,1.8117465E-3,-1.6689086E-2,2.7762035E-2,-1.3768338E-2,4.290285E-2,5.675545E-2,1.18670695E-1],"split_indices":[11,4,11,12,7,4,2,0,0,0,0,0,0,0,0],"split_type":[0,0,0,0,0,0,0,0,0,0,0,0,0,0,0],"sum_hessian":[8.401074E4,7.2543914E4,1.1466831E4,4.4708586E4,2.7835322E4,7.723011E3,3.7438203E3,2.4975309E4,1.973328E4,8.22797E3,1.9607354E4,2.4002092E3,5.322802E3,3.111132E3,6.326883E2],"tree_param":{"num_deleted":"0","num_feature":"13","num_nodes":"15","size_leaf_vector":"1"}},{"base_weights":[6.159581E-5,-1.1187806E-1,2.0689654E-1,-3.7560758E-1,1.5325674E-3,-2.0340762E-1,2.9389754E-1,-5.688951E-2,-3.086948E-3,-3.291233E-2,8.483234E-3,-4.0415965E-2,3.5761204E-2,-3.8380373E-2,3.4415018E-2],"categories":[],"categories_nodes":[],"categories_segments":[],"categories_sizes":[],"default_left":[0,0,0,0,0,0,0,0,0,0,0,0,0,0,0],"id":57,"left_children":[1,3,5,7,9,11,13,-1,-1,-1,-1,-1,-1,-1,-1],"loss_changes":[1.9368599E3,1.623466E3,1.0486863E3,1.0875964E3,1.0455131E3,5.790128E2,8.255571E2,0E0,0E0,0E0,0E0,0E0,0E0,0E0,0E0],"parents":[2147483647,0,0,1,1,2,2,3,3,4,4,5,5,6,6],"right_children":[2,4,6,8,10,12,14,-1,-1,-1,-1,-1,-1,-1,-1],"split_conditions":[2E0,3.3651989E0,3E0,2E0,4E0,4.28624E0,3E0,-5.688951E-2,-3.086948E-3,-3.291233E-2,8.483234E-3,-4.0415965E-2,3.5761204E-2,-3.8380373E-2,3.4415018E-2],"split_indices":[8,1,0,6,12,1,12,0,0,0,0,0,0,0,0],"split_type":[0,0,0,0,0,0,0,0,0,0,0,0,0,0,0],"sum_hessian":[8.3652695E4,5.4277836E4,2.937486E4,1.6321311E4,3.7956527E4,5.138747E3,2.4236111E4,1.0457408E4,5.863903E3,7.63735E3,3.0319176E4,3.7847231E3,1.3540239E3,1.6726255E3,2.2563486E4],"tree_param":{"num_deleted":"0","num_feature":"13","num_nodes":"15","size_leaf_vector":"1"}},{"base_weights":[-5.7494395E-5,-3.2571957E-2,6.992632E-1,-9.1130204E-2,3.5719135E-1,-9.852816E-2,8.035899E-1,-3.386603E-2,1.4878969E-3,2.2091499E-2,6.38754E-2,-7.469832E-2,5.9684724E-2,4.133273E-2,9.293521E-2],"categories":[],"categories_nodes":[],"categories_segments":[],"categories_sizes":[],"default_left":[0,0,0,0,0,0,0,0,0,0,0,0,0,0,0],"id":58,"left_children":[1,3,5,7,9,11,13,-1,-1,-1,-1,-1,-1,-1,-1],"loss_changes":[1.8913757E3,1.8141981E3,3.0766956E2,1.8133298E3,3.9823218E2,1.9356406E2,1.6002759E2,0E0,0E0,0E0,0E0,0E0,0E0,0E0,0E0],"parents":[2147483647,0,0,1,1,2,2,3,3,4,4,5,5,6,6],"right_children":[2,4,6,8,10,12,14,-1,-1,-1,-1,-1,-1,-1,-1],"split_conditions":[4E0,3E0,3E0,1E0,4E0,2E0,1E0,-3.386603E-2,1.4878969E-3,2.2091499E-2,6.38754E-2,-7.469832E-2,5.9684724E-2,4.133273E-2,9.293521E-2],"split_indices":[6,3,0,5,3,9,11,0,0,0,0,0,0,0,0],"split_type":[0,0,0,0,0,0,0,0,0,0,0,0,0,0,0],"sum_hessian":[8.3179125E4,7.94845E4,3.6946267E3,6.9103164E4,1.038133E4,4.2727637E2,3.2673503E3,2.0720012E4,4.8383156E4,6.996707E3,3.3846233E3,2.2105905E2,2.0621733E2,7.9734235E2,2.470008E3],"tree_param":{"num_deleted":"0","num_feature":"13","num_nodes":"15","size_leaf_vector":"1"}},{"base_weights":[-4.4395063E-5,-2.27787E-1,9.907997E-2,-4.968149E-1,-1.124241E-1,-6.096675E-1,1.3718128E-1,-5.2827336E-2,1.3008896E-1,-4.418726E-2,2.1015233E-3,-8.2644E-2,3.979685E-2,2.4905682E-3,3.388236E-2],"categories":[],"categories_nodes":[],"categories_segments":[],"categories_sizes":[],"default_left":[0,0,0,0,0,0,0,0,0,0,0,0,0,0,0],"id":59,"left_children":[1,3,5,7,9,11,13,-1,-1,-1,-1,-1,-1,-1,-1],"loss_changes":[1.8713185E3,7.8012585E2,1.5597358E3,4.273297E2,7.7350854E2,6.4396216E2,1.2408678E3,0E0,0E0,0E0,0E0,0E0,0E0,0E0,0E0],"parents":[2147483647,0,0,1,1,2,2,3,3,4,4,5,5,6,6],"right_children":[2,4,6,8,10,12,14,-1,-1,-1,-1,-1,-1,-1,-1],"split_conditions":[1E0,1E0,2.5958428E0,5E0,1E0,3E0,2E0,-5.2827336E-2,1.3008896E-1,-4.418726E-2,2.1015233E-3,-8.2644E-2,3.979685E-2,2.4905682E-3,3.388236E-2],"split_indices":[9,3,1,10,8,10,3,0,0,0,0,0,0,0,0],"split_type":[0,0,0,0,0,0,0,0,0,0,0,0,0,0,0],"sum_hessian":[8.289198E4,2.5137094E4,5.7754883E4,7.543122E3,1.7593973E4,2.9456638E3,5.480922E4,7.4140874E3,1.2903458E2,5.071249E3,1.2522723E4,2.4243037E3,5.213601E2,3.520692E4,1.9602297E4],"tree_param":{"num_deleted":"0","num_feature":"13","num_nodes":"15","size_leaf_vector":"1"}},{"base_weights":[-1.3039325E-4,-2.2823463E-1,9.30463E-2,-2.6608038E-1,6.1078614E-1,5.471373E-2,6.8504125E-1,-4.4383205E-2,-6.7284512E-3,-3.040771E-2,8.660003E-2,1.4572664E-3,6.876961E-2,4.6714466E-2,1.1799341E-1],"categories":[],"categories_nodes":[],"categories_segments":[],"categories_sizes":[],"default_left":[0,0,0,0,0,0,0,0,0,0,0,0,0,0,0],"id":60,"left_children":[1,3,5,7,9,11,13,-1,-1,-1,-1,-1,-1,-1,-1],"loss_changes":[1.7549608E3,7.6055676E2,1.3302979E3,8.0966736E2,2.4165424E2,1.3989845E3,3.8388818E2,0E0,0E0,0E0,0E0,0E0,0E0,0E0,0E0],"parents":[2147483647,0,0,1,1,2,2,3,3,4,4,5,5,6,6],"right_children":[2,4,6,8,10,12,14,-1,-1,-1,-1,-1,-1,-1,-1],"split_conditions":[1E0,4E0,4E0,3.8078392E0,1E0,4.954023E0,5E0,-4.4383205E-2,-6.7284512E-3,-3.040771E-2,8.660003E-2,1.4572664E-3,6.876961E-2,4.6714466E-2,1.1799341E-1],"split_indices":[10,6,10,1,11,1,10,0,0,0,0,0,0,0,0],"split_type":[0,0,0,0,0,0,0,0,0,0,0,0,0,0,0],"sum_hessian":[8.256885E4,2.394589E4,5.8622965E4,2.2913033E4,1.0328561E3,5.505891E4,3.5640554E3,1.209614E4,1.0816895E4,2.2524197E2,8.076141E2,5.177649E4,3.2824229E3,2.475889E3,1.0881665E3],"tree_param":{"num_deleted":"0","num_feature":"13","num_nodes":"15","size_leaf_vector":"1"}},{"base_weights":[-1.1381626E-4,-2.118885E-2,1.024394E-1,-6.912095E-2,4.2426148E-1,-1.2516993E-2,3.266476E-2,2.9763952E-2,8.20795E-2],"categories":[],"categories_nodes":[],"categories_segments":[],"categories_sizes":[],"default_left":[0,0,0,0,0,0,0,0,0],"id":61,"left_children":[1,3,-1,5,7,-1,-1,-1,-1],"loss_changes":[1.7756832E3,1.7205681E3,0E0,1.6139106E3,3.9283313E2,0E0,0E0,0E0,0E0],"parents":[2147483647,0,0,1,1,3,3,4,4],"right_children":[2,4,-1,6,8,-1,-1,-1,-1],"split_conditions":[8E0,8E0,1.024394E-1,3E0,1E1,-1.2516993E-2,3.266476E-2,2.9763952E-2,8.20795E-2],"split_indices":[12,0,0,7,0,0,0,0,0],"split_type":[0,0,0,0,0,0,0,0,0],"sum_hessian":[8.223777E4,8.0581125E4,1.6566458E3,7.275343E4,7.827694E3,6.3728805E4,9.024628E3,5.934445E3,1.8932491E3],"tree_param":{"num_deleted":"0","num_feature":"13","num_nodes":"9","size_leaf_vector":"1"}},{"base_weights":[8.00695E-6,-1.0804016E-1,1.8665396E-1,-1.6977216E-1,2.7020967E-1,-7.4885674E-2,2.9366815E-1,-2.3684055E-2,2.6073059E-2,-3.2620143E-2,3.8307186E-2,-1.1430719E-1,-1.3510812E-4,2.277331E-2,7.526036E-2],"categories":[],"categories_nodes":[],"categories_segments":[],"categories_sizes":[],"default_left":[0,0,0,0,0,0,0,0,0,0,0,0,0,0,0],"id":62,"left_children":[1,3,5,7,9,11,13,-1,-1,-1,-1,-1,-1,-1,-1],"loss_changes":[1.6510879E3,1.2108401E3,8.401759E2,1.2871996E3,4.898745E2,6.846961E2,6.444265E2,0E0,0E0,0E0,0E0,0E0,0E0,0E0,0E0],"parents":[2147483647,0,0,1,1,2,2,3,3,4,4,5,5,6,6],"right_children":[2,4,6,8,10,12,14,-1,-1,-1,-1,-1,-1,-1,-1],"split_conditions":[2E0,3E0,1E0,3E0,3E0,2.7219076E0,4E0,-2.3684055E-2,2.6073059E-2,-3.2620143E-2,3.8307186E-2,-1.1430719E-1,-1.3510812E-4,2.277331E-2,7.526036E-2],"split_indices":[11,5,5,2,0,1,11,0,0,0,0,0,0,0,0],"split_type":[0,0,0,0,0,0,0,0,0,0,0,0,0,0,0],"sum_hessian":[8.1869766E4,5.1852883E4,3.0016885E4,4.4578098E4,7.2747866E3,8.715863E3,2.1301023E4,3.8569734E4,6.008361E3,1.1572902E3,6.1174966E3,5.6042413E2,8.155439E3,1.8626463E4,2.674559E3],"tree_param":{"num_deleted":"0","num_feature":"13","num_nodes":"15","size_leaf_vector":"1"}},{"base_weights":[-2.2035376E-5,-1.9168649E-2,1.0219777E-1,-1.22332744E-1,1.6609475E-1,-1.5846549E-2,5.8000755E-2,1.3155982E-2,1.08985856E-1],"categories":[],"categories_nodes":[],"categories_segments":[],"categories_sizes":[],"default_left":[0,0,0,0,0,0,0,0,0],"id":63,"left_children":[1,3,-1,5,7,-1,-1,-1,-1],"loss_changes":[1.5948967E3,1.5291595E3,0E0,1.3042649E3,9.1280615E2,0E0,0E0,0E0,0E0],"parents":[2147483647,0,0,1,1,3,3,4,4],"right_children":[2,4,-1,6,8,-1,-1,-1,-1],"split_conditions":[8E0,2E0,1.0219777E-1,4E0,5E0,-1.5846549E-2,5.8000755E-2,1.3155982E-2,1.08985856E-1],"split_indices":[12,10,0,5,10,0,0,0,0],"split_type":[0,0,0,0,0,0,0,0,0],"sum_hessian":[8.150404E4,8.000615E4,1.4978906E3,5.1389945E4,2.86162E4,4.8876223E4,2.5137224E3,2.7586037E4,1.0301625E3],"tree_param":{"num_deleted":"0","num_feature":"13","num_nodes":"9","size_leaf_vector":"1"}},{"base_weights":[7.76885E-5,-5.5991195E-2,3.535169E-1,-2.9935744E-1,4.8259422E-2,-8.00077E-2,4.75417E-1,-3.4501925E-2,6.3427284E-2,-1.9533193E-2,1.5107638E-2,-2.757082E-2,8.405504E-2,1.5765827E-2,5.8518868E-2],"categories":[],"categories_nodes":[],"categories_segments":[],"categories_sizes":[],"default_left":[0,0,0,0,0,0,0,0,0,0,0,0,0,0,0],"id":64,"left_children":[1,3,5,7,9,11,13,-1,-1,-1,-1,-1,-1,-1,-1],"loss_changes":[1.6081011E3,1.7769343E3,5.871947E2,8.9566174E2,1.2280981E3,4.396827E2,3.024037E2,0E0,0E0,0E0,0E0,0E0,0E0,0E0,0E0],"parents":[2147483647,0,0,1,1,2,2,3,3,4,4,5,5,6,6],"right_children":[2,4,6,8,10,12,14,-1,-1,-1,-1,-1,-1,-1,-1],"split_conditions":[3E0,1E0,3.2653584E0,4E0,1E0,3E0,1E0,-3.4501925E-2,6.3427284E-2,-1.9533193E-2,1.5107638E-2,-2.757082E-2,8.405504E-2,1.5765827E-2,5.8518868E-2],"split_indices":[8,2,1,10,9,9,10,0,0,0,0,0,0,0,0],"split_type":[0,0,0,0,0,0,0,0,0,0,0,0,0,0,0],"sum_hessian":[8.114579E4,7.003623E4,1.1109564E4,2.100337E4,4.903286E4,2.4383115E3,8.671252E3,2.0024637E4,9.7873065E2,1.4553106E4,3.447975E4,2.0114088E3,4.2690286E2,2.2270361E3,6.4442163E3],"tree_param":{"num_deleted":"0","num_feature":"13","num_nodes":"15","size_leaf_vector":"1"}},{"base_weights":[5.410383E-5,-5.35471E-2,3.5171285E-1,-2.785073E-1,4.0704887E-2,-1.5923412E-1,4.4218564E-1,-3.206107E-2,5.292368E-2,-1.0094163E-2,1.9368088E-2,-2.8809145E-2,1.3337307E-1,3.0322416E-2,7.08682E-2],"categories":[],"categories_nodes":[],"categories_segments":[],"categories_sizes":[],"default_left":[0,0,0,0,0,0,0,0,0,0,0,0,0,0,0],"id":65,"left_children":[1,3,5,7,9,11,13,-1,-1,-1,-1,-1,-1,-1,-1],"loss_changes":[1.5234971E3,1.4870752E3,4.9424475E2,7.044385E2,1.0710367E3,3.0990082E2,3.3612878E2,0E0,0E0,0E0,0E0,0E0,0E0,0E0,0E0],"parents":[2147483647,0,0,1,1,2,2,3,3,4,4,5,5,6,6],"right_children":[2,4,6,8,10,12,14,-1,-1,-1,-1,-1,-1,-1,-1],"split_conditions":[3E0,1E0,3E0,4E0,5E0,4E0,4E0,-3.206107E-2,5.292368E-2,-1.0094163E-2,1.9368088E-2,-2.8809145E-2,1.3337307E-1,3.0322416E-2,7.08682E-2],"split_indices":[6,3,0,11,0,7,6,0,0,0,0,0,0,0,0],"split_type":[0,0,0,0,0,0,0,0,0,0,0,0,0,0,0],"sum_hessian":[8.082299E4,7.013378E4,1.0689217E4,2.070743E4,4.9426348E4,1.6078861E3,9.081331E3,1.9682107E4,1.025321E3,2.5663676E4,2.3762672E4,1.4808789E3,1.2700717E2,5.970315E3,3.1110156E3],"tree_param":{"num_deleted":"0","num_feature":"13","num_nodes":"15","size_leaf_vector":"1"}},{"base_weights":[4.266037E-5,-2.0268092E-1,9.19185E-2,-2.4469946E-1,7.067435E-1,-3.5793487E-2,2.8925487E-1,-3.216156E-2,2.5085306E-2,-1.4973359E-1,8.057479E-2,-1.26115475E-2,2.955465E-2,1.7511101E-2,4.9178094E-2],"categories":[],"categories_nodes":[],"categories_segments":[],"categories_sizes":[],"default_left":[0,0,0,0,0,0,0,0,0,0,0,0,0,0,0],"id":66,"left_children":[1,3,5,7,9,11,13,-1,-1,-1,-1,-1,-1,-1,-1],"loss_changes":[1.4993518E3,9.5951843E2,1.3960865E3,9.147661E2,2.4320251E2,1.00652454E3,5.0305493E2,0E0,0E0,0E0,0E0,0E0,0E0,0E0,0E0],"parents":[2147483647,0,0,1,1,2,2,3,3,4,4,5,5,6,6],"right_children":[2,4,6,8,10,12,14,-1,-1,-1,-1,-1,-1,-1,-1],"split_conditions":[1E0,4E0,3E0,3E0,1E0,7E0,2E0,-3.216156E-2,2.5085306E-2,-1.4973359E-1,8.057479E-2,-1.26115475E-2,2.955465E-2,1.7511101E-2,4.9178094E-2],"split_indices":[7,9,4,3,4,12,8,0,0,0,0,0,0,0,0],"split_type":[0,0,0,0,0,0,0,0,0,0,0,0,0,0,0],"sum_hessian":[8.049838E4,2.5104414E4,5.539397E4,2.3996428E4,1.1079869E3,3.3630094E4,2.1763877E4,2.0772604E4,3.2238245E3,4.702272E1,1.0609641E3,2.6426855E4,7.203238E3,1.3920268E4,7.8436094E3],"tree_param":{"num_deleted":"0","num_feature":"13","num_nodes":"15","size_leaf_vector":"1"}},{"base_weights":[1.8512294E-5,-3.243653E-2,5.53523E-1,-2.3593205E-1,5.472394E-2,7.156935E-2,6.959045E-1,-2.8360298E-2,6.656777E-2,-4.889234E-3,2.4073523E-2,-3.5938185E-2,5.868811E-2,3.4921348E-2,8.117559E-2],"categories":[],"categories_nodes":[],"categories_segments":[],"categories_sizes":[],"default_left":[0,0,0,0,0,0,0,0,0,0,0,0,0,0,0],"id":67,"left_children":[1,3,5,7,9,11,13,-1,-1,-1,-1,-1,-1,-1,-1],"loss_changes":[1.4409985E3,1.3439784E3,3.0483337E2,9.768185E2,1.02251154E3,2.254719E2,1.3746667E2,0E0,0E0,0E0,0E0,0E0,0E0,0E0,0E0],"parents":[2147483647,0,0,1,1,2,2,3,3,4,4,5,5,6,6],"right_children":[2,4,6,8,10,12,14,-1,-1,-1,-1,-1,-1,-1,-1],"split_conditions":[4.954023E0,1E0,1E0,4E0,2E0,2E0,1E0,-2.8360298E-2,6.656777E-2,-4.889234E-3,2.4073523E-2,-3.5938185E-2,5.868811E-2,3.4921348E-2,8.117559E-2],"split_indices":[1,2,11,10,5,10,7,0,0,0,0,0,0,0,0],"split_type":[0,0,0,0,0,0,0,0,0,0,0,0,0,0,0],"sum_hessian":[8.021385E4,7.577187E4,4.441984E3,2.2721578E4,5.3050285E4,1.01335E3,3.4286338E3,2.1581197E4,1.14038E3,3.4071652E4,1.8978637E4,5.520105E2,4.613395E2,8.597636E2,2.56887E3],"tree_param":{"num_deleted":"0","num_feature":"13","num_nodes":"15","size_leaf_vector":"1"}},{"base_weights":[4.2268886E-5,-1.7138936E-2,1.0196606E-1,-8.022459E-2,2.6252502E-1,-1.7958192E-2,1.1235659E-2,1.9225381E-2,7.4879296E-2],"categories":[],"categories_nodes":[],"categories_segments":[],"categories_sizes":[],"default_left":[0,0,0,0,0,0,0,0,0],"id":68,"left_children":[1,3,-1,5,7,-1,-1,-1,-1],"loss_changes":[1.3996377E3,1.3862478E3,0E0,1.226741E3,4.9403107E2,0E0,0E0,0E0,0E0],"parents":[2147483647,0,0,1,1,3,3,4,4],"right_children":[2,4,-1,6,8,-1,-1,-1,-1],"split_conditions":[8E0,7E0,1.0196606E-1,2E0,1E1,-1.7958192E-2,1.1235659E-2,1.9225381E-2,7.4879296E-2],"split_indices":[12,0,0,7,0,0,0,0,0],"split_type":[0,0,0,0,0,0,0,0,0],"sum_hessian":[7.9893875E4,7.857089E4,1.3229854E3,6.410991E4,1.4460983E4,4.2291008E4,2.18189E4,1.2636293E4,1.8246912E3],"tree_param":{"num_deleted":"0","num_feature":"13","num_nodes":"9","size_leaf_vector":"1"}},{"base_weights":[1.15530296E-4,-5.1634923E-2,3.2817665E-1,-1.603501E-1,1.2188507E-1,-8.005585E-2,4.44536E-1,-1.9569712E-2,5.8812615E-2,-4.9363907E-2,1.7144684E-2,-2.9478734E-2,2.7997226E-2,-3.6298377E-3,5.3324472E-2],"categories":[],"categories_nodes":[],"categories_segments":[],"categories_sizes":[],"default_left":[0,0,0,0,0,0,0,0,0,0,0,0,0,0,0],"id":69,"left_children":[1,3,5,7,9,11,13,-1,-1,-1,-1,-1,-1,-1,-1],"loss_changes":[1.3504844E3,1.2961448E3,5.148793E2,1.1177007E3,8.074822E2,1.8600487E2,3.597876E2,0E0,0E0,0E0,0E0,0E0,0E0,0E0,0E0],"parents":[2147483647,0,0,1,1,2,2,3,3,4,4,5,5,6,6],"right_children":[2,4,6,8,10,12,14,-1,-1,-1,-1,-1,-1,-1,-1],"split_conditions":[3E0,3E0,3.2434573E0,4E0,3E0,2E0,3E0,-1.9569712E-2,5.8812615E-2,-4.9363907E-2,1.7144684E-2,-2.9478734E-2,2.7997226E-2,-3.6298377E-3,5.3324472E-2],"split_indices":[11,4,1,3,12,3,0,0,0,0,0,0,0,0,0],"split_type":[0,0,0,0,0,0,0,0,0,0,0,0,0,0,0],"sum_hessian":[7.954443E4,6.870699E4,1.0837437E4,4.2241543E4,2.6465445E4,2.403913E3,8.433523E3,4.033734E4,1.9042046E3,1.9715198E3,2.4493926E4,1.5059191E3,8.9799396E2,1.3136488E3,7.119874E3],"tree_param":{"num_deleted":"0","num_feature":"13","num_nodes":"15","size_leaf_vector":"1"}},{"base_weights":[1.00931764E-4,-1.9922638E-1,8.4026396E-2,-4.8231685E-1,-8.8886425E-2,-1.3243322E-1,1.9558847E-1,-8.6525135E-2,-3.216091E-2,-1.04792E-2,1.9889872E-1,-3.1565294E-2,1.8452121E-2,-2.2295315E-3,2.873497E-2],"categories":[],"categories_nodes":[],"categories_segments":[],"categories_sizes":[],"default_left":[0,0,0,0,0,0,0,0,0,0,0,0,0,0,0],"id":70,"left_children":[1,3,5,7,9,11,13,-1,-1,-1,-1,-1,-1,-1,-1],"loss_changes":[1.3258795E3,7.334926E2,1.3469081E3,4.0501965E2,5.5870435E2,1.1016809E3,7.3587317E2,0E0,0E0,0E0,0E0,0E0,0E0,0E0,0E0],"parents":[2147483647,0,0,1,1,2,2,3,3,4,4,5,5,6,6],"right_children":[2,4,6,8,10,12,14,-1,-1,-1,-1,-1,-1,-1,-1],"split_conditions":[1E0,1E0,2E0,3.3993838E0,6E0,2E0,1E0,-8.6525135E-2,-3.216091E-2,-1.04792E-2,1.9889872E-1,-3.1565294E-2,1.8452121E-2,-2.2295315E-3,2.873497E-2],"split_indices":[8,10,4,1,10,2,7,0,0,0,0,0,0,0,0],"split_type":[0,0,0,0,0,0,0,0,0,0,0,0,0,0,0],"sum_hessian":[7.925607E4,2.3482512E4,5.5773555E4,6.5848677E3,1.6897645E4,1.8968846E4,3.680471E4,1.9452772E3,4.6395903E3,1.6770223E4,1.27421974E2,1.2020336E4,6.9485107E3,1.0907053E4,2.5897656E4],"tree_param":{"num_deleted":"0","num_feature":"13","num_nodes":"15","size_leaf_vector":"1"}},{"base_weights":[1.28992515E-5,-9.423361E-2,1.7733857E-1,-3.061224E-1,-3.9058751E-3,1.44005045E-2,3.6142978E-1,-4.6703037E-2,-2.9372566E-3,-2.8997978E-2,6.9101066E-3,-2.2406122E-2,2.3697345E-2,2.9297933E-2,7.7429764E-2],"categories":[],"categories_nodes":[],"categories_segments":[],"categories_sizes":[],"default_left":[0,0,0,0,0,0,0,0,0,0,0,0,0,0,0],"id":71,"left_children":[1,3,5,7,9,11,13,-1,-1,-1,-1,-1,-1,-1,-1],"loss_changes":[1.3201794E3,9.872134E2,8.2229755E2,6.8650085E2,7.553327E2,7.719603E2,3.635359E2,0E0,0E0,0E0,0E0,0E0,0E0,0E0,0E0],"parents":[2147483647,0,0,1,1,2,2,3,3,4,4,5,5,6,6],"right_children":[2,4,6,8,10,12,14,-1,-1,-1,-1,-1,-1,-1,-1],"split_conditions":[2E0,3.3651989E0,6E0,2E0,4E0,3.764219E0,3E0,-4.6703037E-2,-2.9372566E-3,-2.8997978E-2,6.9101066E-3,-2.2406122E-2,2.3697345E-2,2.9297933E-2,7.7429764E-2],"split_indices":[6,1,12,10,12,1,2,0,0,0,0,0,0,0,0],"split_type":[0,0,0,0,0,0,0,0,0,0,0,0,0,0,0],"sum_hessian":[7.899237E4,5.1579133E4,2.7413232E4,1.5415472E4,3.616366E4,1.4542673E4,1.2870559E4,9.747431E3,5.6680415E3,7.3520527E3,2.8811607E4,7.0207393E3,7.5219336E3,1.10416455E4,1.8289136E3],"tree_param":{"num_deleted":"0","num_feature":"13","num_nodes":"15","size_leaf_vector":"1"}},{"base_weights":[-3.7120353E-5,-2.6241267E-2,6.024525E-1,-5.5653512E-2,5.6352955E-1,5.093697E-1,1.3440093E0,-1.730196E-2,9.265338E-3,-1.4480372E-1,6.0962714E-2,4.313729E-2,1.3471098E-1,-1.3051598E-1,1.4625864E-1],"categories":[],"categories_nodes":[],"categories_segments":[],"categories_sizes":[],"default_left":[0,0,0,0,0,0,0,0,0,0,0,0,0,0,0],"id":72,"left_children":[1,3,5,7,9,11,13,-1,-1,-1,-1,-1,-1,-1,-1],"loss_changes":[1.2403204E3,1.3060104E3,2.253418E2,1.2482567E3,3.3251562E2,1.8962164E2,1.1643384E2,0E0,0E0,0E0,0E0,0E0,0E0,0E0,0E0],"parents":[2147483647,0,0,1,1,2,2,3,3,4,4,5,5,6,6],"right_children":[2,4,6,8,10,12,14,-1,-1,-1,-1,-1,-1,-1,-1],"split_conditions":[4E0,4E0,6E0,6E0,2.5623493E0,4E0,1E0,-1.730196E-2,9.265338E-3,-1.4480372E-1,6.0962714E-2,4.313729E-2,1.3471098E-1,-1.3051598E-1,1.4625864E-1],"split_indices":[2,5,2,12,1,11,5,0,0,0,0,0,0,0,0],"split_type":[0,0,0,0,0,0,0,0,0,0,0,0,0,0,0],"sum_hessian":[7.856032E4,7.528682E4,3.2735012E3,7.171143E4,3.5753892E3,2.909924E3,3.6357718E2,4.0031453E4,3.1679977E4,7.941771E1,3.4959714E3,2.6634607E3,2.4646336E2,1.514783E1,3.4842935E2],"tree_param":{"num_deleted":"0","num_feature":"13","num_nodes":"15","size_leaf_vector":"1"}},{"base_weights":[-8.048682E-6,-1.9396748E-1,8.36679E-2,-3.155039E-1,2.7121585E-2,-4.5787656E-1,1.2248793E-1,-6.816034E-2,-2.232669E-2,-8.18646E-3,5.6438096E-2,-5.3864893E-2,8.0611475E-2,7.170471E-3,4.416209E-2],"categories":[],"categories_nodes":[],"categories_segments":[],"categories_sizes":[],"default_left":[0,0,0,0,0,0,0,0,0,0,0,0,0,0,0],"id":73,"left_children":[1,3,5,7,9,11,13,-1,-1,-1,-1,-1,-1,-1,-1],"loss_changes":[1.2704365E3,6.339382E2,1.1497112E3,5.139169E2,4.9011526E2,3.7391162E2,8.2697577E2,0E0,0E0,0E0,0E0,0E0,0E0,0E0,0E0],"parents":[2147483647,0,0,1,1,2,2,3,3,4,4,5,5,6,6],"right_children":[2,4,6,8,10,12,14,-1,-1,-1,-1,-1,-1,-1,-1],"split_conditions":[1E0,2E0,2.6966856E0,4E0,3E0,4E0,3E0,-6.816034E-2,-2.232669E-2,-8.18646E-3,5.6438096E-2,-5.3864893E-2,8.0611475E-2,7.170471E-3,4.416209E-2],"split_indices":[9,5,1,12,8,2,8,0,0,0,0,0,0,0,0],"split_type":[0,0,0,0,0,0,0,0,0,0,0,0,0,0,0],"sum_hessian":[7.827631E4,2.3591137E4,5.468517E4,1.5222591E4,8.368545E3,3.657118E3,5.1028055E4,3.062154E3,1.2160437E4,6.957935E3,1.41061E3,3.437995E3,2.1912294E2,4.4023824E4,7.0042305E3],"tree_param":{"num_deleted":"0","num_feature":"13","num_nodes":"15","size_leaf_vector":"1"}},{"base_weights":[-7.0553775E-5,-1.5405041E-2,1.0175166E-1,-2.1168737E-1,6.3337766E-2,-2.6488775E-2,3.791159E-2,-5.92868E-3,1.9915517E-2],"categories":[],"categories_nodes":[],"categories_segments":[],"categories_sizes":[],"default_left":[0,0,0,0,0,0,0,0,0],"id":74,"left_children":[1,3,-1,5,7,-1,-1,-1,-1],"loss_changes":[1.216867E3,1.1874172E3,0E0,6.914647E2,9.13187E2,0E0,0E0,0E0,0E0],"parents":[2147483647,0,0,1,1,3,3,4,4],"right_children":[2,4,-1,6,8,-1,-1,-1,-1],"split_conditions":[8E0,1E0,1.0175166E-1,5E0,5E0,-2.6488775E-2,3.791159E-2,-5.92868E-3,1.9915517E-2],"split_indices":[12,10,0,4,0,0,0,0,0],"split_type":[0,0,0,0,0,0,0,0,0],"sum_hessian":[7.798139E4,7.682467E4,1.1567212E3,2.1995287E4,5.4829383E4,2.017879E4,1.8164984E3,2.881444E4,2.6014941E4],"tree_param":{"num_deleted":"0","num_feature":"13","num_nodes":"9","size_leaf_vector":"1"}},{"base_weights":[-1.44869155E-5,-9.2643E-2,1.5984453E-1,-1.2269685E-1,5.888586E-1,-6.970122E-2,2.5388646E-1,-1.5197791E-2,5.160017E-2,-9.500148E-2,6.787445E-2,-2.4514228E-2,2.0000746E-2,1.9573336E-2,6.656017E-2],"categories":[],"categories_nodes":[],"categories_segments":[],"categories_sizes":[],"default_left":[0,0,0,0,0,0,0,0,0,0,0,0,0,0,0],"id":75,"left_children":[1,3,5,7,9,11,13,-1,-1,-1,-1,-1,-1,-1,-1],"loss_changes":[1.1504854E3,1.00761475E3,6.1532874E2,8.812186E2,2.880656E2,3.9206238E2,4.839928E2,0E0,0E0,0E0,0E0,0E0,0E0,0E0,0E0],"parents":[2147483647,0,0,1,1,2,2,3,3,4,4,5,5,6,6],"right_children":[2,4,6,8,10,12,14,-1,-1,-1,-1,-1,-1,-1,-1],"split_conditions":[2E0,4E0,1E0,4E0,1E0,2E0,4E0,-1.5197791E-2,5.160017E-2,-9.500148E-2,6.787445E-2,-2.4514228E-2,2.0000746E-2,1.9573336E-2,6.656017E-2],"split_indices":[11,8,5,10,4,10,11,0,0,0,0,0,0,0,0],"split_type":[0,0,0,0,0,0,0,0,0,0,0,0,0,0,0],"sum_hessian":[7.76941E4,4.9191223E4,2.850288E4,4.7114324E4,2.0768962E3,8.283659E3,2.021922E4,4.5049785E4,2.0645408E3,1.14088974E2,1.9628071E3,5.018984E3,3.2646755E3,1.7718088E4,2.5011323E3],"tree_param":{"num_deleted":"0","num_feature":"13","num_nodes":"15","size_leaf_vector":"1"}},{"base_weights":[-1.5336066E-6,-1.9174562E-1,8.0374785E-2,-2.609765E-1,2.3311783E-1,-1.1870275E-1,1.6903448E-1,-3.0808559E-2,5.0263982E-2,-8.177198E-3,6.435888E-2,-3.85351E-2,6.8187797E-3,1.0835267E-2,5.5279132E-2],"categories":[],"categories_nodes":[],"categories_segments":[],"categories_sizes":[],"default_left":[0,0,0,0,0,0,0,0,0,0,0,0,0,0,0],"id":76,"left_children":[1,3,5,7,9,11,13,-1,-1,-1,-1,-1,-1,-1,-1],"loss_changes":[1.1932847E3,6.727434E2,9.629692E2,7.0759705E2,4.143036E2,8.37799E2,8.7896387E2,0E0,0E0,0E0,0E0,0E0,0E0,0E0,0E0],"parents":[2147483647,0,0,1,1,2,2,3,3,4,4,5,5,6,6],"right_children":[2,4,6,8,10,12,14,-1,-1,-1,-1,-1,-1,-1,-1],"split_conditions":[1E0,3E0,1E0,9E0,2E0,3.6279457E0,3E0,-3.0808559E-2,5.0263982E-2,-8.177198E-3,6.435888E-2,-3.85351E-2,6.8187797E-3,1.0835267E-2,5.5279132E-2],"split_indices":[3,2,6,0,6,1,7,0,0,0,0,0,0,0,0],"split_type":[0,0,0,0,0,0,0,0,0,0,0,0,0,0,0],"sum_hessian":[7.742528E4,2.2868729E4,5.455655E4,1.966477E4,3.2039587E3,1.6810258E4,3.7746293E4,1.8522664E4,1.142106E3,1.8135264E3,1.3904325E3,6.9265957E3,9.883662E3,3.2593674E4,5.1526167E3],"tree_param":{"num_deleted":"0","num_feature":"13","num_nodes":"15","size_leaf_vector":"1"}},{"base_weights":[-3.1416017E-5,-4.642208E-2,3.133117E-1,-2.3736379E-1,3.2901436E-2,4.953686E-3,4.469982E-1,-3.1780843E-2,2.1266589E-2,-7.670895E-4,4.714812E-2,-2.7719561E-2,4.2494465E-2,3.7386537E-2,1.04731694E-1],"categories":[],"categories_nodes":[],"categories_segments":[],"categories_sizes":[],"default_left":[0,0,0,0,0,0,0,0,0,0,0,0,0,0,0],"id":77,"left_children":[1,3,5,7,9,11,13,-1,-1,-1,-1,-1,-1,-1,-1],"loss_changes":[1.1209832E3,1.0174038E3,4.0995685E2,7.138075E2,8.444742E2,3.5663803E2,3.0417407E2,0E0,0E0,0E0,0E0,0E0,0E0,0E0,0E0],"parents":[2147483647,0,0,1,1,2,2,3,3,4,4,5,5,6,6],"right_children":[2,4,6,8,10,12,14,-1,-1,-1,-1,-1,-1,-1,-1],"split_conditions":[3E0,1E0,4E0,3E0,5E0,2E0,5E0,-3.1780843E-2,2.1266589E-2,-7.670895E-4,4.714812E-2,-2.7719561E-2,4.2494465E-2,3.7386537E-2,1.04731694E-1],"split_indices":[9,3,0,11,4,3,9,0,0,0,0,0,0,0,0],"split_type":[0,0,0,0,0,0,0,0,0,0,0,0,0,0,0],"sum_hessian":[7.711469E4,6.717085E4,9.943838E3,1.9714227E4,4.745662E4,3.0076057E3,6.9362324E3,1.672488E4,2.989346E3,4.343912E4,4.017503E3,1.7992274E3,1.2083783E3,6.184445E3,7.517873E2],"tree_param":{"num_deleted":"0","num_feature":"13","num_nodes":"15","size_leaf_vector":"1"}},{"base_weights":[-2.8804017E-5,-2.837009E-2,4.921329E-1,-8.689091E-2,2.2742692E-1,1.3103038E-1,6.160902E-1,-1.1529728E-2,5.0955053E-2,1.6451132E-2,6.724221E-2,-1.6796148E-1,2.081001E-2,4.6105534E-2,8.4097534E-2],"categories":[],"categories_nodes":[],"categories_segments":[],"categories_sizes":[],"default_left":[0,0,0,0,0,0,0,0,0,0,0,0,0,0,0],"id":78,"left_children":[1,3,5,7,9,11,13,-1,-1,-1,-1,-1,-1,-1,-1],"loss_changes":[1.0720798E3,1.0879232E3,1.8724567E2,1.00213257E3,3.7872296E2,1.497684E2,1.0822583E2,0E0,0E0,0E0,0E0,0E0,0E0,0E0,0E0],"parents":[2147483647,0,0,1,1,2,2,3,3,4,4,5,5,6,6],"right_children":[2,4,6,8,10,12,14,-1,-1,-1,-1,-1,-1,-1,-1],"split_conditions":[4.954023E0,7E0,1E0,4E0,1E1,2E0,2E0,-1.1529728E-2,5.0955053E-2,1.6451132E-2,6.724221E-2,-1.6796148E-1,2.081001E-2,4.6105534E-2,8.4097534E-2],"split_indices":[1,0,7,10,0,0,9,0,0,0,0,0,0,0,0],"split_type":[0,0,0,0,0,0,0,0,0,0,0,0,0,0,0],"sum_hessian":[7.685791E4,7.26739E4,4.184007E3,5.9143746E4,1.353015E4,1.0697507E3,3.1142559E3,5.645577E4,2.6879792E3,1.1855353E4,1.6747983E3,4.282577E1,1.026925E3,1.8452196E3,1.2690363E3],"tree_param":{"num_deleted":"0","num_feature":"13","num_nodes":"15","size_leaf_vector":"1"}},{"base_weights":[2.0629577E-5,-1.4003817E-2,1.01592E-1,-5.913175E-2,2.8533775E-1,-1.4561203E-2,1.091828E-2,-1.729468E-2,3.674318E-2],"categories":[],"categories_nodes":[],"categories_segments":[],"categories_sizes":[],"default_left":[0,0,0,0,0,0,0,0,0],"id":79,"left_children":[1,3,-1,5,7,-1,-1,-1,-1],"loss_changes":[1.0910326E3,1.02039087E3,0E0,9.5546484E2,3.7236627E2,0E0,0E0,0E0,0E0],"parents":[2147483647,0,0,1,1,3,3,4,4],"right_children":[2,4,-1,6,8,-1,-1,-1,-1],"split_conditions":[8E0,3E0,1.01592E-1,2E0,3E0,-1.4561203E-2,1.091828E-2,-1.729468E-2,3.674318E-2],"split_indices":[12,6,0,7,0,0,0,0,0],"split_type":[0,0,0,0,0,0,0,0,0],"sum_hessian":[7.657554E4,7.553378E4,1.0417545E3,6.563902E4,9.894761E3,4.3360473E4,2.2278547E4,1.5030388E3,8.391722E3],"tree_param":{"num_deleted":"0","num_feature":"13","num_nodes":"9","size_leaf_vector":"1"}},{"base_weights":[8.179721E-5,-1.7839044E-1,7.492424E-2,-7.493934E-1,-1.3244008E-1,-1.1672101E-1,1.734181E-1,-1.1137899E-1,-3.569907E-2,-2.1171207E-2,1.738532E-2,-5.6388713E-2,-2.4865807E-3,1.241432E-2,5.8249056E-2],"categories":[],"categories_nodes":[],"categories_segments":[],"categories_sizes":[],"default_left":[0,0,0,0,0,0,0,0,0,0,0,0,0,0,0],"id":80,"left_children":[1,3,5,7,9,11,13,-1,-1,-1,-1,-1,-1,-1,-1],"loss_changes":[1.0192054E3,5.914052E2,1.01477405E3,2.396615E2,5.066766E2,7.4960956E2,7.1570215E2,0E0,0E0,0E0,0E0,0E0,0E0,0E0,0E0],"parents":[2147483647,0,0,1,1,2,2,3,3,4,4,5,5,6,6],"right_children":[2,4,6,8,10,12,14,-1,-1,-1,-1,-1,-1,-1,-1],"split_conditions":[1E0,2.7338405E0,2E0,6E0,7E0,3E0,8E0,-1.1137899E-1,-3.569907E-2,-2.1171207E-2,1.738532E-2,-5.6388713E-2,-2.4865807E-3,1.241432E-2,5.8249056E-2],"split_indices":[8,1,4,12,12,0,0,0,0,0,0,0,0,0,0],"split_type":[0,0,0,0,0,0,0,0,0,0,0,0,0,0,0],"sum_hessian":[7.6301266E4,2.2542986E4,5.3758277E4,1.6778496E3,2.0865137E4,1.8249324E4,3.5508953E4,8.6901697E2,8.0883264E2,1.6575521E4,4.2896143E3,3.109011E3,1.51403125E4,3.1692707E4,3.8162483E3],"tree_param":{"num_deleted":"0","num_feature":"13","num_nodes":"15","size_leaf_vector":"1"}},{"base_weights":[1.1629932E-5,-1.7349954E-1,7.4435174E-2,-2.8444883E-1,2.5875257E-2,-5.153361E-1,1.03544734E-1,-6.3474834E-2,-1.9898493E-2,-3.3104822E-2,1.6559457E-2,-7.174278E-2,3.323549E-2,-8.820119E-3,1.847954E-2],"categories":[],"categories_nodes":[],"categories_segments":[],"categories_sizes":[],"default_left":[0,0,0,0,0,0,0,0,0,0,0,0,0,0,0],"id":81,"left_children":[1,3,5,7,9,11,13,-1,-1,-1,-1,-1,-1,-1,-1],"loss_changes":[9.8203467E2,5.0496722E2,9.1374255E2,4.3895166E2,4.0710834E2,4.2910547E2,7.901778E2,0E0,0E0,0E0,0E0,0E0,0E0,0E0,0E0],"parents":[2147483647,0,0,1,1,2,2,3,3,4,4,5,5,6,6],"right_children":[2,4,6,8,10,12,14,-1,-1,-1,-1,-1,-1,-1,-1],"split_conditions":[1E0,2E0,2.5958428E0,4E0,1E0,3E0,1E0,-6.3474834E-2,-1.9898493E-2,-3.3104822E-2,1.6559457E-2,-7.174278E-2,3.323549E-2,-8.820119E-3,1.847954E-2],"split_indices":[9,5,1,12,3,10,11,0,0,0,0,0,0,0,0],"split_type":[0,0,0,0,0,0,0,0,0,0,0,0,0,0,0],"sum_hessian":[7.604623E4,2.2826697E4,5.3219527E4,1.4665258E4,8.161439E3,2.5024377E3,5.071709E4,2.8749568E3,1.1790301E4,2.2956526E3,5.865786E3,2.0208223E3,4.8161545E2,1.5094655E4,3.5622434E4],"tree_param":{"num_deleted":"0","num_feature":"13","num_nodes":"15","size_leaf_vector":"1"}},{"base_weights":[-7.863599E-5,-1.744589E-1,7.4318856E-2,-8.663137E-1,-1.2972337E-1,-3.5757387E-1,1.0995404E-1,-1.3402127E-1,-1.2033048E-2,-1.5048193E-2,1.2148094E-1,-8.464071E-2,5.8194227E-3,-1.04078E-2,1.7794833E-2],"categories":[],"categories_nodes":[],"categories_segments":[],"categories_sizes":[],"default_left":[0,0,0,0,0,0,0,0,0,0,0,0,0,0,0],"id":82,"left_children":[1,3,5,7,9,11,13,-1,-1,-1,-1,-1,-1,-1,-1],"loss_changes":[9.8338434E2,7.0147534E2,8.177662E2,4.8647034E2,5.9446924E2,8.2316705E2,7.1431696E2,0E0,0E0,0E0,0E0,0E0,0E0,0E0,0E0],"parents":[2147483647,0,0,1,1,2,2,3,3,4,4,5,5,6,6],"right_children":[2,4,6,8,10,12,14,-1,-1,-1,-1,-1,-1,-1,-1],"split_conditions":[1E0,2E0,3E0,2E0,5E0,3.771223E0,3.2434573E0,-1.3402127E-1,-1.2033048E-2,-1.5048193E-2,1.2148094E-1,-8.464071E-2,5.8194227E-3,-1.04078E-2,1.7794833E-2],"split_indices":[2,0,12,7,10,1,1,0,0,0,0,0,0,0,0],"split_type":[0,0,0,0,0,0,0,0,0,0,0,0,0,0,0],"sum_hessian":[7.579773E4,2.2667062E4,5.3130668E4,1.3755294E3,2.1291533E4,4.0489539E3,4.908171E4,8.4067755E2,5.348518E2,2.0968682E4,3.2285223E2,1.8604827E3,2.1884712E3,1.1833079E4,3.7248633E4],"tree_param":{"num_deleted":"0","num_feature":"13","num_nodes":"15","size_leaf_vector":"1"}},{"base_weights":[-1.7542817E-4,-4.409918E-2,2.918211E-1,-2.4399203E-1,3.947505E-2,-1.6639994E0,3.0605462E-1,-3.196271E-2,2.3448657E-2,6.1825535E-4,6.951892E-2,-1.3738875E-1,-1.855892E-1,1.9133897E-2,5.473811E-2],"categories":[],"categories_nodes":[],"categories_segments":[],"categories_sizes":[],"default_left":[0,0,0,0,0,0,0,0,0,0,0,0,0,0,0],"id":83,"left_children":[1,3,5,7,9,11,13,-1,-1,-1,-1,-1,-1,-1,-1],"loss_changes":[9.6878186E2,1.096892E3,2.7545923E2,7.0064075E2,1.0107695E3,1.431427E0,2.7136914E2,0E0,0E0,0E0,0E0,0E0,0E0,0E0,0E0],"parents":[2147483647,0,0,1,1,2,2,3,3,4,4,5,5,6,6],"right_children":[2,4,6,8,10,12,14,-1,-1,-1,-1,-1,-1,-1,-1],"split_conditions":[3E0,1E0,1E0,3E0,4E0,3.6136699E0,4E0,-3.196271E-2,2.3448657E-2,6.1825535E-4,6.951892E-2,-1.3738875E-1,-1.855892E-1,1.9133897E-2,5.473811E-2],"split_indices":[3,5,0,2,9,1,3,0,0,0,0,0,0,0,0],"split_type":[0,0,0,0,0,0,0,0,0,0,0,0,0,0,0],"sum_hessian":[7.553312E4,6.5657414E4,9.875707E3,1.9357123E4,4.630029E4,7.051398E1,9.805192E3,1.6715213E4,2.64191E3,4.4064043E4,2.236249E3,3.1321054E1,3.919292E1,6.6472065E3,3.1579863E3],"tree_param":{"num_deleted":"0","num_feature":"13","num_nodes":"15","size_leaf_vector":"1"}},{"base_weights":[-1.7001832E-4,-1.7451441E-1,6.946007E-2,-5.314506E-1,-1.0267547E-1,2.2876158E-2,3.593399E-1,-7.300304E-2,1.9192705E-2,-1.7076379E-2,3.157576E-2,-4.890919E-4,6.039613E-2,-6.419271E-3,4.7673505E-2],"categories":[],"categories_nodes":[],"categories_segments":[],"categories_sizes":[],"default_left":[0,0,0,0,0,0,0,0,0,0,0,0,0,0,0],"id":84,"left_children":[1,3,5,7,9,11,13,-1,-1,-1,-1,-1,-1,-1,-1],"loss_changes":[9.1421E2,5.510628E2,7.266975E2,5.173836E2,5.0983435E2,7.4811084E2,3.7048547E2,0E0,0E0,0E0,0E0,0E0,0E0,0E0,0E0],"parents":[2147483647,0,0,1,1,2,2,3,3,4,4,5,5,6,6],"right_children":[2,4,6,8,10,12,14,-1,-1,-1,-1,-1,-1,-1,-1],"split_conditions":[1E0,3E0,3E0,4E0,3E0,4E0,3.2866092E0,-7.300304E-2,1.9192705E-2,-1.7076379E-2,3.157576E-2,-4.890919E-4,6.039613E-2,-6.419271E-3,4.7673505E-2],"split_indices":[10,0,8,4,2,3,1,0,0,0,0,0,0,0,0],"split_type":[0,0,0,0,0,0,0,0,0,0,0,0,0,0,0],"sum_hessian":[7.5305984E4,2.1491828E4,5.3814156E4,3.599767E3,1.789206E4,4.6364434E4,7.449722E3,2.8244087E3,7.753584E2,1.538859E4,2.5034717E3,4.4250902E4,2.1135322E3,1.6168784E3,5.8328438E3],"tree_param":{"num_deleted":"0","num_feature":"13","num_nodes":"15","size_leaf_vector":"1"}},{"base_weights":[-1.7105241E-4,-2.4064729E-2,4.954417E-1,-5.025646E-2,4.3628323E-1,-1.3931417E0,5.359817E-1,-7.5085047E-3,4.36166E-2,3.084769E-3,5.6531806E-2,-1.4336336E-1,-3.0214036E-2,-1.2310802E-2,6.311046E-2],"categories":[],"categories_nodes":[],"categories_segments":[],"categories_sizes":[],"default_left":[0,0,0,0,0,0,0,0,0,0,0,0,0,0,0],"id":85,"left_children":[1,3,5,7,9,11,13,-1,-1,-1,-1,-1,-1,-1,-1],"loss_changes":[8.8877185E2,8.63332E2,2.6503436E2,8.182256E2,2.0163446E2,2.7837067E0,2.1198962E2,0E0,0E0,0E0,0E0,0E0,0E0,0E0,0E0],"parents":[2147483647,0,0,1,1,2,2,3,3,4,4,5,5,6,6],"right_children":[2,4,6,8,10,12,14,-1,-1,-1,-1,-1,-1,-1,-1],"split_conditions":[4E0,4.954023E0,2.5623493E0,9E0,1E0,4E0,3E0,-7.5085047E-3,4.36166E-2,3.084769E-3,5.6531806E-2,-1.4336336E-1,-3.0214036E-2,-1.2310802E-2,6.311046E-2],"split_indices":[5,1,1,0,11,7,0,0,0,0,0,0,0,0,0],"split_type":[0,0,0,0,0,0,0,0,0,0,0,0,0,0,0],"sum_hessian":[7.505044E4,7.159955E4,3.45089E3,6.7746E4,3.8535518E3,7.181835E1,3.3790715E3,6.445676E4,3.2892375E3,9.306449E2,2.922907E3,6.8945435E1,2.872915E0,4.2613852E2,2.952933E3],"tree_param":{"num_deleted":"0","num_feature":"13","num_nodes":"15","size_leaf_vector":"1"}},{"base_weights":[-1.08089844E-4,-2.2915354E-2,5.130177E-1,-1.0025535E-1,1.2610768E-1,-1.20387316E-1,5.981546E-1,-1.28123835E-2,5.1178914E-2,1.7231485E-3,3.088894E-2,-4.7744825E-2,8.642824E-2,5.3606953E-2,1.3742428E-1],"categories":[],"categories_nodes":[],"categories_segments":[],"categories_sizes":[],"default_left":[0,0,0,0,0,0,0,0,0,0,0,0,0,0,0],"id":86,"left_children":[1,3,5,7,9,11,13,-1,-1,-1,-1,-1,-1,-1,-1],"loss_changes":[8.756035E2,8.256346E2,1.7177295E2,8.044674E2,4.8706973E2,1.333445E2,1.3451007E2,0E0,0E0,0E0,0E0,0E0,0E0,0E0,0E0],"parents":[2147483647,0,0,1,1,2,2,3,3,4,4,5,5,6,6],"right_children":[2,4,6,8,10,12,14,-1,-1,-1,-1,-1,-1,-1,-1],"split_conditions":[4E0,2E0,3E0,4E0,2E0,3E0,6E0,-1.28123835E-2,5.1178914E-2,1.7231485E-3,3.088894E-2,-4.7744825E-2,8.642824E-2,5.3606953E-2,1.3742428E-1],"split_indices":[6,7,0,2,10,8,6,0,0,0,0,0,0,0,0],"split_type":[0,0,0,0,0,0,0,0,0,0,0,0,0,0,0],"sum_hessian":[7.481675E4,7.163375E4,3.1830002E3,4.715932E4,2.4474424E4,3.7709082E2,2.8059094E3,4.510627E4,2.053052E3,1.5338783E4,9.135642E3,2.7711758E2,9.997326E1,2.5996357E3,2.0627367E2],"tree_param":{"num_deleted":"0","num_feature":"13","num_nodes":"15","size_leaf_vector":"1"}},{"base_weights":[-7.272803E-5,-1.2799554E-2,1.0144409E-1,-5.48474E-2,2.5535727E-1,-8.780398E-3,3.1208206E-2,1.7119717E-2,6.293317E-2],"categories":[],"categories_nodes":[],"categories_segments":[],"categories_sizes":[],"default_left":[0,0,0,0,0,0,0,0,0],"id":87,"left_children":[1,3,-1,5,7,-1,-1,-1,-1],"loss_changes":[9.6327026E2,8.307988E2,0E0,7.702687E2,3.1423773E2,0E0,0E0,0E0,0E0],"parents":[2147483647,0,0,1,1,3,3,4,4],"right_children":[2,4,-1,6,8,-1,-1,-1,-1],"split_conditions":[8E0,3E0,1.0144409E-1,5E0,4.464881E0,-8.780398E-3,3.1208206E-2,1.7119717E-2,6.293317E-2],"split_indices":[12,11,0,4,1,0,0,0,0],"split_type":[0,0,0,0,0,0,0,0,0],"sum_hessian":[7.460338E4,7.368007E4,9.2331116E2,6.369352E4,9.986552E3,5.844492E4,5.2485996E3,8.153195E3,1.833357E3],"tree_param":{"num_deleted":"0","num_feature":"13","num_nodes":"9","size_leaf_vector":"1"}},{"base_weights":[1.3323515E-5,-1.15252705E-2,1.012842E-1,